svm_type c_svc
kernel_type rbf
gamma 0.125
nr_class 7
total_sv 28356
rho 1.20287 0.240749 -0.320547 -0.0999806 0.0395274 -0.196922 -1.48282 -1.22974 -1.17296 -1.18814 -1.13863 -0.429438 -0.113217 -0.127376 -0.294361 0.145824 0.424842 -0.129377 0.218106 -0.111073 -0.664195
label 1 0 5 3 2 4 6
nr_sv 4292 8295 5031 2788 3895 3180 875
SV
1 0 0 0 0 0 0:25 1:0 2:0 3:0 4:0 5:0 6:1 7:0 8:0 
1 0 0 0 0 0 0:25 1:0 2:0 3:0 4:0 5:0 6:1 7:0 8:0 
1 0 0 0 0 0 0:25 1:0 2:0 3:0 4:0 5:0 6:1 7:0 8:0 
1 1 0 1 0 0 0:25 1:1 2:0 3:0 4:0 5:0 6:1 7:0 8:0 
1 0 0 0 0 0 0:25 1:0 2:0 3:0 4:0 5:0 6:1 7:0 8:0 
1 0 0 0 0 0 0:25 1:0 2:0 3:0 4:0 5:0 6:1 7:0 8:0 
1 0 0 0 0 0 0:25 1:0 2:0 3:0 4:0 5:0 6:1 7:0 8:0 
1 0 0 0 0 0 0:25 1:0 2:0 3:0 4:0 5:0 6:1 7:0 8:0 
1 0 0 0 0 0 0:25 1:0 2:0 3:0 4:0 5:0 6:1 7:0 8:0 
1 0 0 0 0 0 0:25 1:0 2:0 3:0 4:0 5:0 6:1 7:0 8:0 
1 0 0 0 0 0 0:25 1:0 2:0 3:0 4:0 5:0 6:1 7:0 8:0 
1 1 1 1 1 0 0:14 1:0 2:0 3:0 4:0 5:0 6:0 7:0 8:0 
1 0 0 0 0 0 0:25 1:0 2:0 3:0 4:0 5:0 6:1 7:0 8:0 
1 0 0 0 0 0 0:25 1:0 2:0 3:0 4:0 5:0 6:1 7:0 8:0 
1 0 0 0 0 0 0:25 1:0 2:0 3:0 4:0 5:0 6:1 7:0 8:0 
1 0 0 0 0 0 0:38 1:0 2:0 3:0 4:0 5:0 6:1 7:0 8:0 
1 0 0 0 0 0 0:25 1:0 2:0 3:0 4:0 5:0 6:1 7:0 8:0 
1 0 0 0 0 0 0:25 1:0 2:0 3:0 4:0 5:0 6:1 7:0 8:0 
1 0 0 0 0 0 0:25 1:0 2:0 3:0 4:0 5:0 6:1 7:0 8:0 
1 1 0 1 0 0 0:25 1:0 2:0 3:0 4:1 5:0 6:1 7:0 8:0 
1 0 0 0 0 0 0:25 1:0 2:0 3:0 4:0 5:0 6:1 7:0 8:0 
1 0 0 0 0 0 0:25 1:0 2:0 3:0 4:0 5:0 6:1 7:0 8:0 
1 0 0 0 0 0 0:25 1:0 2:0 3:0 4:0 5:0 6:1 7:0 8:0 
1 0 0 0 0 0 0:25 1:0 2:0 3:0 4:0 5:0 6:1 7:0 8:0 
1 0 0 0 0 0 0:25 1:0 2:0 3:0 4:0 5:0 6:1 7:0 8:0 
1 0 0 0 0 0 0:25 1:0 2:0 3:0 4:0 5:0 6:1 7:0 8:0 
1 0 0 0 0 0 0:25 1:0 2:0 3:0 4:0 5:0 6:1 7:0 8:0 
1 1 0 1 0 0 0:25 1:0 2:0 3:0 4:1 5:0 6:1 7:0 8:0 
1 0 0 0 0 0 0:25 1:0 2:0 3:0 4:0 5:0 6:1 7:0 8:0 
1 0 0 0 0 0 0:25 1:0 2:0 3:0 4:0 5:0 6:1 7:0 8:0 
1 0 0 0 0 0 0:25 1:0 2:0 3:0 4:0 5:0 6:1 7:0 8:0 
1 0 0 0 0 0 0:25 1:0 2:0 3:0 4:0 5:0 6:1 7:0 8:0 
1 0 0 0 0 0 0:25 1:0 2:0 3:0 4:0 5:0 6:1 7:0 8:0 
1 1 0 1 0 0 0:25 1:0 2:0 3:0 4:1 5:0 6:1 7:0 8:0 
1 0 0 0 0 0 0:25 1:0 2:0 3:0 4:0 5:0 6:1 7:0 8:0 
1 0 0 0 0 0 0:25 1:0 2:0 3:0 4:0 5:0 6:1 7:0 8:0 
1 0 0 0 0 0 0:25 1:0 2:0 3:0 4:0 5:0 6:1 7:0 8:0 
1 1 0 1 0 0 0:25 1:0 2:0 3:0 4:1 5:0 6:1 7:0 8:0 
1 0 0 0 0 0 0:25 1:0 2:0 3:0 4:0 5:0 6:1 7:0 8:0 
1 0 0 0 0 0 0:25 1:0 2:0 3:0 4:0 5:0 6:1 7:0 8:0 
1 0 0 0 0 0 0:25 1:0 2:0 3:0 4:0 5:0 6:1 7:0 8:0 
1 0 0 0 0 0 0:25 1:0 2:0 3:0 4:0 5:0 6:1 7:0 8:0 
1 1 1 1 1 1 0:25 1:0 2:0 3:0 4:0 5:0 6:1 7:1 8:0 
1 1 0 1 0 0 0:25 1:1 2:0 3:0 4:0 5:0 6:1 7:0 8:0 
1 1 0 1 0 0 0:8 1:0 2:0 3:0 4:0 5:0 6:0 7:0 8:0 
1 0 0 0 0 0 0:25 1:0 2:0 3:0 4:0 5:0 6:1 7:0 8:0 
1 0 0 0 0 0 0:25 1:0 2:0 3:0 4:0 5:0 6:1 7:0 8:0 
1 0 0 0 0 0 0:25 1:0 2:0 3:0 4:0 5:0 6:1 7:0 8:0 
1 0 0 0 0 0 0:25 1:0 2:0 3:0 4:0 5:0 6:1 7:0 8:0 
1 0 0 0 0 0 0:25 1:0 2:0 3:0 4:0 5:0 6:1 7:0 8:0 
1 0 0 0 0 0 0:25 1:0 2:0 3:0 4:0 5:0 6:1 7:0 8:0 
1 0 0 0 0 0 0:25 1:0 2:0 3:0 4:0 5:0 6:1 7:0 8:0 
1 0 0 0 0 0 0:25 1:0 2:0 3:0 4:0 5:0 6:1 7:0 8:0 
1 0 0 0 0 0 0:25 1:0 2:0 3:0 4:0 5:0 6:1 7:0 8:0 
1 0 0 0 0 0 0:25 1:0 2:0 3:0 4:0 5:0 6:1 7:0 8:0 
1 0 0 0 0 0 0:25 1:0 2:0 3:0 4:0 5:0 6:1 7:0 8:0 
1 0 0 0 0 0 0:25 1:0 2:0 3:0 4:0 5:0 6:1 7:0 8:0 
1 0 0 0 0 0 0:25 1:0 2:0 3:0 4:0 5:0 6:1 7:0 8:0 
1 0 0 0 0 0 0:25 1:0 2:0 3:0 4:0 5:0 6:1 7:0 8:0 
1 0 0 0 0 0 0:25 1:0 2:0 3:0 4:0 5:0 6:1 7:0 8:0 
1 0 0 0 0 0 0:25 1:0 2:0 3:0 4:0 5:0 6:1 7:0 8:0 
1 0 0 0 0 0 0:8 1:0 2:0 3:0 4:1 5:0 6:1 7:0 8:0 
1 0 0 0 0 0 0:25 1:0 2:0 3:0 4:0 5:0 6:1 7:0 8:0 
1 0 0 0 0 0 0:25 1:0 2:0 3:0 4:0 5:0 6:1 7:0 8:0 
1 1 1 1 1 1 0:25 1:0 2:0 3:0 4:0 5:0 6:1 7:1 8:0 
1 0 0 0 0 0 0:25 1:0 2:0 3:0 4:0 5:0 6:1 7:0 8:0 
1 0 0 0 0 0 0:25 1:0 2:0 3:0 4:0 5:0 6:1 7:0 8:0 
1 0 0 0 0 0 0:25 1:0 2:0 3:0 4:0 5:0 6:1 7:0 8:0 
1 1 0 1 0 0 0:25 1:1 2:0 3:0 4:0 5:0 6:1 7:0 8:0 
1 0 0 0 0 0 0:25 1:0 2:0 3:0 4:0 5:0 6:1 7:0 8:0 
1 1 0 1 0 0 0:25 1:1 2:0 3:0 4:0 5:0 6:1 7:0 8:0 
1 0 0 0 0 1 0:38 1:0 2:0 3:1 4:0 5:0 6:1 7:0 8:0 
1 0.3429921051309264 0.1946503062486812 1 1 1 0:38 1:0 2:0 3:1 4:0 5:0 6:1 7:1 8:0 
1 0 0 0 0 0 0:25 1:0 2:0 3:0 4:0 5:0 6:1 7:0 8:0 
1 0 0 0 0 0 0:25 1:0 2:0 3:0 4:0 5:0 6:1 7:0 8:0 
1 0 0 0 0 0 0:25 1:0 2:0 3:0 4:0 5:0 6:1 7:0 8:0 
1 0 0 0 0 0 0:25 1:0 2:0 3:0 4:0 5:0 6:1 7:0 8:0 
1 0 0 0 0 0 0:25 1:0 2:0 3:0 4:0 5:0 6:1 7:0 8:0 
1 1 0 1 0 0 0:25 1:0 2:0 3:0 4:1 5:0 6:1 7:0 8:0 
1 0 0 0 0 0 0:25 1:0 2:0 3:0 4:0 5:0 6:1 7:0 8:0 
1 0 0 0 0 1 0:38 1:0 2:0 3:1 4:0 5:0 6:1 7:0 8:0 
1 1 0 1 0 0 0:25 1:1 2:0 3:0 4:0 5:0 6:1 7:0 8:0 
1 1 0 1 0 0 0:25 1:1 2:0 3:0 4:0 5:0 6:1 7:0 8:0 
1 1 0 1 0 0 0:25 1:1 2:0 3:0 4:1 5:0 6:1 7:0 8:0 
1 1 0 1 0 0 0:25 1:1 2:0 3:0 4:0 5:0 6:1 7:0 8:0 
1 0 0 0 0 0 0:25 1:0 2:0 3:0 4:0 5:0 6:1 7:0 8:0 
0 0 0 0 0 1 0:25 1:0 2:0 3:1 4:0 5:0 6:1 7:1 8:0 
1 0 0 0 0 0 0:25 1:0 2:0 3:0 4:0 5:0 6:1 7:0 8:0 
1 0 0 0 0 0 0:8 1:0 2:0 3:0 4:1 5:0 6:1 7:0 8:0 
1 0 0 0 0 0 0:38 1:0 2:0 3:0 4:0 5:0 6:1 7:0 8:0 
1 0 0 0 0 0 0:25 1:0 2:0 3:0 4:0 5:0 6:1 7:0 8:0 
1 0 0 0 0 0 0:25 1:0 2:0 3:0 4:0 5:0 6:1 7:0 8:0 
1 0 0 0 0 0 0:25 1:0 2:0 3:0 4:0 5:0 6:1 7:0 8:0 
1 0 0 0 0 0 0:25 1:0 2:0 3:0 4:0 5:0 6:1 7:0 8:0 
1 0 0 0 0 0 0:25 1:0 2:0 3:0 4:0 5:0 6:1 7:0 8:0 
1 0 0 0 0 0 0:25 1:0 2:0 3:0 4:0 5:0 6:1 7:0 8:0 
1 0 0 0 0 0 0:25 1:0 2:0 3:0 4:0 5:0 6:1 7:0 8:0 
1 0 0 0 0 0 0:25 1:0 2:0 3:0 4:0 5:0 6:1 7:0 8:0 
1 0 0 0 0 0 0:25 1:0 2:0 3:0 4:0 5:0 6:1 7:0 8:0 
1 0 0 0 0 0 0:25 1:0 2:0 3:0 4:0 5:0 6:1 7:0 8:0 
1 0 0 0 0 0 0:25 1:0 2:0 3:0 4:0 5:0 6:1 7:0 8:0 
1 0 0 0 0 0 0:25 1:0 2:0 3:0 4:0 5:0 6:1 7:0 8:0 
1 0 0 0 0 0 0:25 1:0 2:0 3:0 4:0 5:0 6:1 7:0 8:0 
1 0 0 0 0 0 0:25 1:0 2:0 3:0 4:0 5:0 6:1 7:0 8:0 
1 0 0 0 0 1 0:38 1:0 2:0 3:1 4:0 5:0 6:1 7:0 8:0 
1 1 1 1 1 1 0:25 1:0 2:0 3:0 4:0 5:0 6:1 7:1 8:0 
1 0 0 0 0 0 0:25 1:0 2:0 3:0 4:0 5:0 6:1 7:0 8:0 
1 0 0 0 0 0 0:25 1:0 2:0 3:0 4:0 5:0 6:1 7:0 8:0 
1 0 0 0 0 0 0:25 1:0 2:0 3:0 4:0 5:0 6:1 7:0 8:0 
1 0 0 0 0 0 0:25 1:0 2:0 3:0 4:0 5:0 6:1 7:0 8:0 
1 0 0 0 0 0 0:25 1:0 2:0 3:0 4:0 5:0 6:1 7:0 8:0 
1 0 0 0 0 0 0:25 1:0 2:0 3:0 4:0 5:0 6:1 7:0 8:0 
1 0 0 0 0 0 0:25 1:0 2:0 3:0 4:0 5:0 6:1 7:0 8:0 
1 0 0 0 0 0 0:25 1:0 2:0 3:0 4:0 5:0 6:1 7:0 8:0 
1 0 0 0 0 0 0:25 1:0 2:0 3:0 4:0 5:0 6:1 7:0 8:0 
1 0 0 0 0 0 0:25 1:0 2:0 3:0 4:0 5:0 6:1 7:0 8:0 
1 1 0 1 0 0 0:25 1:1 2:0 3:0 4:0 5:0 6:1 7:0 8:0 
1 0 0 0 0 0 0:25 1:0 2:0 3:0 4:0 5:0 6:1 7:0 8:0 
1 0 0 0 0 0 0:25 1:0 2:0 3:0 4:0 5:0 6:1 7:0 8:0 
1 0 0 0 0 0 0:25 1:0 2:0 3:0 4:0 5:0 6:1 7:0 8:0 
1 0 0 0 0 0 0:25 1:0 2:0 3:0 4:0 5:0 6:1 7:0 8:0 
1 0 0 0 0 0 0:25 1:0 2:0 3:0 4:0 5:0 6:1 7:0 8:0 
1 1 1 1 1 1 0:25 1:0 2:0 3:0 4:0 5:0 6:1 7:1 8:0 
1 0 0 0 0 0 0:25 1:0 2:0 3:0 4:0 5:0 6:1 7:0 8:0 
1 1 1 1 1 1 0:25 1:0 2:0 3:0 4:0 5:1 6:0 7:1 8:0 
1 0 0 0 0 0 0:25 1:0 2:0 3:0 4:0 5:0 6:1 7:0 8:0 
1 0 0 0 0 0 0:25 1:0 2:0 3:0 4:0 5:0 6:1 7:0 8:0 
1 1 0 1 0 0 0:25 1:0 2:0 3:0 4:1 5:0 6:1 7:0 8:0 
1 0 0 0 0 0 0:14 1:0 2:0 3:1 4:0 5:0 6:1 7:0 8:0 
1 0 0 0 0 0 0:25 1:0 2:0 3:0 4:0 5:0 6:1 7:0 8:0 
1 0 0 0 0 0 0:25 1:0 2:0 3:0 4:0 5:0 6:1 7:0 8:0 
1 0 0 0 0 0 0:25 1:0 2:0 3:0 4:0 5:0 6:1 7:0 8:0 
1 0 0 0 0 0 0:25 1:0 2:0 3:0 4:0 5:0 6:1 7:0 8:0 
1 0 0 0 0 0 0:25 1:0 2:0 3:0 4:0 5:0 6:1 7:0 8:0 
1 0 0 0 0 0 0:25 1:0 2:0 3:0 4:0 5:0 6:1 7:0 8:0 
1 0 0 0 0 0 0:25 1:0 2:0 3:0 4:0 5:0 6:1 7:0 8:0 
1 0 0 0 0 0 0:25 1:0 2:0 3:0 4:0 5:0 6:1 7:0 8:0 
1 0 0 0 0 0 0:25 1:0 2:0 3:0 4:0 5:0 6:1 7:0 8:0 
1 0 0 0 0 0 0:25 1:0 2:0 3:0 4:0 5:0 6:1 7:0 8:0 
1 0 0 0 0 0 0:25 1:0 2:0 3:0 4:0 5:0 6:1 7:0 8:0 
1 0 0 0 0 0 0:8 1:0 2:0 3:1 4:1 5:0 6:1 7:0 8:0 
1 0 0 0 0 0 0:25 1:0 2:0 3:0 4:0 5:0 6:1 7:0 8:0 
1 1 0 1 0 0 0:25 1:1 2:0 3:0 4:0 5:0 6:1 7:0 8:0 
1 0 0 0 0 0 0:25 1:0 2:0 3:0 4:0 5:0 6:1 7:0 8:0 
1 0 0 0 0 0 0:25 1:0 2:0 3:0 4:0 5:0 6:1 7:0 8:0 
1 0 0 0 0 0 0:25 1:0 2:0 3:0 4:0 5:0 6:1 7:0 8:0 
1 0 0 0 0 0 0:25 1:0 2:0 3:0 4:0 5:0 6:1 7:0 8:0 
1 0 0 0 0 0 0:8 1:0 2:0 3:1 4:1 5:0 6:1 7:0 8:0 
1 0 0 0 0 0 0:25 1:0 2:0 3:0 4:0 5:0 6:1 7:0 8:0 
1 0 0 0 0 0 0:25 1:0 2:0 3:0 4:0 5:0 6:1 7:0 8:0 
1 0 0 0 0 0 0:25 1:0 2:0 3:0 4:0 5:0 6:1 7:0 8:0 
1 0 0 0 0 0 0:25 1:0 2:0 3:0 4:0 5:0 6:1 7:0 8:0 
1 1 0 1 0 0 0:25 1:0 2:0 3:0 4:1 5:0 6:1 7:0 8:0 
1 0 0 0 0 0 0:25 1:0 2:0 3:0 4:0 5:0 6:1 7:0 8:0 
1 0 0 0 0 0 0:25 1:0 2:0 3:0 4:0 5:0 6:1 7:0 8:0 
1 0 0 0 0 0 0:25 1:0 2:0 3:0 4:0 5:0 6:1 7:0 8:0 
1 1 0 1 0 0 0:25 1:0 2:0 3:0 4:1 5:0 6:1 7:0 8:0 
1 0 0 0 0 0 0:25 1:0 2:0 3:0 4:0 5:0 6:1 7:0 8:0 
1 0 0 0 0 0 0:25 1:0 2:0 3:0 4:0 5:0 6:1 7:0 8:0 
1 0 0 0 0 0 0:25 1:0 2:0 3:0 4:0 5:0 6:1 7:0 8:0 
1 0 0 0 0 0 0:25 1:0 2:0 3:0 4:0 5:0 6:1 7:0 8:0 
1 0 0 0 0 0 0:25 1:0 2:0 3:0 4:0 5:0 6:1 7:0 8:0 
1 0 0 0 0 0 0:25 1:0 2:0 3:0 4:0 5:0 6:1 7:0 8:0 
1 0 0 0 0 0 0:25 1:0 2:0 3:0 4:0 5:0 6:1 7:0 8:0 
1 0 0 0 0 0 0:25 1:0 2:0 3:0 4:0 5:0 6:1 7:0 8:0 
1 0 0 0 0 0 0:25 1:0 2:0 3:0 4:0 5:0 6:1 7:0 8:0 
1 0 0 0 0 0 0:25 1:0 2:0 3:0 4:0 5:0 6:1 7:0 8:0 
1 0 0 0 0 0 0:25 1:0 2:0 3:0 4:0 5:0 6:1 7:0 8:0 
1 0 0 0 0 0 0:25 1:0 2:0 3:0 4:0 5:0 6:1 7:0 8:0 
1 0 0 0 0 0 0:25 1:0 2:0 3:0 4:0 5:0 6:1 7:0 8:0 
1 1 1 1 1 1 0:25 1:1 2:0 3:0 4:0 5:0 6:1 7:1 8:0 
1 0 0 0 0 0 0:25 1:0 2:0 3:0 4:0 5:0 6:1 7:0 8:0 
1 0 0 0 0 0 0:25 1:0 2:0 3:0 4:0 5:0 6:1 7:0 8:0 
1 0 0 0 0 0 0:25 1:0 2:0 3:0 4:0 5:0 6:1 7:0 8:0 
1 0 0 0 0 0 0:25 1:0 2:0 3:0 4:0 5:0 6:1 7:0 8:0 
1 0 0 0 0 0 0:25 1:0 2:0 3:0 4:0 5:0 6:1 7:0 8:0 
1 0 0 0 0 0 0:25 1:0 2:0 3:0 4:0 5:0 6:1 7:0 8:0 
1 0 0 0 0 0 0:25 1:0 2:0 3:0 4:0 5:0 6:1 7:0 8:0 
1 0 0 0 0 0 0:25 1:0 2:0 3:0 4:0 5:0 6:1 7:0 8:0 
1 0 0 0 0 0 0:25 1:0 2:0 3:0 4:0 5:0 6:1 7:0 8:0 
1 0 0 0 0 0 0:25 1:0 2:0 3:0 4:0 5:0 6:1 7:0 8:0 
1 0 0 0 0 0 0:25 1:0 2:0 3:0 4:0 5:0 6:1 7:0 8:0 
1 0 0 0 0 0 0:25 1:0 2:0 3:0 4:0 5:0 6:1 7:0 8:0 
1 0 0 0 0 0 0:25 1:0 2:0 3:0 4:0 5:0 6:1 7:0 8:0 
1 0 0 0 0 0 0:25 1:0 2:0 3:0 4:0 5:0 6:1 7:0 8:0 
1 0 0 0 0 0 0:25 1:0 2:0 3:0 4:0 5:0 6:1 7:0 8:0 
1 0 0 0 0 0 0:25 1:0 2:0 3:0 4:0 5:0 6:1 7:0 8:0 
1 1 0.9282382560152304 1 1 0.459968688338081 0:22 1:0 2:0 3:0 4:0 5:0 6:1 7:0 8:0 
1 0 0 0 0 0 0:25 1:0 2:0 3:0 4:0 5:0 6:1 7:0 8:0 
1 1 0 1 0 0 0:25 1:1 2:0 3:0 4:0 5:0 6:1 7:0 8:0 
1 1 0 1 0 0 0:25 1:1 2:0 3:0 4:0 5:0 6:1 7:0 8:0 
1 0 0 0 0 0 0:25 1:0 2:0 3:0 4:0 5:0 6:1 7:0 8:0 
0 0 0 0 0 1 0:25 1:0 2:0 3:1 4:0 5:0 6:1 7:1 8:0 
1 0 0 0 0 0 0:25 1:0 2:0 3:0 4:0 5:0 6:1 7:0 8:0 
1 0 0 0 0 0 0:25 1:0 2:0 3:0 4:0 5:0 6:1 7:0 8:0 
1 0 0 0 0 0 0:25 1:0 2:0 3:0 4:0 5:0 6:1 7:0 8:0 
1 0 0 0 0 0 0:25 1:0 2:0 3:0 4:0 5:0 6:1 7:0 8:0 
1 0 0 0 0 0 0:25 1:0 2:0 3:0 4:0 5:0 6:1 7:0 8:0 
1 0 0 0 0 0 0:25 1:0 2:0 3:0 4:0 5:0 6:1 7:0 8:0 
1 0 0 0 0 0 0:25 1:0 2:0 3:0 4:0 5:0 6:1 7:0 8:0 
1 0 0 0 0 0 0:25 1:0 2:0 3:0 4:0 5:0 6:1 7:0 8:0 
1 0 0 0 0 0 0:25 1:0 2:0 3:0 4:0 5:0 6:1 7:0 8:0 
1 1 1 1 1 1 0:25 1:1 2:0 3:0 4:0 5:0 6:1 7:1 8:0 
1 0 0 0 0 0 0:25 1:0 2:0 3:0 4:0 5:0 6:1 7:0 8:0 
1 0 0 0 0 0 0:25 1:0 2:0 3:0 4:0 5:0 6:1 7:0 8:0 
1 0 0 0 0 0 0:25 1:0 2:0 3:0 4:0 5:0 6:1 7:0 8:0 
1 0 0 0 0 0 0:25 1:0 2:0 3:0 4:0 5:0 6:1 7:0 8:0 
1 0 0 0 0 0 0:25 1:0 2:0 3:0 4:0 5:0 6:1 7:0 8:0 
1 0 0 0 0 0 0:25 1:0 2:0 3:0 4:0 5:0 6:1 7:0 8:0 
1 0 0 0 0 0 0:25 1:0 2:0 3:0 4:0 5:0 6:1 7:0 8:0 
1 0 0 0 0 0 0:25 1:0 2:0 3:0 4:0 5:0 6:1 7:0 8:0 
1 0 0 0 0 0 0:25 1:0 2:0 3:0 4:0 5:0 6:1 7:0 8:0 
1 1 0 1 0 0 0:25 1:0 2:0 3:0 4:1 5:0 6:1 7:0 8:0 
1 0 0 0 0 0 0:25 1:0 2:0 3:0 4:0 5:0 6:1 7:0 8:0 
1 0 0 0 0 0 0:25 1:0 2:0 3:0 4:0 5:0 6:1 7:0 8:0 
1 0 0 0 0 0 0:25 1:0 2:0 3:0 4:0 5:0 6:1 7:0 8:0 
1 0 0 0 0 0 0:25 1:0 2:0 3:0 4:0 5:0 6:1 7:0 8:0 
1 0 0 0 0 0 0:25 1:0 2:0 3:0 4:0 5:0 6:1 7:0 8:0 
1 0 0 0 0 0 0:25 1:0 2:0 3:0 4:0 5:0 6:1 7:0 8:0 
1 0 0 0 0 0 0:25 1:0 2:0 3:0 4:0 5:0 6:1 7:0 8:0 
1 0 0 0 0 0 0:25 1:0 2:0 3:0 4:0 5:0 6:1 7:0 8:0 
1 0 0 0 0 0 0:25 1:0 2:0 3:0 4:0 5:0 6:1 7:0 8:0 
1 0 0 0 0 0 0:8 1:0 2:0 3:0 4:1 5:0 6:1 7:0 8:0 
1 0 0 0 0 0 0:25 1:0 2:0 3:0 4:0 5:0 6:1 7:0 8:0 
1 0 0 0 0 0 0:25 1:0 2:0 3:0 4:0 5:0 6:1 7:0 8:0 
1 0 0 0 0 0 0:25 1:0 2:0 3:0 4:0 5:0 6:1 7:0 8:0 
1 0 0 0 0 0 0:25 1:0 2:0 3:0 4:0 5:0 6:1 7:0 8:0 
1 0 0 0 0 0 0:25 1:0 2:0 3:0 4:0 5:0 6:1 7:0 8:0 
1 0 0 0 0 0 0:25 1:0 2:0 3:0 4:0 5:0 6:1 7:0 8:0 
1 0 0 0 0 0 0:25 1:0 2:0 3:0 4:0 5:0 6:1 7:0 8:0 
1 0 0 0 0 0 0:25 1:0 2:0 3:0 4:0 5:0 6:1 7:0 8:0 
1 0 0 0 0 0 0:25 1:0 2:0 3:0 4:0 5:0 6:1 7:0 8:0 
1 1 0 1 0 0 0:25 1:0 2:0 3:0 4:1 5:0 6:1 7:0 8:0 
1 0 0 0 0 0 0:25 1:0 2:0 3:0 4:0 5:0 6:1 7:0 8:0 
1 0 0 0 0 0 0:25 1:0 2:0 3:0 4:0 5:0 6:1 7:0 8:0 
1 0 0 0 0 0 0:25 1:0 2:0 3:0 4:0 5:0 6:1 7:0 8:0 
1 0 0 0 0 0 0:25 1:0 2:0 3:0 4:0 5:0 6:1 7:0 8:0 
1 0 0 0 0 0 0:25 1:0 2:0 3:0 4:0 5:0 6:1 7:0 8:0 
1 0 0 0 0 0 0:25 1:0 2:0 3:0 4:0 5:0 6:1 7:0 8:0 
1 1 0 1 0 0 0:25 1:0 2:0 3:0 4:1 5:0 6:1 7:0 8:0 
1 0 0 0 0 0 0:25 1:0 2:0 3:0 4:0 5:0 6:1 7:0 8:0 
1 0 0 0 0 0 0:25 1:0 2:0 3:0 4:0 5:0 6:1 7:0 8:0 
1 0 0 0 0 0 0:25 1:0 2:0 3:0 4:0 5:0 6:1 7:0 8:0 
1 0 0 0 0 0 0:25 1:0 2:0 3:0 4:0 5:0 6:1 7:0 8:0 
1 0 0 0 0 0 0:25 1:0 2:0 3:0 4:0 5:0 6:1 7:0 8:0 
1 0 0 0 0 0 0:25 1:0 2:0 3:0 4:0 5:0 6:1 7:0 8:0 
1 0 0 0 0 0 0:25 1:0 2:0 3:0 4:0 5:0 6:1 7:0 8:0 
1 0 0 0 0 0 0:8 1:0 2:0 3:1 4:1 5:0 6:1 7:0 8:0 
1 0 0 0 0 0 0:25 1:0 2:0 3:0 4:0 5:0 6:1 7:0 8:0 
1 0 0 0 0 0 0:8 1:0 2:0 3:1 4:1 5:0 6:1 7:0 8:0 
1 1 0 1 0 0 0:25 1:1 2:0 3:0 4:0 5:0 6:1 7:0 8:0 
1 0 0 0 0 0 0:25 1:0 2:0 3:0 4:0 5:0 6:1 7:0 8:0 
1 0 0 0 0 0 0:25 1:0 2:0 3:0 4:0 5:0 6:1 7:0 8:0 
1 1 0 1 0 0 0:25 1:1 2:0 3:0 4:0 5:0 6:1 7:0 8:0 
1 0 0 0 0 0 0:25 1:0 2:0 3:0 4:0 5:0 6:1 7:0 8:0 
1 0 0 0 0 0 0:25 1:0 2:0 3:0 4:0 5:0 6:1 7:0 8:0 
1 1 0 1 0 0 0:25 1:1 2:0 3:0 4:0 5:0 6:1 7:0 8:0 
1 0 0 0 0 0 0:25 1:0 2:0 3:0 4:0 5:0 6:1 7:0 8:0 
1 0 0 0 0 0 0:25 1:0 2:0 3:0 4:0 5:0 6:1 7:0 8:0 
1 0 0 0 0 0 0:25 1:0 2:0 3:0 4:0 5:0 6:1 7:0 8:0 
1 0 0 1 0 0 0:25 1:0 2:0 3:0 4:0 5:1 6:0 7:0 8:0 
1 0 0 0 0 0 0:25 1:0 2:0 3:0 4:0 5:0 6:1 7:0 8:0 
1 0 0 0 0 0 0:25 1:0 2:0 3:0 4:0 5:0 6:1 7:0 8:0 
1 0 0 0 0 0 0:25 1:0 2:0 3:0 4:0 5:0 6:1 7:0 8:0 
1 0 0 0 0 0 0:25 1:0 2:0 3:0 4:0 5:0 6:1 7:0 8:0 
1 1 0 1 0 0 0:25 1:0 2:0 3:0 4:1 5:0 6:1 7:0 8:0 
1 0 0 0 0 0 0:25 1:0 2:0 3:0 4:0 5:0 6:1 7:0 8:0 
1 0 0 0 0 0 0:25 1:0 2:0 3:0 4:0 5:0 6:1 7:0 8:0 
1 0 0 0 0 0 0:25 1:0 2:0 3:0 4:0 5:0 6:1 7:0 8:0 
1 0 0 0 0 0 0:25 1:0 2:0 3:0 4:0 5:0 6:1 7:0 8:0 
1 1 1 1 1 0.7468651270287944 0:24 1:0 2:0 3:0 4:0 5:0 6:1 7:0 8:0 
1 0 0 0 0 0 0:25 1:0 2:0 3:0 4:0 5:0 6:1 7:0 8:0 
1 0 0 0 0 0 0:25 1:0 2:0 3:0 4:0 5:0 6:1 7:0 8:0 
1 0 0 0 0 0 0:25 1:0 2:0 3:0 4:0 5:0 6:1 7:0 8:0 
1 0 0 0 0 0 0:25 1:0 2:0 3:0 4:0 5:0 6:1 7:0 8:0 
1 0 0 0 0 0 0:25 1:0 2:0 3:0 4:0 5:0 6:1 7:0 8:0 
1 0 0 0 0 0 0:25 1:0 2:0 3:0 4:0 5:0 6:1 7:0 8:0 
1 0 0 0 0 0 0:25 1:0 2:0 3:0 4:0 5:0 6:1 7:0 8:0 
1 0 0 0 0 0 0:25 1:0 2:0 3:0 4:0 5:0 6:1 7:0 8:0 
1 0 0 0 0 0 0:25 1:0 2:0 3:0 4:0 5:0 6:1 7:0 8:0 
1 0 0 0 0 0 0:25 1:0 2:0 3:0 4:0 5:0 6:1 7:0 8:0 
1 0 0 0 0 0 0:25 1:0 2:0 3:0 4:0 5:0 6:1 7:0 8:0 
1 0 0 0 0 0 0:25 1:0 2:0 3:0 4:0 5:0 6:1 7:0 8:0 
1 0 0 0 0 0 0:25 1:0 2:0 3:0 4:0 5:0 6:1 7:0 8:0 
1 0 0 0 0 0 0:25 1:0 2:0 3:0 4:0 5:0 6:1 7:0 8:0 
1 0 0 0 0 0 0:25 1:0 2:0 3:0 4:0 5:0 6:1 7:0 8:0 
1 0 0 0 0 0 0:25 1:0 2:0 3:0 4:0 5:0 6:1 7:0 8:0 
1 0 0 0 0 0 0:25 1:0 2:0 3:0 4:0 5:0 6:1 7:0 8:0 
1 0 0 0 0 0 0:25 1:0 2:0 3:0 4:0 5:0 6:1 7:0 8:0 
1 0 0 0 0 0 0:25 1:0 2:0 3:0 4:0 5:0 6:1 7:0 8:0 
1 0 0 0 0 0 0:25 1:0 2:0 3:0 4:0 5:0 6:1 7:0 8:0 
1 0 0 0 0 0 0:8 1:0 2:0 3:0 4:1 5:0 6:1 7:0 8:0 
1 0 0 0 0 0 0:25 1:0 2:0 3:0 4:0 5:0 6:1 7:0 8:0 
1 0 0 0 0 0 0:25 1:0 2:0 3:0 4:0 5:0 6:1 7:0 8:0 
1 0 0 0 0 0 0:25 1:0 2:0 3:0 4:0 5:0 6:1 7:0 8:0 
1 0 0 0 0 0 0:25 1:0 2:0 3:0 4:0 5:0 6:1 7:0 8:0 
1 0 0 0 0 0 0:25 1:0 2:0 3:0 4:0 5:0 6:1 7:0 8:0 
1 0 0 0 0 0 0:25 1:0 2:0 3:0 4:0 5:0 6:1 7:0 8:0 
1 1 0 1 0 0 0:25 1:1 2:0 3:0 4:0 5:0 6:1 7:0 8:0 
1 1 0 1 0 0 0:25 1:1 2:0 3:0 4:0 5:0 6:1 7:0 8:0 
1 0 0 0 0 0 0:25 1:0 2:0 3:0 4:0 5:0 6:1 7:0 8:0 
1 0 0 0 0 0 0:25 1:0 2:0 3:0 4:0 5:0 6:1 7:0 8:0 
1 0 0 0 0 0 0:25 1:0 2:0 3:0 4:0 5:0 6:1 7:0 8:0 
1 0 0 0 0 0 0:25 1:0 2:0 3:0 4:0 5:0 6:1 7:0 8:0 
1 0 0 0 0 0 0:25 1:0 2:0 3:0 4:0 5:0 6:1 7:0 8:0 
1 1 0.377215886808076 1 0 0 0:25 1:1 2:0 3:0 4:1 5:0 6:1 7:0 8:0 
1 0 0 0 0 0 0:25 1:0 2:0 3:0 4:0 5:0 6:1 7:0 8:0 
1 0 0 0 0 0 0:25 1:0 2:0 3:0 4:0 5:0 6:1 7:0 8:0 
1 0 0 0 0 0 0:25 1:0 2:0 3:0 4:0 5:0 6:1 7:0 8:0 
1 0 0 0 0 0 0:8 1:0 2:0 3:0 4:1 5:0 6:1 7:0 8:0 
1 1 0 1 0 0 0:25 1:1 2:0 3:0 4:0 5:0 6:1 7:0 8:0 
1 0 0 0 0 0 0:25 1:0 2:0 3:0 4:0 5:0 6:1 7:0 8:0 
1 0 0 0 0 0 0:25 1:0 2:0 3:0 4:0 5:0 6:1 7:0 8:0 
1 0 0 0 0 0 0:8 1:0 2:0 3:1 4:1 5:0 6:1 7:0 8:0 
1 0 0 0 0 0 0:25 1:0 2:0 3:0 4:0 5:0 6:1 7:0 8:0 
1 0 0 0 0 0 0:25 1:0 2:0 3:0 4:0 5:0 6:1 7:0 8:0 
1 0 0 0 0 0 0:25 1:0 2:0 3:0 4:0 5:0 6:1 7:0 8:0 
1 0 0 0 0 0 0:25 1:0 2:0 3:0 4:0 5:0 6:1 7:0 8:0 
1 0 0 0 0 0 0:25 1:0 2:0 3:0 4:0 5:0 6:1 7:0 8:0 
1 1 1 1 1 1 0:25 1:0 2:0 3:0 4:0 5:0 6:1 7:1 8:0 
1 0 0 1 0 0 0:24 1:0 2:0 3:1 4:0 5:0 6:1 7:0 8:0 
1 0 0 1 0 0 0:24 1:0 2:0 3:1 4:0 5:0 6:1 7:0 8:0 
1 1 0 1 0 0 0:25 1:0 2:0 3:0 4:1 5:0 6:1 7:0 8:0 
1 0 0 0 0 0 0:25 1:0 2:0 3:0 4:0 5:0 6:1 7:0 8:0 
1 0 0 0 0 0 0:25 1:0 2:0 3:0 4:0 5:0 6:1 7:0 8:0 
1 0 0 0 0 0 0:25 1:0 2:0 3:0 4:0 5:0 6:1 7:0 8:0 
1 0 0 0 0 0 0:25 1:0 2:0 3:0 4:0 5:0 6:1 7:0 8:0 
1 0 0 0 0 0 0:25 1:0 2:0 3:0 4:0 5:0 6:1 7:0 8:0 
1 0 0 0 0 0 0:25 1:0 2:0 3:0 4:0 5:0 6:1 7:0 8:0 
1 0 0 0 0 0 0:25 1:0 2:0 3:0 4:0 5:0 6:1 7:0 8:0 
1 0 0 0 0 0 0:8 1:0 2:0 3:0 4:1 5:0 6:1 7:0 8:0 
1 0 0 0 0 0 0:25 1:0 2:0 3:0 4:0 5:0 6:1 7:0 8:0 
1 0 0 0 0 0 0:25 1:0 2:0 3:0 4:0 5:0 6:1 7:0 8:0 
1 0 0 0 0 0 0:25 1:0 2:0 3:0 4:0 5:0 6:1 7:0 8:0 
1 0 0 0 0 0 0:25 1:0 2:0 3:0 4:0 5:0 6:1 7:0 8:0 
1 0 0 0 0 0 0:25 1:0 2:0 3:0 4:0 5:0 6:1 7:0 8:0 
1 0 0 0 0 0 0:25 1:0 2:0 3:0 4:0 5:0 6:1 7:0 8:0 
1 0 0 0 0 0 0:25 1:0 2:0 3:0 4:0 5:0 6:1 7:0 8:0 
1 0 0 0 0 0 0:25 1:0 2:0 3:0 4:0 5:0 6:1 7:0 8:0 
1 0 0 0 0 0 0:25 1:0 2:0 3:0 4:0 5:0 6:1 7:0 8:0 
1 0 0 0 0 0 0:25 1:0 2:0 3:0 4:0 5:0 6:1 7:0 8:0 
1 0 0 0 0 0 0:25 1:0 2:0 3:0 4:0 5:0 6:1 7:0 8:0 
1 0 0 0 0 0 0:25 1:0 2:0 3:0 4:0 5:0 6:1 7:0 8:0 
1 0 0 0 0 0 0:25 1:0 2:0 3:0 4:0 5:0 6:1 7:0 8:0 
1 0 0 0 0 0 0:25 1:0 2:0 3:0 4:0 5:0 6:1 7:0 8:0 
1 0 0 0 0 0 0:25 1:0 2:0 3:0 4:0 5:0 6:1 7:0 8:0 
1 0 0 0 0 0 0:25 1:0 2:0 3:0 4:0 5:0 6:1 7:0 8:0 
1 0 0 0 0 0 0:25 1:0 2:0 3:0 4:0 5:0 6:1 7:0 8:0 
1 1 1 1 1 1 0:25 1:0 2:0 3:0 4:0 5:1 6:0 7:1 8:0 
1 0 0 0 0 0 0:8 1:0 2:0 3:0 4:1 5:0 6:1 7:0 8:0 
1 0 0 0 0 0 0:8 1:0 2:0 3:0 4:1 5:0 6:1 7:0 8:0 
1 0 0 0 0 0 0:25 1:0 2:0 3:0 4:0 5:0 6:1 7:0 8:0 
1 0 0 0 0 0 0:8 1:0 2:0 3:0 4:1 5:0 6:1 7:0 8:0 
1 0 0 0 0 0 0:25 1:0 2:0 3:0 4:0 5:0 6:1 7:0 8:0 
1 0 0 1 0 0 0:8 1:0 2:0 3:0 4:0 5:0 6:0 7:0 8:1 
1 0 0 0 0 0 0:25 1:0 2:0 3:0 4:0 5:0 6:1 7:0 8:0 
1 0 0 0 0 0 0:25 1:0 2:0 3:0 4:0 5:0 6:1 7:0 8:0 
1 0 0 0 0 0 0:25 1:0 2:0 3:0 4:0 5:0 6:1 7:0 8:0 
1 0 0 0 0 0 0:25 1:0 2:0 3:0 4:0 5:0 6:1 7:0 8:0 
1 0 0 0 0 0 0:25 1:0 2:0 3:0 4:0 5:0 6:1 7:0 8:0 
1 0.8328833569991541 0 0 0 0 0:25 1:0 2:0 3:0 4:0 5:0 6:1 7:0 8:0 
1 1 0 0 0 0 0:25 1:0 2:0 3:0 4:0 5:0 6:1 7:0 8:0 
1 1 0 0 0 0 0:25 1:0 2:0 3:0 4:0 5:0 6:1 7:0 8:0 
1 1 0 1 0 0 0:25 1:1 2:0 3:0 4:0 5:0 6:1 7:0 8:0 
1 1 0 0 0 0 0:25 1:0 2:0 3:0 4:0 5:0 6:1 7:0 8:0 
1 1 0 0 0 0 0:25 1:0 2:0 3:0 4:0 5:0 6:1 7:0 8:0 
1 1 0 0 0 0 0:25 1:0 2:0 3:0 4:0 5:0 6:1 7:0 8:0 
1 1 0 0 0 0 0:25 1:0 2:0 3:0 4:0 5:0 6:1 7:0 8:0 
1 1 0 0 0 0 0:25 1:0 2:0 3:0 4:0 5:0 6:1 7:0 8:0 
1 1 0 1 0 0 0:25 1:0 2:0 3:0 4:0 5:0 6:1 7:0 8:1 
1 1 0 0 0 0 0:25 1:0 2:0 3:0 4:0 5:0 6:1 7:0 8:0 
1 1 1 1 1 1 0:25 1:0 2:0 3:0 4:0 5:0 6:1 7:1 8:0 
1 1 0 0 0 0 0:25 1:0 2:0 3:0 4:0 5:0 6:1 7:0 8:0 
1 1 1 1 1 1 0:25 1:0 2:0 3:0 4:0 5:0 6:1 7:1 8:0 
1 1 0 0 0 0 0:25 1:0 2:0 3:0 4:0 5:0 6:1 7:0 8:0 
0 0 0 0 0 1 0:25 1:0 2:0 3:1 4:0 5:0 6:1 7:1 8:0 
1 0 0 0 0 0 0:38 1:0 2:0 3:0 4:0 5:0 6:1 7:0 8:0 
1 1 0 0 0 0 0:25 1:0 2:0 3:0 4:0 5:0 6:1 7:0 8:0 
1 1 1 1 1 1 0:25 1:0 2:0 3:0 4:0 5:0 6:1 7:1 8:0 
0 0 0 0 0 1 0:25 1:0 2:0 3:1 4:0 5:0 6:1 7:1 8:0 
1 1 0 1 0 0 0:25 1:1 2:0 3:0 4:0 5:0 6:1 7:0 8:0 
1 1 0 0 0 0 0:25 1:0 2:0 3:0 4:0 5:0 6:1 7:0 8:0 
1 1 0 0 0 0 0:25 1:0 2:0 3:0 4:0 5:0 6:1 7:0 8:0 
1 1 0 1 0 0 0:25 1:0 2:0 3:0 4:1 5:0 6:1 7:0 8:0 
1 1 0 0 0 0 0:25 1:0 2:0 3:0 4:0 5:0 6:1 7:0 8:0 
1 1 0 0 0 0 0:25 1:0 2:0 3:0 4:0 5:0 6:1 7:0 8:0 
1 1 0 0 0 0 0:25 1:0 2:0 3:0 4:0 5:0 6:1 7:0 8:0 
1 1 0 0 0 0 0:25 1:0 2:0 3:0 4:0 5:0 6:1 7:0 8:0 
1 1 1 1 1 1 0:25 1:0 2:0 3:0 4:0 5:0 6:1 7:1 8:1 
1 1 1 1 1 1 0:25 1:0 2:0 3:0 4:0 5:0 6:1 7:1 8:0 
1 1 0 0 0 0 0:25 1:0 2:0 3:0 4:0 5:0 6:1 7:0 8:0 
1 1 0 1 0 0 0:25 1:0 2:0 3:0 4:0 5:0 6:1 7:0 8:1 
1 1 0 0 0 0 0:25 1:0 2:0 3:0 4:0 5:0 6:1 7:0 8:0 
1 1 0 0 0 0 0:25 1:0 2:0 3:0 4:0 5:0 6:1 7:0 8:0 
1 1 0 0 0 0 0:25 1:0 2:0 3:0 4:0 5:0 6:1 7:0 8:0 
1 1 0 0 0 0 0:25 1:0 2:0 3:0 4:0 5:0 6:1 7:0 8:0 
1 1 0 0 0 0 0:25 1:0 2:0 3:0 4:0 5:0 6:1 7:0 8:0 
1 1 0 0 0 0 0:25 1:0 2:0 3:0 4:0 5:0 6:1 7:0 8:0 
1 1 0 0 0 0 0:25 1:0 2:0 3:0 4:0 5:0 6:1 7:0 8:0 
1 1 0 0 0 0 0:25 1:0 2:0 3:0 4:0 5:0 6:1 7:0 8:0 
1 1 0 0 0 0 0:25 1:0 2:0 3:0 4:0 5:0 6:1 7:0 8:0 
1 1 0 0 0 0 0:25 1:0 2:0 3:0 4:0 5:0 6:1 7:0 8:0 
1 1 0 0 0 0 0:25 1:0 2:0 3:0 4:0 5:0 6:1 7:0 8:0 
1 1 0 0 0 0 0:25 1:0 2:0 3:0 4:0 5:0 6:1 7:0 8:0 
1 1 0 0 0 0 0:25 1:0 2:0 3:0 4:0 5:0 6:1 7:0 8:0 
1 1 0 0 0 0 0:25 1:0 2:0 3:0 4:0 5:0 6:1 7:0 8:0 
1 0 0 1 0 0 0:8 1:0 2:0 3:0 4:0 5:0 6:0 7:0 8:1 
1 1 0 0 0 0 0:25 1:0 2:0 3:0 4:0 5:0 6:1 7:0 8:0 
1 1 0 0 0 0 0:25 1:0 2:0 3:0 4:0 5:0 6:1 7:0 8:0 
1 1 0 0 0 0 0:25 1:0 2:0 3:0 4:0 5:0 6:1 7:0 8:0 
1 0 0 1 0 0 0:25 1:0 2:0 3:0 4:0 5:1 6:0 7:0 8:0 
1 1 0 0 0 0 0:25 1:0 2:0 3:0 4:0 5:0 6:1 7:0 8:0 
1 1 0 0 0 0 0:25 1:0 2:0 3:0 4:0 5:0 6:1 7:0 8:0 
1 1 0 0 0 0 0:25 1:0 2:0 3:0 4:0 5:0 6:1 7:0 8:0 
1 1 0 0 0 0 0:25 1:0 2:0 3:0 4:0 5:0 6:1 7:0 8:0 
1 1 0 0 0 0 0:25 1:0 2:0 3:0 4:0 5:0 6:1 7:0 8:0 
1 1 0 0 0 0 0:25 1:0 2:0 3:0 4:0 5:0 6:1 7:0 8:0 
1 1 0 0 0 0 0:25 1:0 2:0 3:0 4:0 5:0 6:1 7:0 8:0 
1 0 0 0 0 0 0:14 1:0 2:0 3:1 4:0 5:0 6:1 7:0 8:0 
1 1 0 0 0 0 0:25 1:0 2:0 3:0 4:0 5:0 6:1 7:0 8:0 
1 0 0 0 0 0 0:8 1:0 2:0 3:0 4:1 5:0 6:1 7:0 8:0 
1 1 0 0 0 0 0:25 1:0 2:0 3:0 4:0 5:0 6:1 7:0 8:0 
1 1 0 0 0 0 0:25 1:0 2:0 3:0 4:0 5:0 6:1 7:0 8:0 
1 1 0 0 0 0 0:25 1:0 2:0 3:0 4:0 5:0 6:1 7:0 8:0 
1 1 0 0 0 0 0:25 1:0 2:0 3:0 4:0 5:0 6:1 7:0 8:0 
1 1 0 0 0 0 0:25 1:0 2:0 3:0 4:0 5:0 6:1 7:0 8:0 
1 1 0 0 0 0 0:25 1:0 2:0 3:0 4:0 5:0 6:1 7:0 8:0 
1 1 0 0 0 0 0:25 1:0 2:0 3:0 4:0 5:0 6:1 7:0 8:0 
1 1 0 0 0 0 0:25 1:0 2:0 3:0 4:0 5:0 6:1 7:0 8:0 
1 1 0 0 0 0 0:25 1:0 2:0 3:0 4:0 5:0 6:1 7:0 8:0 
1 1 0 0 0 0 0:25 1:0 2:0 3:0 4:0 5:0 6:1 7:0 8:0 
1 1 0 0 0 0 0:25 1:0 2:0 3:0 4:0 5:0 6:1 7:0 8:0 
1 1 0 0 0 0 0:25 1:0 2:0 3:0 4:0 5:0 6:1 7:0 8:0 
1 1 0 0 0 0 0:25 1:0 2:0 3:0 4:0 5:0 6:1 7:0 8:0 
1 1 0 0 0 0 0:25 1:0 2:0 3:0 4:0 5:0 6:1 7:0 8:0 
1 1 0 1 0 0 0:25 1:0 2:0 3:0 4:1 5:0 6:1 7:0 8:0 
1 0 0 1 1 0 0:11 1:0 2:0 3:0 4:0 5:0 6:0 7:0 8:0 
1 1 0 1 0 0 0:25 1:0 2:0 3:0 4:1 5:0 6:1 7:0 8:0 
1 1 0 0 0 0 0:25 1:0 2:0 3:0 4:0 5:0 6:1 7:0 8:0 
1 1 1 1 1 1 0:25 1:0 2:0 3:0 4:0 5:1 6:0 7:1 8:0 
1 1 0 0 0 0 0:25 1:0 2:0 3:0 4:0 5:0 6:1 7:0 8:0 
1 1 0 0 0 0 0:25 1:0 2:0 3:0 4:0 5:0 6:1 7:0 8:0 
0 0 0 0 0 1 0:25 1:0 2:0 3:1 4:0 5:0 6:1 7:1 8:0 
1 1 0 0 0 0 0:25 1:0 2:0 3:0 4:0 5:0 6:1 7:0 8:0 
1 1 0 0 0 0 0:25 1:0 2:0 3:0 4:0 5:0 6:1 7:0 8:0 
1 0 0 0 0 0 0:8 1:0 2:0 3:0 4:1 5:0 6:1 7:0 8:0 
1 1 0 0 0 0 0:25 1:0 2:0 3:0 4:0 5:0 6:1 7:0 8:0 
1 1 0 0 0 0 0:25 1:0 2:0 3:0 4:0 5:0 6:1 7:0 8:0 
1 1 0 0 0 0 0:25 1:0 2:0 3:0 4:0 5:0 6:1 7:0 8:0 
1 1 0 0 0 0 0:25 1:0 2:0 3:0 4:0 5:0 6:1 7:0 8:0 
1 1 0 0 0 0 0:25 1:0 2:0 3:0 4:0 5:0 6:1 7:0 8:0 
1 1 0 0 0 0 0:25 1:0 2:0 3:0 4:0 5:0 6:1 7:0 8:0 
0 0 0 0 0 1 0:25 1:0 2:0 3:1 4:0 5:0 6:1 7:1 8:0 
1 1 0 1 0 0 0:25 1:0 2:0 3:0 4:1 5:0 6:1 7:0 8:0 
1 1 0 0 0 0 0:25 1:0 2:0 3:0 4:0 5:0 6:1 7:0 8:0 
1 1 0 0 0 0 0:25 1:0 2:0 3:0 4:0 5:0 6:1 7:0 8:0 
1 1 0 0 0 0 0:25 1:0 2:0 3:0 4:0 5:0 6:1 7:0 8:0 
1 1 0 0 0 0 0:25 1:0 2:0 3:0 4:0 5:0 6:1 7:0 8:0 
1 1 0 0 0 0 0:25 1:0 2:0 3:0 4:0 5:0 6:1 7:0 8:0 
1 1 0 0 0 0 0:25 1:0 2:0 3:0 4:0 5:0 6:1 7:0 8:0 
1 1 0 0 0 0 0:25 1:0 2:0 3:0 4:0 5:0 6:1 7:0 8:0 
1 1 0 0 0 0 0:25 1:0 2:0 3:0 4:0 5:0 6:1 7:0 8:0 
1 1 0 0 0 0 0:25 1:0 2:0 3:0 4:0 5:0 6:1 7:0 8:0 
1 1 0 0 0 0 0:25 1:0 2:0 3:0 4:0 5:0 6:1 7:0 8:0 
1 1 0 0 0 0 0:25 1:0 2:0 3:0 4:0 5:0 6:1 7:0 8:0 
1 1 0 0 0 0 0:25 1:0 2:0 3:0 4:0 5:0 6:1 7:0 8:0 
1 1 0 0 0 0 0:25 1:0 2:0 3:0 4:0 5:0 6:1 7:0 8:0 
1 1 0 0 0 0 0:25 1:0 2:0 3:0 4:0 5:0 6:1 7:0 8:0 
1 1 0 0 0 0 0:25 1:0 2:0 3:0 4:0 5:0 6:1 7:0 8:0 
1 1 0 0 0 0 0:25 1:0 2:0 3:0 4:0 5:0 6:1 7:0 8:0 
1 1 0 0 0 0 0:25 1:0 2:0 3:0 4:0 5:0 6:1 7:0 8:0 
1 1 0 0 0 0 0:25 1:0 2:0 3:0 4:0 5:0 6:1 7:0 8:0 
1 1 0 0 0 0 0:25 1:0 2:0 3:0 4:0 5:0 6:1 7:0 8:0 
1 1 0 0 0 0 0:25 1:0 2:0 3:0 4:0 5:0 6:1 7:0 8:0 
1 1 0 0 0 0 0:25 1:0 2:0 3:0 4:0 5:0 6:1 7:0 8:0 
1 1 0 0 0 0 0:25 1:0 2:0 3:0 4:0 5:0 6:1 7:0 8:0 
1 1 0 0 0 0 0:25 1:0 2:0 3:0 4:0 5:0 6:1 7:0 8:0 
1 1 0 0 0 0 0:25 1:0 2:0 3:0 4:0 5:0 6:1 7:0 8:0 
1 1 0 0 0 0 0:25 1:0 2:0 3:0 4:0 5:0 6:1 7:0 8:0 
1 0 0 0 0 0 0:8 1:0 2:0 3:1 4:1 5:0 6:1 7:0 8:0 
1 1 1 1 1 1 0:25 1:0 2:0 3:0 4:0 5:0 6:1 7:1 8:0 
1 1 0 0 0 0 0:25 1:0 2:0 3:0 4:0 5:0 6:1 7:0 8:0 
1 1 0 0 0 0 0:25 1:0 2:0 3:0 4:0 5:0 6:1 7:0 8:0 
1 1 0 0 0 0 0:25 1:0 2:0 3:0 4:0 5:0 6:1 7:0 8:0 
1 1 0 0 0 0 0:25 1:0 2:0 3:0 4:0 5:0 6:1 7:0 8:0 
1 1 0 1 0 0 0:25 1:1 2:0 3:0 4:0 5:0 6:1 7:0 8:0 
1 1 0 0 0 0 0:25 1:0 2:0 3:0 4:0 5:0 6:1 7:0 8:0 
1 1 0 0 0 0 0:25 1:0 2:0 3:0 4:0 5:0 6:1 7:0 8:0 
1 1 0 0 0 0 0:25 1:0 2:0 3:0 4:0 5:0 6:1 7:0 8:0 
1 1 0 0 0 0 0:25 1:0 2:0 3:0 4:0 5:0 6:1 7:0 8:0 
1 1 0 0 0 0 0:25 1:0 2:0 3:0 4:0 5:0 6:1 7:0 8:0 
1 1 0 1 0 0 0:25 1:1 2:0 3:0 4:0 5:0 6:1 7:0 8:0 
1 1 0 0 0 0 0:25 1:0 2:0 3:0 4:0 5:0 6:1 7:0 8:0 
1 1 0 0 0 0 0:25 1:0 2:0 3:0 4:0 5:0 6:1 7:0 8:0 
1 1 0 0 0 0 0:25 1:0 2:0 3:0 4:0 5:0 6:1 7:0 8:0 
1 1 0 0 0 0 0:25 1:0 2:0 3:0 4:0 5:0 6:1 7:0 8:0 
1 1 0 0 0 0 0:25 1:0 2:0 3:0 4:0 5:0 6:1 7:0 8:0 
1 1 0 0.04989974130798099 0 0 0:25 1:0 2:0 3:0 4:0 5:0 6:1 7:0 8:0 
1 1 0 1 0 0 0:25 1:0 2:0 3:0 4:0 5:0 6:1 7:0 8:0 
1 1 0 1 0 0 0:25 1:0 2:0 3:0 4:0 5:0 6:1 7:0 8:0 
1 1 0 1 0 0 0:25 1:0 2:0 3:0 4:0 5:0 6:1 7:0 8:0 
1 1 0 1 0 0 0:25 1:0 2:0 3:0 4:0 5:0 6:1 7:0 8:0 
0 1 1 0 1 1 0:25 1:1 2:0 3:1 4:0 5:0 6:1 7:1 8:0 
1 1 0 1 0 0 0:25 1:0 2:0 3:0 4:0 5:0 6:1 7:0 8:0 
1 1 0 1 0 0 0:25 1:0 2:0 3:0 4:0 5:0 6:1 7:0 8:0 
1 1 0 1 0 0 0:25 1:0 2:0 3:0 4:0 5:0 6:1 7:0 8:0 
1 1 0 1 0 0 0:25 1:0 2:0 3:0 4:0 5:0 6:1 7:0 8:0 
1 1 0 1 0 0 0:25 1:0 2:0 3:0 4:0 5:0 6:1 7:0 8:0 
1 0.5513496873159696 0 0 0 0 0:14 1:0 2:0 3:1 4:0 5:0 6:1 7:0 8:0 
1 1 0 1 0 0 0:25 1:0 2:0 3:0 4:0 5:0 6:1 7:0 8:0 
1 0 0 0 0 0 0:8 1:0 2:0 3:0 4:1 5:0 6:1 7:0 8:0 
1 1 0 1 0 0 0:25 1:0 2:0 3:0 4:0 5:0 6:1 7:0 8:0 
1 1 0 1 0 0 0:25 1:0 2:0 3:0 4:0 5:0 6:1 7:0 8:0 
1 1 0 1 0 0 0:25 1:0 2:0 3:0 4:0 5:0 6:1 7:0 8:0 
1 0 0 0 0 0 0:38 1:0 2:0 3:0 4:0 5:0 6:1 7:0 8:0 
1 1 0 1 0 0 0:25 1:0 2:0 3:0 4:0 5:0 6:1 7:0 8:0 
1 0 0 0 0 0 0:8 1:0 2:0 3:0 4:1 5:0 6:1 7:0 8:0 
1 1 0 1 0 0 0:25 1:0 2:0 3:0 4:0 5:0 6:1 7:0 8:0 
1 1 0 1 0 0 0:25 1:0 2:0 3:0 4:0 5:0 6:1 7:0 8:0 
1 1 0 1 0 0 0:25 1:0 2:0 3:0 4:0 5:0 6:1 7:0 8:0 
1 1 1 1 1 1 0:25 1:0 2:0 3:0 4:0 5:0 6:1 7:1 8:0 
1 1 0 1 0 0 0:25 1:0 2:0 3:0 4:0 5:0 6:1 7:0 8:0 
1 1 0 1 0 0 0:25 1:0 2:0 3:0 4:0 5:0 6:1 7:0 8:0 
1 1 0 1 0 0 0:25 1:0 2:0 3:0 4:0 5:0 6:1 7:0 8:0 
1 1 0 1 0 0 0:25 1:0 2:0 3:0 4:0 5:0 6:1 7:0 8:0 
1 1 1 1 1 1 0:25 1:0 2:0 3:0 4:0 5:0 6:1 7:1 8:0 
1 1 0 1 0 0 0:25 1:0 2:0 3:0 4:0 5:0 6:1 7:0 8:0 
1 0 0 0 0 1 0:38 1:0 2:0 3:1 4:0 5:0 6:1 7:0 8:0 
1 1 0 1 0 0 0:25 1:0 2:0 3:0 4:0 5:0 6:1 7:0 8:0 
1 1 0 1 0 0 0:25 1:0 2:0 3:0 4:0 5:0 6:1 7:0 8:0 
1 1 0 1 0 0 0:25 1:0 2:0 3:0 4:0 5:0 6:1 7:0 8:0 
1 1 0 1 0 0 0:25 1:0 2:0 3:0 4:0 5:0 6:1 7:0 8:0 
1 1 0 1 0 0 0:25 1:0 2:0 3:0 4:0 5:0 6:1 7:0 8:0 
1 1 0 1 0 0 0:25 1:0 2:0 3:0 4:0 5:0 6:1 7:0 8:0 
1 1 0 1 0 0 0:25 1:0 2:0 3:0 4:0 5:0 6:1 7:0 8:0 
1 1 0 1 0 0 0:25 1:0 2:0 3:0 4:0 5:0 6:1 7:0 8:0 
1 1 0 1 0 0 0:25 1:0 2:0 3:0 4:0 5:0 6:1 7:0 8:0 
1 1 0 1 0 0 0:25 1:0 2:0 3:0 4:0 5:0 6:1 7:0 8:0 
1 1 0 1 0 0 0:25 1:0 2:0 3:0 4:0 5:0 6:1 7:0 8:0 
1 1 0 1 0 0 0:25 1:0 2:0 3:0 4:0 5:0 6:1 7:0 8:0 
1 1 0 1 0 0 0:25 1:0 2:0 3:0 4:1 5:0 6:1 7:0 8:0 
0 0 0 0 0 1 0:25 1:0 2:0 3:1 4:0 5:0 6:1 7:1 8:0 
1 1 0 1 0 0 0:25 1:0 2:0 3:0 4:0 5:0 6:1 7:0 8:0 
1 1 0 1 0 0 0:25 1:0 2:0 3:0 4:0 5:0 6:1 7:0 8:0 
1 1 0 1 0 0 0:25 1:0 2:0 3:0 4:0 5:0 6:1 7:0 8:0 
1 1 0 1 0 0 0:25 1:0 2:0 3:0 4:0 5:0 6:1 7:0 8:0 
1 1 0 1 0 0 0:25 1:0 2:0 3:0 4:0 5:0 6:1 7:0 8:0 
1 1 0 1 0 0 0:25 1:0 2:0 3:0 4:0 5:0 6:1 7:0 8:0 
1 0 0 0 0 0 0:8 1:0 2:0 3:0 4:1 5:0 6:1 7:0 8:0 
1 1 0 1 0 0 0:25 1:0 2:0 3:0 4:0 5:0 6:1 7:0 8:0 
1 0 0 0 0 0 0:8 1:0 2:0 3:0 4:1 5:0 6:1 7:0 8:0 
1 1 0 1 0 0 0:25 1:0 2:0 3:0 4:0 5:0 6:1 7:0 8:0 
1 1 0 1 0 0 0:25 1:0 2:0 3:0 4:0 5:0 6:1 7:0 8:0 
1 1 0 1 0 0 0:25 1:0 2:0 3:0 4:0 5:0 6:1 7:0 8:0 
1 1 0 1 0 0 0:25 1:0 2:0 3:0 4:0 5:0 6:1 7:0 8:0 
1 1 0 1 0 0 0:25 1:0 2:0 3:0 4:0 5:0 6:1 7:0 8:0 
1 1 0 1 0 0 0:25 1:0 2:0 3:0 4:0 5:0 6:1 7:0 8:0 
1 1 0 1 0 0 0:25 1:0 2:0 3:0 4:0 5:0 6:1 7:0 8:0 
1 1 0 1 0 0 0:25 1:0 2:0 3:0 4:0 5:0 6:1 7:0 8:0 
1 1 0 1 0 0 0:25 1:0 2:0 3:0 4:0 5:0 6:1 7:0 8:0 
1 0 0 0 0 1 0:25 1:0 2:0 3:1 4:0 5:1 6:0 7:1 8:0 
1 1 1 1 1 1 0:25 1:0 2:0 3:0 4:0 5:0 6:1 7:1 8:0 
1 1 0 1 0 0 0:25 1:0 2:0 3:0 4:0 5:0 6:1 7:0 8:0 
1 1 0 1 0 0 0:25 1:0 2:0 3:0 4:0 5:0 6:1 7:0 8:0 
1 1 0 1 0 0 0:25 1:0 2:0 3:0 4:0 5:0 6:1 7:0 8:0 
1 1 0 1 0 0 0:25 1:0 2:0 3:0 4:0 5:0 6:1 7:0 8:0 
1 1 0 1 0 0 0:25 1:0 2:0 3:0 4:0 5:0 6:1 7:0 8:0 
1 1 0 1 0 0 0:25 1:0 2:0 3:0 4:0 5:0 6:1 7:0 8:0 
1 1 0 1 0 0 0:25 1:0 2:0 3:0 4:0 5:0 6:1 7:0 8:0 
1 1 0 1 0 0 0:25 1:0 2:0 3:0 4:0 5:0 6:1 7:0 8:0 
1 1 0 1 0 0 0:25 1:0 2:0 3:0 4:0 5:0 6:1 7:0 8:0 
1 1 0 1 0 0 0:25 1:0 2:0 3:0 4:0 5:0 6:1 7:0 8:0 
1 1 0 1 0 0 0:25 1:0 2:0 3:0 4:0 5:0 6:1 7:0 8:0 
1 1 0 1 0 0 0:25 1:0 2:0 3:0 4:0 5:0 6:1 7:0 8:0 
1 1 0 1 0 0 0:25 1:0 2:0 3:0 4:0 5:0 6:1 7:0 8:0 
1 1 0 1 0 0 0:25 1:0 2:0 3:0 4:0 5:0 6:1 7:0 8:0 
1 1 0 1 0 0 0:25 1:0 2:0 3:0 4:0 5:0 6:1 7:0 8:0 
1 1 0 1 0 0 0:25 1:0 2:0 3:0 4:0 5:0 6:1 7:0 8:1 
1 1 0 1 0 0 0:25 1:0 2:0 3:0 4:0 5:0 6:1 7:0 8:0 
1 1 0 1 0 0 0:25 1:0 2:0 3:0 4:0 5:0 6:1 7:0 8:0 
1 1 0 1 0 0 0:25 1:0 2:0 3:0 4:0 5:0 6:1 7:0 8:0 
1 1 0 1 0 0 0:25 1:0 2:0 3:0 4:0 5:0 6:1 7:0 8:0 
1 1 0 1 0 0 0:25 1:0 2:0 3:0 4:0 5:0 6:1 7:0 8:0 
1 1 0 1 0 0 0:25 1:0 2:0 3:0 4:0 5:0 6:1 7:0 8:0 
1 1 0 1 0 0 0:25 1:0 2:0 3:0 4:0 5:0 6:1 7:0 8:0 
1 1 0 1 0 0 0:25 1:1 2:0 3:0 4:0 5:0 6:1 7:0 8:0 
1 1 0 1 0 0 0:25 1:0 2:0 3:0 4:0 5:0 6:1 7:0 8:0 
1 1 0 1 0 0 0:25 1:0 2:0 3:0 4:0 5:0 6:1 7:0 8:0 
1 1 0 1 0 0 0:25 1:0 2:0 3:0 4:0 5:0 6:1 7:0 8:0 
1 1 0 1 0 0 0:25 1:0 2:0 3:0 4:0 5:0 6:1 7:0 8:0 
1 1 0 1 0 0 0:25 1:0 2:0 3:0 4:0 5:0 6:1 7:0 8:0 
1 0 0 1 0 0 0:25 1:0 2:0 3:0 4:0 5:1 6:0 7:0 8:0 
1 1 0 1 0 0 0:25 1:0 2:0 3:0 4:0 5:0 6:1 7:0 8:0 
1 1 0 1 0 0 0:25 1:0 2:0 3:0 4:0 5:0 6:1 7:0 8:0 
1 1 0 1 0 0 0:25 1:0 2:0 3:0 4:0 5:0 6:1 7:0 8:0 
1 1 0 1 0 0 0:25 1:0 2:0 3:0 4:0 5:0 6:1 7:0 8:0 
1 1 0 1 0 0 0:25 1:0 2:0 3:0 4:0 5:0 6:1 7:0 8:0 
1 1 0 1 0 0 0:25 1:0 2:0 3:0 4:0 5:0 6:1 7:0 8:0 
1 1 0 1 0 0 0:25 1:0 2:0 3:0 4:0 5:0 6:1 7:0 8:0 
1 1 0 1 0 0 0:25 1:0 2:0 3:0 4:0 5:0 6:1 7:0 8:0 
1 1 0 1 0 0 0:25 1:0 2:0 3:0 4:0 5:0 6:1 7:0 8:0 
1 1 0 1 0 0 0:25 1:0 2:0 3:0 4:0 5:0 6:1 7:0 8:0 
1 0 0 0 0 0 0:26 1:0 2:0 3:1 4:0 5:1 6:0 7:0 8:0 
1 1 0 1 0 0 0:25 1:0 2:0 3:0 4:0 5:0 6:1 7:0 8:0 
1 0 0 1 0 0 0:8 1:0 2:0 3:0 4:0 5:0 6:0 7:0 8:1 
1 1 0 1 0 0 0:25 1:0 2:0 3:0 4:0 5:0 6:1 7:0 8:0 
1 1 0 1 0 0 0:25 1:0 2:0 3:0 4:0 5:0 6:1 7:0 8:0 
1 1 0 1 0 0 0:25 1:0 2:0 3:0 4:0 5:0 6:1 7:0 8:0 
1 1 0 1 0 0 0:25 1:0 2:0 3:0 4:0 5:0 6:1 7:0 8:0 
1 1 0 1 0 0 0:25 1:0 2:0 3:0 4:0 5:0 6:1 7:0 8:0 
1 1 0 1 0 0 0:25 1:0 2:0 3:0 4:0 5:0 6:1 7:0 8:0 
1 1 0 1 0 0 0:25 1:0 2:0 3:0 4:0 5:0 6:1 7:0 8:0 
1 1 0 1 0 0 0:25 1:0 2:0 3:0 4:0 5:0 6:1 7:0 8:0 
1 1 0 1 0 0 0:25 1:0 2:0 3:0 4:1 5:0 6:1 7:0 8:0 
1 1 0 1 0 0 0:25 1:0 2:0 3:0 4:0 5:0 6:1 7:0 8:0 
1 1 0 1 0 0 0:25 1:0 2:0 3:0 4:0 5:0 6:1 7:0 8:0 
1 1 0 1 0 0 0:25 1:1 2:0 3:0 4:0 5:0 6:1 7:0 8:0 
1 1 0 1 0 0 0:25 1:0 2:0 3:0 4:0 5:0 6:1 7:0 8:0 
1 0 0 1 0 0 0:25 1:0 2:0 3:0 4:0 5:1 6:0 7:0 8:0 
1 1 1 1 1 1 0:25 1:0 2:0 3:0 4:0 5:1 6:0 7:1 8:0 
1 1 0 1 0 0 0:25 1:0 2:0 3:0 4:0 5:0 6:1 7:0 8:0 
0.4874693129791008 0 0 0 0 0 0:8 1:1 2:0 3:0 4:0 5:0 6:1 7:1 8:0 
1 0 0 1 0 0 0:25 1:0 2:0 3:0 4:0 5:1 6:0 7:0 8:0 
1 0 0 1 0 0 0:25 1:0 2:0 3:0 4:0 5:1 6:0 7:0 8:0 
1 1 0 0 0 0 0:8 1:1 2:0 3:0 4:1 5:0 6:1 7:0 8:0 
1 0 0 1 0 0 0:25 1:0 2:0 3:0 4:0 5:1 6:0 7:0 8:0 
1 0 0 1 0 0 0:25 1:0 2:0 3:0 4:0 5:1 6:0 7:0 8:0 
1 1 0 1 0 0 0:25 1:0 2:0 3:0 4:0 5:0 6:1 7:0 8:0 
1 0 0 0 0 0 0:8 1:0 2:0 3:0 4:1 5:0 6:1 7:0 8:0 
1 1 0 1 0 0 0:25 1:0 2:0 3:0 4:0 5:0 6:1 7:0 8:0 
1 1 0 1 0 0 0:25 1:0 2:0 3:0 4:0 5:0 6:1 7:0 8:0 
1 1 0 1 0 0 0:25 1:0 2:0 3:0 4:0 5:0 6:1 7:0 8:0 
1 1 1 1 1 1 0:25 1:0 2:0 3:0 4:0 5:0 6:1 7:1 8:0 
1 1 0 1 0 0 0:25 1:0 2:0 3:0 4:0 5:0 6:1 7:0 8:0 
1 1 0 1 0 0 0:25 1:0 2:0 3:0 4:0 5:0 6:1 7:0 8:0 
1 1 1 1 1 1 0:25 1:0 2:0 3:0 4:0 5:0 6:1 7:1 8:0 
1 0 0 0 0 0 0:8 1:0 2:0 3:0 4:1 5:0 6:1 7:0 8:0 
1 1 0 1 0 0 0:25 1:1 2:0 3:0 4:0 5:0 6:1 7:0 8:0 
1 1 0 1 0 0 0:25 1:0 2:0 3:0 4:0 5:0 6:1 7:0 8:0 
1 1 0 1 0 0 0:25 1:0 2:0 3:0 4:0 5:0 6:1 7:0 8:0 
1 1 0 1 0 0 0:25 1:0 2:0 3:0 4:0 5:0 6:1 7:0 8:0 
1 1 0 1 0 0 0:25 1:0 2:0 3:0 4:0 5:0 6:1 7:0 8:0 
1 1 0 1 0 0 0:25 1:0 2:0 3:0 4:0 5:0 6:1 7:0 8:0 
1 1 0 1 0 0 0:25 1:0 2:0 3:0 4:0 5:0 6:1 7:0 8:0 
1 1 0 1 0 0 0:25 1:0 2:0 3:0 4:0 5:0 6:1 7:0 8:0 
1 1 0 1 0 0 0:25 1:0 2:0 3:0 4:0 5:0 6:1 7:0 8:0 
1 1 0 1 0 0 0:25 1:0 2:0 3:0 4:0 5:0 6:1 7:0 8:0 
1 1 0 1 0 0 0:25 1:0 2:0 3:0 4:0 5:0 6:1 7:0 8:0 
1 1 0 1 0 0 0:25 1:0 2:0 3:0 4:0 5:0 6:1 7:0 8:0 
1 1 0 1 0 0 0:25 1:0 2:0 3:0 4:0 5:0 6:1 7:0 8:0 
1 1 0 1 0 0 0:25 1:0 2:0 3:0 4:0 5:0 6:1 7:0 8:0 
1 1 1 1 1 1 0:25 1:0 2:0 3:0 4:0 5:0 6:1 7:1 8:0 
1 1 0 1 0 0 0:25 1:0 2:0 3:0 4:0 5:0 6:1 7:0 8:0 
0 0 0 0 0 1 0:25 1:0 2:0 3:1 4:0 5:0 6:1 7:1 8:0 
1 1 0 1 0 0 0:25 1:0 2:0 3:0 4:0 5:0 6:1 7:0 8:0 
1 1 0 1 0 0 0:25 1:0 2:0 3:0 4:0 5:0 6:1 7:0 8:0 
1 1 0 1 0 0 0:25 1:0 2:0 3:0 4:0 5:0 6:1 7:0 8:0 
1 1 0 1 0 0 0:25 1:0 2:0 3:0 4:0 5:0 6:1 7:0 8:0 
1 1 0 1 0 0 0:25 1:0 2:0 3:0 4:0 5:0 6:1 7:0 8:0 
1 1 0 1 0 0 0:25 1:0 2:0 3:0 4:0 5:0 6:1 7:0 8:0 
1 1 0 1 0 0 0:25 1:0 2:0 3:0 4:0 5:0 6:1 7:0 8:0 
1 1 0 1 0 0 0:25 1:0 2:0 3:0 4:0 5:0 6:1 7:0 8:0 
1 1 0 1 0 0 0:25 1:0 2:0 3:0 4:0 5:0 6:1 7:0 8:0 
1 1 0 1 0 0 0:25 1:0 2:0 3:0 4:0 5:0 6:1 7:0 8:0 
1 1 0 1 0 0 0:25 1:0 2:0 3:0 4:0 5:0 6:1 7:0 8:0 
1 1 0 1 0 0 0:25 1:0 2:0 3:0 4:0 5:0 6:1 7:0 8:0 
1 1 0 1 0 0 0:25 1:0 2:0 3:0 4:0 5:0 6:1 7:0 8:0 
1 1 0 1 0 0 0:25 1:0 2:0 3:0 4:0 5:0 6:1 7:0 8:0 
1 1 0 1 0 0 0:25 1:0 2:0 3:0 4:0 5:0 6:1 7:0 8:0 
1 1 0 1 0 0 0:25 1:0 2:0 3:0 4:0 5:0 6:1 7:0 8:0 
1 1 0 1 0 0 0:25 1:1 2:0 3:0 4:0 5:0 6:1 7:0 8:0 
1 1 0 1 0 0 0:25 1:0 2:0 3:0 4:0 5:0 6:1 7:0 8:0 
1 1 0 1 0 0 0:25 1:0 2:0 3:0 4:0 5:0 6:1 7:0 8:0 
1 1 0 1 0 0 0:25 1:0 2:0 3:0 4:0 5:0 6:1 7:0 8:0 
1 1 0 1 0 0 0:25 1:0 2:0 3:0 4:0 5:0 6:1 7:0 8:0 
1 0 0 0 0 1 0:25 1:0 2:0 3:1 4:0 5:1 6:0 7:1 8:0 
1 0 0 0 0 0 0:14 1:0 2:0 3:1 4:0 5:1 6:0 7:0 8:0 
1 1 0 1 0 0 0:25 1:0 2:0 3:0 4:0 5:0 6:1 7:0 8:0 
1 1 0 1 0 0 0:25 1:0 2:0 3:0 4:0 5:0 6:1 7:0 8:0 
0 0 0 0 0 1 0:25 1:0 2:0 3:1 4:0 5:0 6:1 7:1 8:0 
1 1 0 1 0 0 0:25 1:0 2:0 3:0 4:1 5:0 6:1 7:0 8:0 
1 0.09312251023167134 0 1 0 0 0:8 1:0 2:0 3:1 4:0 5:1 6:0 7:0 8:0 
1 1 0 1 0 0 0:25 1:0 2:0 3:0 4:0 5:0 6:1 7:0 8:0 
1 1 0 1 0 0 0:25 1:0 2:0 3:0 4:0 5:0 6:1 7:0 8:0 
1 1 0 1 0 0 0:25 1:0 2:0 3:0 4:0 5:0 6:1 7:0 8:0 
1 1 0 1 0 0 0:25 1:0 2:0 3:0 4:0 5:0 6:1 7:0 8:0 
1 1 0 1 0 0 0:25 1:0 2:0 3:0 4:0 5:0 6:1 7:0 8:0 
1 0 0 0 0 1 0:38 1:0 2:0 3:1 4:0 5:0 6:1 7:0 8:0 
1 1 0 1 0 0 0:25 1:0 2:0 3:0 4:0 5:0 6:1 7:0 8:0 
1 0.8197140010404734 0 0 0.5524035266521737 0 0:21 1:0 2:0 3:1 4:0 5:1 6:0 7:0 8:0 
1 0 0 0 0.149196167852793 1 0:25 1:1 2:0 3:1 4:0 5:1 6:0 7:1 8:0 
1 1 1 1 1 1 0:25 1:0 2:0 3:0 4:0 5:0 6:1 7:1 8:0 
1 1 0 1 0 0 0:25 1:0 2:0 3:0 4:0 5:0 6:1 7:0 8:0 
1 1 0 1 0 0 0:25 1:0 2:0 3:0 4:0 5:0 6:1 7:0 8:0 
1 1 0 1 0 0 0:25 1:0 2:0 3:0 4:0 5:0 6:1 7:0 8:0 
1 1 0 0.6877050355674986 0 0 0:14 1:0 2:0 3:1 4:0 5:0 6:1 7:0 8:0 
1 1 0 1 0 0 0:25 1:0 2:0 3:0 4:0 5:0 6:1 7:0 8:0 
1 1 0 1 0 0 0:14 1:0 2:0 3:1 4:0 5:0 6:1 7:0 8:0 
1 1 0 1 0.3858865687764884 0 0:14 1:0 2:0 3:1 4:0 5:0 6:1 7:0 8:0 
1 1 0 1 0 0 0:25 1:0 2:0 3:0 4:0 5:0 6:1 7:0 8:0 
1 1 0 1 0 0 0:25 1:0 2:0 3:0 4:0 5:0 6:1 7:0 8:0 
1 0 0 0 0.1894544508743642 1 0:38 1:0 2:0 3:1 4:0 5:0 6:1 7:0 8:0 
1 1 0 1 0 0 0:25 1:0 2:0 3:0 4:0 5:0 6:1 7:0 8:0 
1 1 0 1 0 1 0:25 1:1 2:0 3:0 4:0 5:1 6:0 7:0 8:0 
1 1 0 1 0 0 0:25 1:1 2:0 3:0 4:0 5:0 6:1 7:0 8:0 
1 1 0 1 0 0 0:25 1:0 2:0 3:0 4:0 5:0 6:1 7:0 8:0 
1 1 0 1 0 0 0:25 1:0 2:0 3:0 4:0 5:0 6:1 7:0 8:0 
1 1 0 1 0 0 0:25 1:0 2:0 3:0 4:0 5:0 6:1 7:0 8:0 
1 1 0 1 0 0 0:25 1:0 2:0 3:0 4:0 5:0 6:1 7:0 8:0 
1 1 0 1 0 0 0:25 1:0 2:0 3:0 4:0 5:0 6:1 7:0 8:0 
1 1 0 1 0 0 0:25 1:0 2:0 3:0 4:0 5:0 6:1 7:0 8:0 
1 1 0 1 0 0 0:25 1:0 2:0 3:0 4:0 5:0 6:1 7:0 8:0 
1 1 0 1 0 0 0:25 1:0 2:0 3:0 4:0 5:0 6:1 7:0 8:0 
1 1 0 1 0 0 0:25 1:0 2:0 3:0 4:0 5:0 6:1 7:0 8:0 
1 1 0 1 0 0 0:25 1:0 2:0 3:0 4:0 5:0 6:1 7:0 8:0 
1 1 0 1 0 0 0:25 1:0 2:0 3:0 4:0 5:0 6:1 7:0 8:0 
1 1 0 1 0 0 0:25 1:1 2:0 3:0 4:0 5:0 6:1 7:0 8:0 
1 1 0 1 0 0 0:25 1:0 2:0 3:0 4:0 5:0 6:1 7:0 8:0 
1 1 0 1 0 0 0:25 1:0 2:0 3:0 4:0 5:0 6:1 7:0 8:0 
1 1 0 1 0 0 0:25 1:0 2:0 3:0 4:0 5:0 6:1 7:0 8:0 
1 1 0 1 0 0 0:25 1:0 2:0 3:0 4:0 5:0 6:1 7:0 8:0 
1 1 0 1 0 0 0:25 1:0 2:0 3:0 4:0 5:0 6:1 7:0 8:0 
1 1 1 1 1 1 0:25 1:0 2:0 3:0 4:0 5:0 6:1 7:1 8:0 
1 1 0 1 0 0 0:25 1:0 2:0 3:0 4:0 5:0 6:1 7:0 8:0 
1 1 0 1 0 0 0:25 1:0 2:0 3:0 4:0 5:0 6:1 7:0 8:0 
1 1 0 1 0 0 0:25 1:0 2:0 3:0 4:0 5:0 6:1 7:0 8:0 
1 1 0 1 0 0 0:25 1:0 2:0 3:0 4:0 5:0 6:1 7:0 8:0 
1 1 0 1 0 0 0:25 1:0 2:0 3:0 4:0 5:0 6:1 7:0 8:0 
1 1 0 1 0 0 0:25 1:0 2:0 3:0 4:0 5:0 6:1 7:0 8:0 
1 1 0 1 0 0 0:25 1:0 2:0 3:0 4:0 5:0 6:1 7:0 8:1 
1 1 0 1 0 0 0:25 1:1 2:0 3:0 4:0 5:0 6:1 7:0 8:0 
1 1 0 1 0 0 0:25 1:1 2:0 3:0 4:0 5:0 6:1 7:0 8:0 
1 1 0 1 0 0 0:25 1:1 2:0 3:0 4:0 5:0 6:1 7:0 8:0 
1 1 0 1 0 0 0:25 1:1 2:0 3:0 4:0 5:0 6:1 7:0 8:0 
1 1 0 1 0 0 0:25 1:0 2:0 3:0 4:0 5:0 6:1 7:0 8:0 
1 0 0 0 0 0 0:38 1:0 2:0 3:0 4:0 5:0 6:1 7:0 8:0 
1 1 0 1 0 0 0:25 1:0 2:0 3:0 4:0 5:0 6:1 7:0 8:0 
1 1 0 1 0 0 0:25 1:0 2:0 3:0 4:0 5:0 6:1 7:0 8:0 
1 1 0 1 0 0 0:25 1:0 2:0 3:0 4:0 5:0 6:1 7:0 8:0 
1 1 0 1 0 0 0:25 1:0 2:0 3:0 4:0 5:0 6:1 7:0 8:0 
1 1 0 1 0 0 0:25 1:1 2:0 3:0 4:0 5:0 6:1 7:0 8:0 
1 1 0 1 0 0 0:25 1:0 2:0 3:0 4:0 5:0 6:1 7:0 8:0 
1 1 0 1 0 0 0:25 1:0 2:0 3:0 4:0 5:0 6:1 7:0 8:0 
1 1 0 1 0 0 0:25 1:0 2:0 3:0 4:0 5:0 6:1 7:0 8:0 
1 1 0 1 0 0 0:25 1:0 2:0 3:0 4:0 5:0 6:1 7:0 8:0 
1 1 0 1 0 0 0:25 1:0 2:0 3:0 4:0 5:0 6:1 7:0 8:0 
1 1 0 1 0 0 0:25 1:0 2:0 3:0 4:0 5:0 6:1 7:0 8:0 
1 1 0 1 0 0 0:25 1:0 2:0 3:0 4:0 5:0 6:1 7:0 8:0 
1 1 0 1 0 0 0:25 1:0 2:0 3:0 4:0 5:0 6:1 7:0 8:0 
1 1 0 1 0 0 0:25 1:0 2:0 3:0 4:0 5:0 6:1 7:0 8:0 
1 1 0 1 0 0 0:25 1:0 2:0 3:0 4:0 5:0 6:1 7:0 8:0 
1 1 0.4517517846771923 1 1 1 0:38 1:0 2:0 3:0 4:0 5:1 6:0 7:1 8:0 
1 0 0 1 0 0 0:25 1:0 2:0 3:0 4:0 5:1 6:0 7:0 8:0 
1 1 0 1 0 0 0:25 1:0 2:0 3:0 4:0 5:0 6:1 7:0 8:0 
1 1 0 1 0 0 0:25 1:0 2:0 3:0 4:0 5:0 6:1 7:0 8:0 
1 1 0 1 0 0 0:25 1:0 2:0 3:0 4:0 5:0 6:1 7:0 8:0 
1 1 0 1 0 0 0:25 1:0 2:0 3:0 4:0 5:0 6:1 7:0 8:0 
1 1 0 1 0 0 0:25 1:0 2:0 3:0 4:0 5:0 6:1 7:0 8:0 
1 1 0 1 0 0 0:25 1:0 2:0 3:0 4:0 5:0 6:1 7:0 8:0 
1 1 0 1 0 0 0:25 1:0 2:0 3:0 4:0 5:0 6:1 7:0 8:0 
1 0 0 1 0 0 0:25 1:1 2:0 3:0 4:1 5:1 6:0 7:0 8:0 
1 1 0 1 0 0 0:25 1:0 2:0 3:0 4:0 5:0 6:1 7:0 8:0 
1 0 0 0 0 0 0:38 1:0 2:0 3:0 4:0 5:0 6:1 7:0 8:0 
1 1 0 1 0 0 0:25 1:0 2:0 3:0 4:0 5:0 6:1 7:0 8:0 
1 1 0 1 0 0 0:25 1:0 2:0 3:0 4:0 5:0 6:1 7:0 8:0 
1 1 0 1 0 0 0:25 1:0 2:0 3:0 4:0 5:0 6:1 7:0 8:0 
1 1 0 1 0 0 0:25 1:0 2:0 3:0 4:0 5:0 6:1 7:0 8:0 
1 1 0 1 0 0 0:25 1:0 2:0 3:0 4:0 5:0 6:1 7:0 8:0 
1 1 0 1 0 0 0:25 1:0 2:0 3:0 4:0 5:0 6:1 7:0 8:0 
1 1 0 1 0 0 0:25 1:0 2:0 3:0 4:0 5:0 6:1 7:0 8:0 
1 1 0 1 0 0 0:25 1:0 2:0 3:0 4:0 5:0 6:1 7:0 8:0 
1 1 0 1 0 0 0:25 1:0 2:0 3:0 4:0 5:0 6:1 7:0 8:0 
1 1 0 1 0 0 0:25 1:0 2:0 3:0 4:0 5:0 6:1 7:0 8:0 
1 1 0 1 0 0 0:25 1:0 2:0 3:0 4:0 5:0 6:1 7:0 8:0 
1 1 0 1 0 0 0:25 1:0 2:0 3:0 4:0 5:0 6:1 7:0 8:0 
1 0 0 1 0 0 0:25 1:0 2:0 3:0 4:0 5:1 6:0 7:0 8:0 
1 1 0 1 0 0 0:25 1:0 2:0 3:0 4:0 5:0 6:1 7:0 8:0 
1 1 0 1 0 0 0:25 1:0 2:0 3:0 4:0 5:0 6:1 7:0 8:0 
1 1 0 1 0 0 0:25 1:0 2:0 3:0 4:0 5:0 6:1 7:0 8:0 
1 1 0 1 0 0 0:25 1:0 2:0 3:0 4:0 5:0 6:1 7:0 8:0 
1 1 0 1 0 0 0:25 1:0 2:0 3:0 4:0 5:0 6:1 7:0 8:0 
1 1 0 1 0 0 0:25 1:0 2:0 3:0 4:0 5:0 6:1 7:0 8:0 
1 1 0 1 0 0 0:25 1:0 2:0 3:0 4:0 5:0 6:1 7:0 8:0 
1 1 0 1 0 0 0:25 1:0 2:0 3:0 4:0 5:0 6:1 7:0 8:0 
1 1 0 1 0 0 0:25 1:0 2:0 3:0 4:0 5:0 6:1 7:0 8:0 
1 1 0 1 0 0 0:25 1:0 2:0 3:0 4:0 5:0 6:1 7:0 8:0 
1 1 0 1 0 0 0:25 1:0 2:0 3:0 4:0 5:0 6:1 7:0 8:0 
1 1 1 1 1 1 0:25 1:0 2:0 3:0 4:0 5:0 6:1 7:1 8:0 
1 1 1 1 1 1 0:25 1:0 2:0 3:0 4:0 5:0 6:1 7:1 8:0 
1 1 0 1 0 0 0:25 1:0 2:0 3:0 4:0 5:0 6:1 7:0 8:0 
1 1 0 1 0 0 0:25 1:0 2:0 3:0 4:0 5:0 6:1 7:0 8:0 
1 1 0 1 0 0 0:25 1:0 2:0 3:0 4:0 5:0 6:1 7:0 8:0 
1 1 0 1 0 0 0:25 1:0 2:0 3:0 4:0 5:0 6:1 7:0 8:0 
1 1 0 1 0 0 0:25 1:1 2:0 3:0 4:0 5:0 6:1 7:0 8:0 
1 1 0 1 0 0 0:25 1:0 2:0 3:0 4:0 5:0 6:1 7:0 8:0 
1 1 0 1 0 0 0:25 1:0 2:0 3:0 4:1 5:0 6:1 7:0 8:0 
1 1 0 1 0 0 0:25 1:0 2:0 3:0 4:0 5:0 6:1 7:0 8:0 
0 0 0 0 0 1 0:25 1:0 2:0 3:1 4:0 5:0 6:1 7:1 8:0 
1 0 0 0 0 0 0:8 1:0 2:0 3:0 4:1 5:0 6:1 7:0 8:0 
1 0 0 0 0 0 0:8 1:0 2:0 3:0 4:1 5:0 6:1 7:0 8:0 
1 1 0 1 0 0 0:25 1:0 2:0 3:0 4:0 5:0 6:1 7:0 8:0 
1 0 0 1 0 0 0:25 1:0 2:0 3:0 4:0 5:1 6:0 7:0 8:0 
1 1 0 1 0 0 0:25 1:0 2:0 3:0 4:0 5:0 6:1 7:0 8:0 
1 1 0 1 0 0 0:25 1:0 2:0 3:0 4:0 5:0 6:1 7:0 8:0 
1 1 0 1 0 0 0:25 1:0 2:0 3:0 4:0 5:0 6:1 7:0 8:0 
1 0 0 1 0 0 0:8 1:0 2:0 3:0 4:0 5:0 6:0 7:0 8:1 
1 1 0 1 0 0 0:25 1:1 2:0 3:0 4:0 5:0 6:1 7:0 8:0 
1 1 0 1 0 0 0:25 1:0 2:0 3:0 4:0 5:0 6:1 7:0 8:0 
1 0 0 0 0 0 0:8 1:0 2:0 3:0 4:1 5:0 6:1 7:0 8:0 
1 1 0 1 0 0 0:25 1:0 2:0 3:0 4:0 5:0 6:1 7:0 8:0 
1 1 1 1 1 1 0:25 1:0 2:0 3:0 4:0 5:0 6:1 7:1 8:0 
1 0 0 0 0 0 0:26 1:0 2:0 3:1 4:0 5:0 6:1 7:0 8:0 
1 1 0 1 0 0 0:25 1:0 2:0 3:0 4:1 5:0 6:1 7:0 8:0 
1 1 0 1 0 0 0:25 1:0 2:0 3:0 4:0 5:0 6:1 7:0 8:0 
1 1 0 1 0 0 0:25 1:0 2:0 3:0 4:0 5:0 6:1 7:0 8:0 
1 1 0 1 0 0 0:25 1:0 2:0 3:0 4:0 5:0 6:1 7:0 8:0 
1 1 0 1 0 0 0:25 1:0 2:0 3:0 4:0 5:0 6:1 7:0 8:0 
1 1 0 1 0 0 0:25 1:0 2:0 3:0 4:0 5:0 6:1 7:0 8:0 
1 1 0 1 0 0 0:25 1:0 2:0 3:0 4:0 5:0 6:1 7:0 8:0 
1 1 0 1 0 0 0:25 1:0 2:0 3:0 4:0 5:0 6:1 7:0 8:0 
1 1 0 1 0 0 0:25 1:0 2:0 3:0 4:0 5:0 6:1 7:0 8:0 
1 0.8340327674773365 0 1 0 0 0:25 1:1 2:0 3:0 4:1 5:1 6:0 7:0 8:0 
1 1 0 1 0 0 0:25 1:0 2:0 3:0 4:0 5:0 6:1 7:0 8:0 
1 1 0 1 0 0 0:25 1:0 2:0 3:0 4:0 5:0 6:1 7:0 8:0 
1 1 0 1 0 0 0:25 1:0 2:0 3:0 4:0 5:0 6:1 7:0 8:0 
1 1 1 1 1 1 0:25 1:0 2:0 3:0 4:0 5:0 6:1 7:1 8:0 
1 1 0 1 0 0 0:25 1:0 2:0 3:0 4:0 5:0 6:1 7:0 8:0 
1 1 0 1 0 0 0:25 1:0 2:0 3:0 4:0 5:0 6:1 7:0 8:0 
1 1 1 1 1 1 0:25 1:0 2:0 3:0 4:0 5:1 6:0 7:1 8:0 
1 1 0 1 0 0 0:25 1:0 2:0 3:0 4:0 5:0 6:1 7:0 8:0 
1 1 0 1 0 0 0:25 1:0 2:0 3:0 4:0 5:0 6:1 7:0 8:0 
1 1 0 1 0 0 0:25 1:0 2:0 3:0 4:0 5:0 6:1 7:0 8:0 
1 1 0 1 0 0 0:25 1:0 2:0 3:0 4:0 5:0 6:1 7:0 8:0 
1 1 0 1 0 0 0:25 1:0 2:0 3:0 4:0 5:0 6:1 7:0 8:0 
1 1 0 1 0 0 0:25 1:0 2:0 3:0 4:0 5:0 6:1 7:0 8:0 
1 1 0 1 0 0 0:25 1:0 2:0 3:0 4:0 5:0 6:1 7:0 8:0 
1 1 0 1 0 0 0:25 1:0 2:0 3:0 4:0 5:0 6:1 7:0 8:0 
1 1 0 1 0 0 0:25 1:0 2:0 3:0 4:0 5:0 6:1 7:0 8:0 
1 1 0 1 0 0 0:25 1:0 2:0 3:0 4:0 5:0 6:1 7:0 8:0 
1 1 0 1 0 0 0:25 1:0 2:0 3:0 4:0 5:0 6:1 7:0 8:0 
1 1 0 1 0 0 0:25 1:0 2:0 3:0 4:0 5:0 6:1 7:0 8:0 
1 1 0 1 0 0 0:25 1:0 2:0 3:0 4:1 5:0 6:1 7:0 8:0 
1 1 0 1 0 0 0:25 1:0 2:0 3:0 4:0 5:0 6:1 7:0 8:0 
1 1 0 1 0 0 0:25 1:0 2:0 3:0 4:0 5:0 6:1 7:0 8:0 
1 1 0 1 0 0 0:25 1:0 2:0 3:0 4:0 5:0 6:1 7:0 8:0 
1 1 0 1 0 0 0:25 1:0 2:0 3:0 4:0 5:0 6:1 7:0 8:0 
1 1 0 1 0 0 0:25 1:0 2:0 3:0 4:0 5:0 6:1 7:0 8:0 
1 1 0 1 0 0 0:25 1:0 2:0 3:0 4:0 5:0 6:1 7:0 8:0 
1 1 0 1 0 0 0:25 1:0 2:0 3:0 4:0 5:0 6:1 7:0 8:0 
1 0 0 0 0 0 0:8 1:0 2:0 3:0 4:1 5:0 6:1 7:0 8:0 
1 1 1 1 1 1 0:25 1:0 2:0 3:0 4:0 5:0 6:1 7:1 8:0 
1 1 0 1 0 0 0:25 1:0 2:0 3:0 4:0 5:0 6:1 7:0 8:0 
1 1 0 1 0 0 0:25 1:0 2:0 3:0 4:0 5:0 6:1 7:0 8:0 
1 1 0 1 0 0 0:25 1:0 2:0 3:0 4:0 5:0 6:1 7:0 8:0 
1 1 0 1 0 0 0:25 1:0 2:0 3:0 4:0 5:0 6:1 7:0 8:0 
1 0 0 0 0 0 0:8 1:0 2:0 3:0 4:1 5:0 6:1 7:0 8:0 
1 1 0 1 0 0 0:25 1:0 2:0 3:0 4:0 5:0 6:1 7:0 8:0 
1 1 0 1 0 0 0:25 1:0 2:0 3:0 4:0 5:0 6:1 7:0 8:0 
1 1 0 1 0 0 0:25 1:0 2:0 3:0 4:0 5:0 6:1 7:0 8:0 
1 1 0 1 0 0 0:25 1:0 2:0 3:0 4:0 5:0 6:1 7:0 8:0 
1 1 0 1 0 0 0:25 1:0 2:0 3:0 4:0 5:0 6:1 7:0 8:0 
1 1 0 1 0 0 0:25 1:0 2:0 3:0 4:0 5:0 6:1 7:0 8:0 
1 1 0 1 0 0 0:25 1:0 2:0 3:0 4:0 5:0 6:1 7:0 8:0 
1 1 0 1 0 0 0:25 1:0 2:0 3:0 4:0 5:0 6:1 7:0 8:0 
1 1 0 1 0 0 0:25 1:0 2:0 3:0 4:0 5:0 6:1 7:0 8:0 
1 1 0 1 0 0 0:25 1:0 2:0 3:0 4:0 5:0 6:1 7:0 8:0 
1 1 0 1 0 0 0:25 1:0 2:0 3:0 4:0 5:0 6:1 7:0 8:0 
1 1 1 1 1 1 0:25 1:0 2:0 3:0 4:0 5:0 6:1 7:1 8:0 
1 1 0 1 0 0 0:25 1:0 2:0 3:0 4:0 5:0 6:1 7:0 8:0 
0 0 0 0 0 1 0:25 1:0 2:0 3:1 4:0 5:0 6:1 7:1 8:0 
1 0 0 1 0 0 0:8 1:0 2:0 3:0 4:0 5:0 6:0 7:0 8:1 
1 1 0 0 0 0 0:8 1:1 2:0 3:0 4:1 5:0 6:1 7:0 8:0 
1 1 0 1 0 0 0:25 1:0 2:0 3:0 4:0 5:0 6:1 7:0 8:0 
1 1 0 1 0 0 0:25 1:0 2:0 3:0 4:0 5:0 6:1 7:0 8:0 
1 1 0 1 0 0 0:25 1:0 2:0 3:0 4:0 5:0 6:1 7:0 8:0 
1 1 0 1 0 0 0:25 1:0 2:0 3:0 4:0 5:0 6:1 7:0 8:0 
1 1 0 1 0 0 0:25 1:0 2:0 3:0 4:0 5:0 6:1 7:0 8:0 
1 1 0 1 0 0 0:25 1:0 2:0 3:0 4:0 5:0 6:1 7:0 8:1 
1 1 0 1 0 0 0:25 1:0 2:0 3:0 4:0 5:0 6:1 7:0 8:0 
1 1 0 1 0 0 0:25 1:0 2:0 3:0 4:0 5:0 6:1 7:0 8:0 
1 1 0 1 0 0 0:25 1:0 2:0 3:0 4:0 5:0 6:1 7:0 8:0 
1 1 0 1 0 0 0:25 1:0 2:0 3:0 4:0 5:0 6:1 7:0 8:0 
1 1 0 1 0 0 0:25 1:0 2:0 3:0 4:1 5:0 6:1 7:0 8:0 
1 1 0 1 0 0 0:25 1:0 2:0 3:0 4:0 5:0 6:1 7:0 8:0 
1 1 0 1 0 0 0:25 1:0 2:0 3:0 4:0 5:0 6:1 7:0 8:0 
1 1 0 0 0 0 0:38 1:0 2:0 3:0 4:1 5:0 6:1 7:0 8:0 
1 0 0 0 0 0 0:38 1:0 2:0 3:0 4:0 5:0 6:1 7:0 8:0 
1 0 0 0 0 0 0:38 1:0 2:0 3:0 4:0 5:0 6:1 7:0 8:0 
1 1 0 0.9384037067163085 0 0 0:38 1:0 2:0 3:0 4:1 5:0 6:1 7:0 8:0 
1 0 0 0 0 0 0:38 1:0 2:0 3:0 4:0 5:0 6:1 7:0 8:0 
1 1 0 1 0 0 0:25 1:0 2:0 3:0 4:0 5:0 6:1 7:0 8:0 
1 0 0 0 0 0 0:8 1:0 2:0 3:0 4:1 5:0 6:1 7:0 8:0 
1 1 0 1 0 0 0:25 1:0 2:0 3:0 4:0 5:0 6:1 7:0 8:0 
1 0 0 0 0 0 0:38 1:0 2:0 3:0 4:0 5:0 6:1 7:0 8:0 
1 0 0 0 0 0 0:38 1:0 2:0 3:0 4:0 5:0 6:1 7:0 8:0 
1 0 0 1 1 1 0:38 1:0 2:0 3:0 4:0 5:0 6:1 7:1 8:0 
1 1 0 1 0 0 0:25 1:0 2:0 3:0 4:0 5:0 6:1 7:0 8:0 
1 1 0 1 0 0 0:25 1:0 2:0 3:0 4:0 5:0 6:1 7:0 8:0 
1 0 0 1 0 0 0:25 1:0 2:0 3:0 4:0 5:1 6:0 7:0 8:0 
1 1 0 1 0 0 0:25 1:0 2:0 3:0 4:0 5:0 6:1 7:0 8:0 
1 1 0 1 0 0 0:25 1:0 2:0 3:0 4:0 5:0 6:1 7:0 8:0 
0 1 1 0.03496014563574001 1 1 0:25 1:1 2:0 3:1 4:0 5:0 6:1 7:1 8:0 
1 1 0 1 0 0 0:25 1:0 2:0 3:0 4:0 5:0 6:1 7:0 8:0 
1 1 0 1 0 0 0:25 1:0 2:0 3:0 4:0 5:0 6:1 7:0 8:0 
1 1 0 1 0 0 0:25 1:0 2:0 3:0 4:0 5:0 6:1 7:0 8:0 
0 0 0 0 0 1 0:25 1:0 2:0 3:1 4:0 5:0 6:1 7:1 8:0 
1 1 0 1 0 0 0:25 1:0 2:0 3:0 4:0 5:0 6:1 7:0 8:0 
1 1 0 1 0 0 0:25 1:0 2:0 3:0 4:0 5:0 6:1 7:0 8:0 
1 1 0 1 0 0 0:25 1:0 2:0 3:0 4:0 5:0 6:1 7:0 8:0 
1 0 0 0 0 0 0:8 1:0 2:0 3:0 4:1 5:0 6:1 7:0 8:0 
1 1 0 1 0 0 0:25 1:0 2:0 3:0 4:0 5:0 6:1 7:0 8:0 
1 1 0 1 0 0 0:25 1:0 2:0 3:0 4:0 5:0 6:1 7:0 8:0 
1 1 0 1 0 0 0:25 1:0 2:0 3:0 4:0 5:0 6:1 7:0 8:0 
1 1 0 1 0 0 0:25 1:0 2:0 3:0 4:0 5:0 6:1 7:0 8:0 
1 0 0 0 0 0 0:8 1:0 2:0 3:0 4:1 5:0 6:1 7:0 8:0 
1 1 0 1 0 0 0:25 1:0 2:0 3:0 4:0 5:0 6:1 7:0 8:0 
1 1 0 1 0 0 0:25 1:0 2:0 3:0 4:0 5:0 6:1 7:0 8:0 
1 1 0 1 0 0 0:25 1:0 2:0 3:0 4:0 5:0 6:1 7:0 8:0 
1 1 1 1 1 1 0:25 1:0 2:0 3:0 4:0 5:0 6:1 7:1 8:0 
1 1 0 1 0 0 0:25 1:0 2:0 3:0 4:0 5:0 6:1 7:0 8:0 
1 1 0 1 0 0 0:25 1:0 2:0 3:0 4:0 5:0 6:1 7:0 8:0 
1 1 0 1 0 0 0:25 1:0 2:0 3:0 4:0 5:0 6:1 7:0 8:0 
1 1 0 1 0 0 0:25 1:0 2:0 3:0 4:0 5:0 6:1 7:0 8:0 
1 1 0 1 0 0 0:25 1:0 2:0 3:0 4:0 5:0 6:1 7:0 8:0 
1 1 1 1 1 1 0:25 1:0 2:0 3:0 4:0 5:1 6:0 7:1 8:0 
1 1 0 1 0 0 0:25 1:0 2:0 3:0 4:0 5:0 6:1 7:0 8:0 
1 1 0 1 0 0 0:25 1:0 2:0 3:0 4:0 5:0 6:1 7:0 8:0 
1 0 0 0 0 0 0:8 1:0 2:0 3:0 4:1 5:0 6:1 7:0 8:0 
1 1 0 1 0 0 0:25 1:0 2:0 3:0 4:0 5:0 6:1 7:0 8:0 
1 1 0 1 0 0 0:25 1:0 2:0 3:0 4:0 5:0 6:1 7:0 8:0 
1 1 0 1 0 0 0:25 1:0 2:0 3:0 4:0 5:0 6:1 7:0 8:0 
1 1 0 1 0 0 0:25 1:0 2:0 3:0 4:0 5:0 6:1 7:0 8:0 
1 1 0 1 0 0 0:25 1:0 2:0 3:0 4:0 5:0 6:1 7:0 8:0 
1 0 0 1 0 0 0:25 1:0 2:0 3:0 4:0 5:1 6:0 7:0 8:0 
1 1 0 1 0 0 0:25 1:0 2:0 3:0 4:0 5:0 6:1 7:0 8:0 
1 1 0 1 0 0 0:25 1:0 2:0 3:0 4:0 5:0 6:1 7:0 8:0 
1 1 0 1 0 0 0:25 1:0 2:0 3:0 4:0 5:0 6:1 7:0 8:0 
1 1 1 1 1 1 0:25 1:0 2:0 3:0 4:0 5:0 6:1 7:1 8:0 
1 0 0 0 0 0 0:38 1:0 2:0 3:0 4:0 5:0 6:1 7:0 8:0 
1 0 0 0 0 0 0:8 1:0 2:0 3:0 4:1 5:0 6:1 7:0 8:0 
1 1 0 1 0 0 0:25 1:0 2:0 3:0 4:0 5:0 6:1 7:0 8:0 
1 1 0 1 0 0 0:25 1:0 2:0 3:0 4:0 5:0 6:1 7:0 8:0 
1 1 0 1 0 0 0:25 1:0 2:0 3:0 4:0 5:0 6:1 7:0 8:0 
1 1 0 1 0 0 0:25 1:0 2:0 3:0 4:0 5:0 6:1 7:0 8:0 
1 1 0 1 0 0 0:25 1:0 2:0 3:0 4:0 5:0 6:1 7:0 8:0 
1 1 0 1 0 0 0:25 1:0 2:0 3:0 4:0 5:0 6:1 7:0 8:0 
1 1 0 1 0 0 0:25 1:0 2:0 3:0 4:0 5:0 6:1 7:0 8:0 
1 1 0 1 0 0 0:25 1:0 2:0 3:0 4:0 5:0 6:1 7:0 8:0 
1 1 0 1 0 0 0:25 1:0 2:0 3:0 4:0 5:0 6:1 7:0 8:0 
1 1 0 1 0 0 0:25 1:0 2:0 3:0 4:0 5:0 6:1 7:0 8:0 
1 1 0 1 0 0 0:25 1:0 2:0 3:0 4:0 5:0 6:1 7:0 8:0 
1 1 0 1 0 0 0:25 1:0 2:0 3:0 4:0 5:0 6:1 7:0 8:0 
1 1 0 1 0 0 0:25 1:0 2:0 3:0 4:0 5:0 6:1 7:0 8:0 
1 1 0 1 0 0 0:25 1:0 2:0 3:0 4:0 5:0 6:1 7:0 8:0 
1 1 0 1 0 0 0:25 1:0 2:0 3:0 4:0 5:0 6:1 7:0 8:0 
1 1 0 1 0 0 0:25 1:1 2:0 3:0 4:0 5:0 6:1 7:0 8:0 
1 0 0 0 0 0 0:8 1:0 2:0 3:0 4:1 5:0 6:1 7:0 8:0 
1 1 0 1 0 0 0:25 1:0 2:0 3:0 4:0 5:0 6:1 7:0 8:0 
1 1 0 1 0 0 0:25 1:0 2:0 3:0 4:0 5:0 6:1 7:0 8:0 
1 1 0 1 0 0 0:25 1:0 2:0 3:0 4:0 5:0 6:1 7:0 8:0 
1 1 0 1 0 0 0:25 1:0 2:0 3:0 4:0 5:0 6:1 7:0 8:0 
1 1 0 1 0 0 0:25 1:0 2:0 3:0 4:0 5:0 6:1 7:0 8:0 
1 1 0 1 0 0 0:25 1:0 2:0 3:0 4:0 5:0 6:1 7:0 8:0 
1 1 0 1 0 0 0:25 1:0 2:0 3:0 4:0 5:0 6:1 7:0 8:0 
1 1 0 1 0 0 0:25 1:0 2:0 3:0 4:0 5:0 6:1 7:0 8:0 
1 1 0 1 0 0 0:25 1:0 2:0 3:0 4:0 5:0 6:1 7:0 8:0 
1 1 0 1 0 0 0:25 1:0 2:0 3:0 4:0 5:0 6:1 7:0 8:0 
1 1 0 1 0 0 0:25 1:0 2:0 3:0 4:0 5:0 6:1 7:0 8:0 
1 1 0 1 0 0 0:25 1:0 2:0 3:0 4:0 5:0 6:1 7:0 8:0 
1 0 0 0 0 0 0:8 1:0 2:0 3:0 4:1 5:0 6:1 7:0 8:0 
1 1 0 1 0 0 0:25 1:0 2:0 3:0 4:0 5:0 6:1 7:0 8:0 
1 1 0 1 0 0 0:25 1:0 2:0 3:0 4:0 5:0 6:1 7:0 8:0 
1 1 0 1 0 0 0:25 1:1 2:0 3:0 4:0 5:0 6:1 7:0 8:0 
1 1 1 1 1 1 0:25 1:0 2:0 3:0 4:0 5:0 6:1 7:1 8:0 
1 1 0 1 0 0 0:25 1:0 2:0 3:0 4:0 5:0 6:1 7:0 8:0 
1 1 0 1 0 0 0:25 1:0 2:0 3:0 4:0 5:0 6:1 7:0 8:0 
1 1 0 1 0 0 0:25 1:0 2:0 3:0 4:0 5:0 6:1 7:0 8:0 
1 1 1 1 1 1 0:25 1:0 2:0 3:0 4:0 5:0 6:1 7:1 8:0 
1 1 0 1 0 0 0:25 1:0 2:0 3:0 4:0 5:0 6:1 7:0 8:0 
0 0 0 0 0 1 0:25 1:0 2:0 3:1 4:0 5:0 6:1 7:1 8:0 
1 1 0 1 0 0 0:25 1:0 2:0 3:0 4:0 5:0 6:1 7:0 8:0 
1 1 0 1 0 0 0:25 1:0 2:0 3:0 4:0 5:0 6:1 7:0 8:0 
1 1 0 1 0 0 0:25 1:0 2:0 3:0 4:0 5:0 6:1 7:0 8:0 
1 1 0 1 0 0 0:25 1:0 2:0 3:0 4:0 5:0 6:1 7:0 8:0 
1 1 0 1 0 0 0:25 1:0 2:0 3:0 4:0 5:0 6:1 7:0 8:0 
0 1 1 1 1 1 0:25 1:1 2:0 3:1 4:0 5:0 6:1 7:1 8:0 
1 1 0 1 0 0 0:25 1:0 2:0 3:0 4:0 5:0 6:1 7:0 8:0 
1 1 0 1 0 0 0:25 1:0 2:0 3:0 4:0 5:0 6:1 7:0 8:0 
1 1 0 1 0 0 0:25 1:0 2:0 3:0 4:0 5:0 6:1 7:0 8:0 
1 1 0 1 0 0 0:25 1:0 2:0 3:0 4:0 5:0 6:1 7:0 8:0 
1 1 0 1 0 0 0:25 1:0 2:0 3:0 4:0 5:0 6:1 7:0 8:0 
1 1 0 1 0 0 0:25 1:0 2:0 3:0 4:0 5:0 6:1 7:0 8:0 
1 1 0 1 0 0 0:25 1:0 2:0 3:0 4:0 5:0 6:1 7:0 8:0 
1 0 0 0 0 0 0:8 1:0 2:0 3:0 4:1 5:0 6:1 7:0 8:0 
1 1 0 1 0 0 0:25 1:0 2:0 3:0 4:0 5:0 6:1 7:0 8:0 
1 1 1 1 1 1 0:25 1:0 2:0 3:0 4:0 5:0 6:1 7:1 8:0 
1 1 0 1 0 0 0:25 1:0 2:0 3:0 4:0 5:0 6:1 7:0 8:0 
1 1 0 1 0 0 0:25 1:0 2:0 3:0 4:0 5:0 6:1 7:0 8:0 
1 1 0 1 0 0 0:25 1:0 2:0 3:0 4:0 5:0 6:1 7:0 8:0 
1 1 1 1 1 1 0:25 1:0 2:0 3:0 4:0 5:0 6:1 7:1 8:0 
1 1 0 1 0 0 0:25 1:0 2:0 3:0 4:0 5:0 6:1 7:0 8:0 
1 1 0 1 0 0 0:25 1:0 2:0 3:0 4:0 5:0 6:1 7:0 8:0 
1 1 0 1 0 0 0:25 1:0 2:0 3:0 4:0 5:0 6:1 7:0 8:0 
1 1 0 1 0 0 0:25 1:0 2:0 3:0 4:0 5:0 6:1 7:0 8:0 
1 1 0 1 0 0 0:25 1:0 2:0 3:0 4:0 5:0 6:1 7:0 8:0 
1 1 0 1 0 0 0:25 1:0 2:0 3:0 4:0 5:0 6:1 7:0 8:0 
1 1 0 1 0 0 0:25 1:0 2:0 3:0 4:0 5:0 6:1 7:0 8:0 
1 1 0 1 0 0 0:25 1:0 2:0 3:0 4:0 5:0 6:1 7:0 8:0 
1 1 0 1 0 0 0:25 1:0 2:0 3:0 4:0 5:0 6:1 7:0 8:0 
1 1 0 1 0 0 0:25 1:0 2:0 3:0 4:0 5:0 6:1 7:0 8:0 
1 1 1 1 1 1 0:25 1:0 2:0 3:0 4:0 5:0 6:1 7:1 8:0 
1 1 0 1 0 0 0:25 1:0 2:0 3:0 4:0 5:0 6:1 7:0 8:0 
1 1 0 1 0 0 0:25 1:0 2:0 3:0 4:0 5:0 6:1 7:0 8:0 
1 1 0 1 0 0 0:25 1:0 2:0 3:0 4:0 5:0 6:1 7:0 8:0 
1 1 0 1 0 0 0:25 1:0 2:0 3:0 4:0 5:0 6:1 7:0 8:0 
1 1 0 1 0 0 0:25 1:0 2:0 3:0 4:0 5:0 6:1 7:0 8:0 
1 1 0 1 0 0 0:25 1:0 2:0 3:0 4:0 5:0 6:1 7:0 8:0 
1 1 0 1 0 0 0:25 1:0 2:0 3:0 4:0 5:0 6:1 7:0 8:0 
1 1 0 1 0 0 0:25 1:0 2:0 3:0 4:0 5:0 6:1 7:0 8:0 
1 1 0 1 0 0 0:25 1:0 2:0 3:0 4:0 5:0 6:1 7:0 8:0 
1 1 0 1 0 0 0:25 1:0 2:0 3:0 4:0 5:0 6:1 7:0 8:0 
1 1 1 1 1 1 0:25 1:0 2:0 3:0 4:0 5:0 6:1 7:1 8:0 
1 1 0 1 0 0 0:25 1:0 2:0 3:0 4:0 5:0 6:1 7:0 8:0 
1 1 0 1 0 0 0:25 1:0 2:0 3:0 4:0 5:0 6:1 7:0 8:0 
1 1 0 1 0 0 0:25 1:0 2:0 3:0 4:0 5:0 6:1 7:0 8:0 
1 1 0 1 0 0 0:25 1:0 2:0 3:0 4:0 5:0 6:1 7:0 8:0 
1 1 0 1 0 0 0:25 1:0 2:0 3:0 4:0 5:0 6:1 7:0 8:0 
1 1 0 1 0 0 0:25 1:0 2:0 3:0 4:0 5:0 6:1 7:0 8:0 
1 1 0 1 0 0 0:25 1:0 2:0 3:0 4:0 5:0 6:1 7:0 8:0 
1 1 0 1 0 0 0:25 1:0 2:0 3:0 4:0 5:0 6:1 7:0 8:0 
1 1 0 1 0 0 0:25 1:0 2:0 3:0 4:0 5:0 6:1 7:0 8:0 
1 1 0 1 0 0 0:25 1:0 2:0 3:0 4:0 5:0 6:1 7:0 8:0 
1 1 0 1 0 0 0:25 1:0 2:0 3:0 4:0 5:0 6:1 7:0 8:0 
1 1 0 1 0 0 0:25 1:0 2:0 3:0 4:0 5:0 6:1 7:0 8:0 
1 0 0 1 1 1 0:38 1:0 2:0 3:0 4:0 5:0 6:1 7:1 8:0 
1 1 0 1 0 0 0:25 1:0 2:0 3:0 4:0 5:0 6:1 7:0 8:0 
1 1 0 1 0 0 0:25 1:0 2:0 3:0 4:0 5:0 6:1 7:0 8:0 
1 1 0 1 0 0 0:25 1:0 2:0 3:0 4:0 5:0 6:1 7:0 8:0 
1 1 0.3587696414087059 0.5395708983163123 0.5518463777373991 0.3540747612491343 0:38 1:0 2:0 3:0 4:1 5:0 6:1 7:0 8:0 
1 1 0 1 0 0 0:25 1:0 2:0 3:0 4:0 5:0 6:1 7:0 8:0 
1 1 0 1 0 0 0:25 1:0 2:0 3:0 4:0 5:0 6:1 7:0 8:0 
1 1 0 1 0 0 0:25 1:0 2:0 3:0 4:0 5:0 6:1 7:0 8:0 
1 1 0 1 0 0 0:25 1:0 2:0 3:0 4:0 5:0 6:1 7:0 8:0 
1 1 0 1 0 0 0:25 1:0 2:0 3:0 4:0 5:0 6:1 7:0 8:0 
1 1 0 1 0 0 0:25 1:0 2:0 3:0 4:0 5:0 6:1 7:0 8:0 
1 1 0 1 0 0 0:25 1:0 2:0 3:0 4:0 5:0 6:1 7:0 8:0 
1 1 0 1 0 0 0:25 1:0 2:0 3:0 4:0 5:0 6:1 7:0 8:0 
1 1 0 1 0 0 0:25 1:0 2:0 3:0 4:0 5:0 6:1 7:0 8:0 
1 1 0 1 0 0 0:25 1:0 2:0 3:0 4:0 5:0 6:1 7:0 8:0 
1 0 0 0 0 0 0:38 1:0 2:0 3:0 4:0 5:0 6:1 7:0 8:0 
1 1 0 1 0 0 0:25 1:0 2:0 3:0 4:0 5:0 6:1 7:0 8:0 
1 1 0 1 0 0 0:25 1:0 2:0 3:0 4:0 5:0 6:1 7:0 8:0 
1 1 0 1 0 0 0:25 1:0 2:0 3:0 4:0 5:0 6:1 7:0 8:0 
1 1 0 1 0 0 0:25 1:0 2:0 3:0 4:0 5:0 6:1 7:0 8:0 
1 1 0 1 0 0 0:25 1:0 2:0 3:0 4:0 5:0 6:1 7:0 8:1 
1 1 0 1 0 0 0:25 1:0 2:0 3:0 4:0 5:0 6:1 7:0 8:0 
1 1 0 1 0 0 0:25 1:0 2:0 3:0 4:0 5:0 6:1 7:0 8:0 
1 1 0 1 0 0 0:25 1:0 2:0 3:0 4:0 5:0 6:1 7:0 8:0 
1 1 0 1 0 0 0:25 1:0 2:0 3:0 4:0 5:0 6:1 7:0 8:0 
1 1 0 1 0 0 0:25 1:0 2:0 3:0 4:0 5:0 6:1 7:0 8:0 
1 1 0 1 0 0 0:25 1:0 2:0 3:0 4:0 5:0 6:1 7:0 8:0 
1 1 0 1 0 0 0:25 1:0 2:0 3:0 4:0 5:0 6:1 7:0 8:0 
1 0 0 1 0 0 0:8 1:0 2:0 3:0 4:1 5:1 6:0 7:0 8:0 
0 0 0 0 0.5336848379955375 1 0:25 1:0 2:0 3:1 4:0 5:0 6:1 7:1 8:0 
1 1 0 1 0 0 0:25 1:0 2:0 3:0 4:1 5:0 6:1 7:0 8:0 
1 1 0 1 0 0 0:25 1:1 2:0 3:0 4:0 5:0 6:1 7:0 8:0 
1 1 0 1 0 0 0:25 1:1 2:0 3:0 4:0 5:0 6:1 7:0 8:0 
1 1 0 1 0 0 0:25 1:1 2:0 3:0 4:0 5:0 6:1 7:0 8:0 
1 1 0 1 0 0 0:25 1:0 2:0 3:0 4:0 5:0 6:1 7:0 8:0 
1 1 0 1 0 0 0:25 1:0 2:0 3:0 4:0 5:0 6:1 7:0 8:0 
1 1 0 1 0 0 0:25 1:0 2:0 3:0 4:0 5:0 6:1 7:0 8:0 
1 1 0 1 0 0 0:25 1:0 2:0 3:0 4:0 5:0 6:1 7:0 8:0 
1 1 0 1 0 0 0:25 1:0 2:0 3:0 4:0 5:0 6:1 7:0 8:0 
1 1 0 1 0 0 0:25 1:0 2:0 3:0 4:0 5:0 6:1 7:0 8:0 
1 1 0 1 1 0 0:14 1:0 2:0 3:1 4:0 5:0 6:1 7:0 8:0 
1 1 0 1 1 0 0:14 1:0 2:0 3:1 4:0 5:0 6:1 7:0 8:0 
1 1 1 1 1 0 0:25 1:0 2:0 3:0 4:0 5:1 6:1 7:0 8:0 
1 1 0 1 0 0 0:25 1:0 2:0 3:0 4:0 5:0 6:1 7:0 8:0 
1 1 0 1 0 0 0:25 1:0 2:0 3:0 4:0 5:0 6:1 7:0 8:0 
1 1 0 1 0 0 0:25 1:0 2:0 3:0 4:0 5:0 6:1 7:0 8:0 
1 1 0 1 0 0 0:25 1:0 2:0 3:0 4:0 5:0 6:1 7:0 8:0 
1 1 0 1 0 0 0:25 1:0 2:0 3:0 4:0 5:0 6:1 7:0 8:0 
1 1 0 1 0 0 0:25 1:0 2:0 3:0 4:0 5:0 6:1 7:0 8:0 
1 1 0 1 0 0 0:25 1:0 2:0 3:0 4:0 5:0 6:1 7:0 8:0 
1 0 0 0 0 0 0:8 1:0 2:0 3:0 4:1 5:0 6:1 7:0 8:0 
1 1 0 1 0 0 0:25 1:0 2:0 3:0 4:0 5:0 6:1 7:0 8:0 
1 1 0 1 0 0 0:25 1:0 2:0 3:0 4:0 5:0 6:1 7:0 8:0 
1 1 0 1 0 0 0:25 1:0 2:0 3:0 4:0 5:0 6:1 7:0 8:0 
1 1 0 1 0 0 0:25 1:0 2:0 3:0 4:0 5:0 6:1 7:0 8:0 
1 1 0 1 0 0 0:25 1:0 2:0 3:0 4:0 5:0 6:1 7:0 8:0 
1 1 0 1 0 0 0:25 1:0 2:0 3:0 4:0 5:0 6:1 7:0 8:0 
1 1 0 1 0 0 0:25 1:0 2:0 3:0 4:0 5:0 6:1 7:0 8:0 
1 1 0 1 0 0 0:25 1:0 2:0 3:0 4:0 5:0 6:1 7:0 8:0 
1 1 0 1 0 0 0:25 1:0 2:0 3:0 4:0 5:0 6:1 7:0 8:0 
1 1 0 1 0 0 0:25 1:0 2:0 3:0 4:0 5:0 6:1 7:0 8:0 
1 1 0 1 0 0 0:25 1:0 2:0 3:0 4:0 5:0 6:1 7:0 8:0 
1 1 0 1 0 0 0:25 1:0 2:0 3:0 4:0 5:0 6:1 7:0 8:0 
1 0 0 1 0 0 0:25 1:0 2:0 3:0 4:0 5:1 6:0 7:0 8:0 
1 1 0 1 0 0 0:25 1:1 2:0 3:0 4:0 5:0 6:1 7:0 8:0 
1 1 0 1 0 0 0:25 1:0 2:0 3:0 4:0 5:0 6:1 7:0 8:0 
1 0 0 0 0 0 0:8 1:0 2:0 3:0 4:1 5:0 6:1 7:0 8:0 
1 1 0 1 0 0 0:25 1:1 2:0 3:0 4:0 5:0 6:1 7:0 8:0 
0 0 0 0 1 1 0:25 1:0 2:0 3:1 4:0 5:0 6:1 7:1 8:0 
1 1 0 1 0 0 0:25 1:1 2:0 3:0 4:0 5:0 6:1 7:0 8:0 
1 1 0 1 0 0 0:25 1:0 2:0 3:0 4:0 5:0 6:1 7:0 8:0 
1 1 0 1 0 0 0:25 1:1 2:0 3:0 4:0 5:0 6:1 7:0 8:0 
1 1 0 1 0 0 0:25 1:0 2:0 3:0 4:0 5:0 6:1 7:0 8:0 
1 1 0 1 0 0 0:25 1:0 2:0 3:0 4:0 5:0 6:1 7:0 8:0 
1 1 0 1 0 0 0:25 1:1 2:0 3:0 4:0 5:0 6:1 7:0 8:0 
1 1 0 1 0 0 0:25 1:0 2:0 3:0 4:0 5:0 6:1 7:0 8:0 
1 1 0 1 0 0 0:25 1:0 2:0 3:0 4:0 5:0 6:1 7:0 8:0 
0 0 0 0 1 1 0:25 1:0 2:0 3:1 4:0 5:0 6:1 7:1 8:0 
1 1 0 1 0 0 0:25 1:0 2:0 3:0 4:0 5:0 6:1 7:0 8:0 
1 1 0 1 0 0 0:25 1:0 2:0 3:0 4:0 5:0 6:1 7:0 8:0 
1 1 1 1 1 1 0:25 1:0 2:0 3:0 4:0 5:0 6:1 7:1 8:0 
1 1 0 1 0 0 0:25 1:0 2:0 3:0 4:0 5:0 6:1 7:0 8:0 
1 1 0 1 0 0 0:25 1:0 2:0 3:0 4:0 5:0 6:1 7:0 8:0 
1 1 0 1 0 0 0:25 1:0 2:0 3:0 4:0 5:0 6:1 7:0 8:0 
1 1 0 1 0 0 0:25 1:0 2:0 3:0 4:0 5:0 6:1 7:0 8:0 
1 1 1 1 1 1 0:25 1:0 2:0 3:0 4:0 5:0 6:1 7:1 8:0 
1 1 0 1 0 0 0:25 1:0 2:0 3:0 4:1 5:0 6:1 7:0 8:0 
1 1 0 1 0 0 0:25 1:0 2:0 3:0 4:0 5:0 6:1 7:0 8:0 
1 1 0 1 0 0 0:25 1:0 2:0 3:0 4:0 5:0 6:1 7:0 8:0 
1 1 0 1 0 0 0:25 1:0 2:0 3:0 4:0 5:0 6:1 7:0 8:0 
1 1 0 1 0 0 0:25 1:0 2:0 3:0 4:0 5:0 6:1 7:0 8:0 
1 1 0 1 0 0 0:25 1:0 2:0 3:0 4:0 5:0 6:1 7:0 8:0 
1 1 0 1 0 0 0:25 1:0 2:0 3:0 4:0 5:0 6:1 7:0 8:0 
1 1 0 1 0 0 0:25 1:0 2:0 3:0 4:0 5:0 6:1 7:0 8:0 
1 1 0 1 0 0 0:25 1:0 2:0 3:0 4:0 5:0 6:1 7:0 8:0 
1 1 0 1 0 0 0:25 1:0 2:0 3:0 4:0 5:0 6:1 7:0 8:0 
1 1 0 1 0 0 0:25 1:0 2:0 3:0 4:0 5:0 6:1 7:0 8:0 
1 1 0 1 0 0 0:25 1:0 2:0 3:0 4:0 5:0 6:1 7:0 8:0 
1 1 0 1 0 0 0:25 1:0 2:0 3:0 4:0 5:0 6:1 7:0 8:0 
1 1 1 1 1 1 0:25 1:0 2:0 3:0 4:0 5:0 6:0 7:0 8:1 
1 1 1 1 1 1 0:25 1:0 2:0 3:0 4:0 5:0 6:1 7:1 8:0 
1 1 0 1 0 0 0:25 1:0 2:0 3:0 4:1 5:0 6:1 7:0 8:0 
1 1 0 1 0 0 0:25 1:0 2:0 3:0 4:0 5:0 6:1 7:0 8:0 
1 1 0 1 0 0 0:25 1:0 2:0 3:0 4:0 5:0 6:1 7:0 8:0 
1 0 0 1 0 0 0:8 1:0 2:0 3:0 4:0 5:0 6:0 7:0 8:1 
1 1 0 1 0 0 0:25 1:0 2:0 3:0 4:0 5:0 6:1 7:0 8:0 
1 1 0 1 0 0 0:25 1:0 2:0 3:0 4:0 5:0 6:1 7:0 8:0 
1 1 0 1 0 0 0:25 1:0 2:0 3:0 4:0 5:0 6:1 7:0 8:0 
1 1 0 1 0 0 0:25 1:0 2:0 3:0 4:0 5:0 6:1 7:0 8:0 
1 1 0 1 0 0 0:25 1:0 2:0 3:0 4:0 5:0 6:1 7:0 8:0 
1 1 0 1 0 0 0:25 1:0 2:0 3:0 4:0 5:0 6:1 7:0 8:0 
1 1 0 1 0 0 0:25 1:0 2:0 3:0 4:0 5:0 6:1 7:0 8:0 
1 1 0 1 0 0 0:25 1:0 2:0 3:0 4:0 5:0 6:1 7:0 8:0 
1 1 0 1 0 0 0:25 1:0 2:0 3:0 4:0 5:0 6:1 7:0 8:0 
1 1 0 1 0 0 0:25 1:0 2:0 3:0 4:0 5:0 6:1 7:0 8:0 
1 1 0 1 0 0 0:25 1:0 2:0 3:0 4:0 5:0 6:1 7:0 8:0 
1 1 1 1 1 1 0:25 1:0 2:0 3:0 4:0 5:0 6:1 7:1 8:0 
1 1 0 1 0 0 0:25 1:0 2:0 3:0 4:0 5:0 6:1 7:0 8:0 
1 1 0 1 0 0 0:25 1:0 2:0 3:0 4:0 5:0 6:1 7:0 8:0 
1 1 0 1 0 0 0:25 1:0 2:0 3:0 4:0 5:0 6:1 7:0 8:0 
1 1 0 1 0 0 0:25 1:0 2:0 3:0 4:0 5:0 6:1 7:0 8:0 
1 1 0 1 0 0 0:25 1:0 2:0 3:0 4:0 5:0 6:1 7:0 8:0 
1 1 0 1 0 0 0:25 1:0 2:0 3:0 4:0 5:0 6:1 7:0 8:0 
1 1 0 1 0 0 0:25 1:0 2:0 3:0 4:0 5:0 6:1 7:0 8:0 
1 1 0 1 0 0 0:25 1:0 2:0 3:0 4:0 5:0 6:1 7:0 8:0 
1 1 0 1 0 0 0:25 1:0 2:0 3:0 4:0 5:0 6:1 7:0 8:0 
1 1 0 1 0 0 0:25 1:0 2:0 3:0 4:0 5:0 6:1 7:0 8:0 
1 1 0 1 0 0 0:25 1:0 2:0 3:0 4:0 5:0 6:1 7:0 8:0 
1 1 0 1 0 0 0:25 1:0 2:0 3:0 4:0 5:0 6:1 7:0 8:0 
1 1 0 1 0 0 0:25 1:0 2:0 3:0 4:0 5:0 6:1 7:0 8:0 
1 1 0 1 0 0 0:25 1:0 2:0 3:0 4:0 5:0 6:1 7:0 8:0 
1 1 0 1 0 0 0:25 1:0 2:0 3:0 4:0 5:0 6:1 7:0 8:0 
1 0 0 0 0 0 0:8 1:0 2:0 3:0 4:1 5:0 6:1 7:0 8:0 
1 1 0 1 0 0 0:25 1:0 2:0 3:0 4:0 5:0 6:1 7:0 8:0 
1 1 0 1 0 0 0:25 1:0 2:0 3:0 4:0 5:0 6:1 7:0 8:0 
1 0.144458082900258 0 1 0 0.01170966175180303 0:8 1:0 2:0 3:0 4:1 5:1 6:0 7:0 8:0 
1 1 0 1 0 0 0:25 1:0 2:0 3:0 4:0 5:0 6:1 7:0 8:0 
1 1 0 1 0 0 0:25 1:1 2:0 3:0 4:0 5:0 6:1 7:0 8:0 
1 1 1 1 1 1 0:25 1:0 2:0 3:0 4:0 5:0 6:1 7:1 8:0 
1 0 0 1 0 0 0:25 1:0 2:0 3:0 4:0 5:1 6:0 7:0 8:0 
1 1 0 1 0 0 0:25 1:0 2:0 3:0 4:0 5:0 6:1 7:0 8:0 
1 1 0 1 0 0 0:25 1:0 2:0 3:0 4:0 5:0 6:1 7:0 8:0 
1 0 0 0 0 0 0:8 1:0 2:0 3:0 4:1 5:0 6:1 7:0 8:0 
1 1 0 1 0 0 0:25 1:0 2:0 3:0 4:0 5:0 6:1 7:0 8:0 
1 1 1 1 1 1 0:25 1:0 2:0 3:0 4:0 5:0 6:1 7:1 8:0 
1 1 0 1 0 0 0:25 1:0 2:0 3:0 4:0 5:0 6:1 7:0 8:0 
1 1 0 1 0 0 0:25 1:0 2:0 3:0 4:0 5:0 6:1 7:0 8:0 
1 1 0 1 0 0 0:25 1:0 2:0 3:0 4:0 5:0 6:1 7:0 8:0 
1 0 0 0 0 0 0:8 1:0 2:0 3:0 4:1 5:0 6:1 7:0 8:0 
1 1 0 1 0 0 0:25 1:0 2:0 3:0 4:0 5:0 6:1 7:0 8:0 
1 0 0 0 0 0 0:8 1:0 2:0 3:0 4:1 5:0 6:1 7:0 8:0 
1 1 1 1 1 1 0:25 1:0 2:0 3:0 4:0 5:0 6:1 7:1 8:0 
1 1 0 1 0 0 0:25 1:0 2:0 3:0 4:0 5:0 6:1 7:0 8:0 
1 1 0 1 0 0 0:25 1:0 2:0 3:0 4:0 5:0 6:1 7:0 8:0 
1 1 0 1 0 0 0:25 1:0 2:0 3:0 4:0 5:0 6:1 7:0 8:0 
1 0 0 0 0 0 0:38 1:0 2:0 3:0 4:0 5:0 6:1 7:0 8:0 
1 1 0 1 0 0 0:25 1:0 2:0 3:0 4:0 5:0 6:1 7:0 8:0 
1 1 0 1 0 0 0:25 1:0 2:0 3:0 4:0 5:0 6:1 7:0 8:0 
1 1 0 1 0 0 0:25 1:0 2:0 3:0 4:0 5:0 6:1 7:0 8:0 
1 1 0 1 0 0 0:25 1:0 2:0 3:0 4:0 5:0 6:1 7:0 8:0 
1 1 0 1 0 0 0:25 1:0 2:0 3:0 4:1 5:0 6:1 7:0 8:0 
1 1 0 1 0 0 0:25 1:0 2:0 3:0 4:0 5:0 6:1 7:0 8:0 
1 1 0 1 0 0 0:25 1:0 2:0 3:0 4:0 5:0 6:1 7:0 8:0 
1 0 0 1 0 0 0:25 1:0 2:0 3:0 4:0 5:1 6:0 7:0 8:0 
1 1 0 1 0 0 0:25 1:0 2:0 3:0 4:0 5:0 6:1 7:0 8:0 
1 1 0 1 0 0 0:25 1:0 2:0 3:0 4:0 5:0 6:1 7:0 8:0 
1 1 0 1 0 0 0:25 1:0 2:0 3:0 4:0 5:0 6:1 7:0 8:0 
1 1 0 1 0 0 0:25 1:0 2:0 3:0 4:0 5:0 6:1 7:0 8:0 
1 1 0 1 0 0 0:25 1:0 2:0 3:0 4:0 5:0 6:1 7:0 8:0 
0 0 0 0 0 0.7809596634253761 0:25 1:0 2:0 3:1 4:0 5:1 6:1 7:1 8:0 
1 1 0 1 0 0 0:25 1:0 2:0 3:0 4:0 5:0 6:1 7:0 8:0 
1 1 1 1 1 1 0:25 1:0 2:0 3:0 4:0 5:0 6:1 7:1 8:0 
1 1 0 1 0 0 0:25 1:0 2:0 3:0 4:0 5:0 6:1 7:0 8:0 
1 1 0 1 0 0 0:25 1:0 2:0 3:0 4:1 5:0 6:1 7:0 8:0 
1 1 0 1 0 0 0:25 1:0 2:0 3:0 4:0 5:0 6:1 7:0 8:0 
1 1 1 1 1 0.4486830787615957 0:14 1:0 2:0 3:0 4:0 5:0 6:0 7:0 8:0 
1 1 0 1 0 0 0:25 1:0 2:0 3:0 4:0 5:0 6:1 7:0 8:0 
1 1 0 1 0 0 0:25 1:0 2:0 3:0 4:1 5:0 6:1 7:0 8:0 
1 0 0 1 0 0 0:25 1:0 2:0 3:0 4:0 5:1 6:0 7:0 8:0 
1 1 1 1 1 1 0:25 1:0 2:0 3:0 4:0 5:0 6:1 7:1 8:0 
1 1 0 1 0 0 0:25 1:0 2:0 3:0 4:0 5:0 6:1 7:0 8:0 
1 1 0 1 0 0 0:25 1:0 2:0 3:0 4:0 5:0 6:1 7:0 8:0 
1 1 0 1 0 0 0:25 1:0 2:0 3:0 4:0 5:0 6:1 7:0 8:0 
1 1 0 1 0 0 0:25 1:0 2:0 3:0 4:0 5:0 6:1 7:0 8:0 
1 1 0 1 0 0 0:25 1:0 2:0 3:0 4:0 5:0 6:1 7:0 8:0 
1 1 0 1 0 0 0:25 1:0 2:0 3:0 4:0 5:0 6:1 7:0 8:0 
1 1 0 1 0 0 0:25 1:0 2:0 3:0 4:0 5:0 6:1 7:0 8:0 
1 1 0 1 0 0 0:25 1:0 2:0 3:0 4:0 5:0 6:1 7:0 8:0 
1 1 0 1 0 0 0:25 1:0 2:0 3:0 4:0 5:0 6:1 7:0 8:0 
1 1 0 1 0 0 0:25 1:0 2:0 3:0 4:1 5:0 6:1 7:0 8:0 
1 1 0 1 0 0 0:25 1:0 2:0 3:0 4:0 5:0 6:1 7:0 8:0 
1 1 0 1 0 0 0:25 1:0 2:0 3:0 4:0 5:0 6:1 7:0 8:0 
1 1 0 1 0 0 0:25 1:0 2:0 3:0 4:0 5:0 6:1 7:0 8:0 
1 1 0 1 0 0 0:25 1:0 2:0 3:0 4:0 5:0 6:1 7:0 8:0 
1 0 0 1 0 0 0:25 1:0 2:0 3:0 4:0 5:1 6:0 7:0 8:0 
1 1 0 1 0 0 0:25 1:0 2:0 3:0 4:0 5:0 6:1 7:0 8:0 
1 1 0 1 0 0 0:25 1:0 2:0 3:0 4:0 5:0 6:1 7:0 8:0 
1 1 0 1 0 0 0:25 1:1 2:0 3:0 4:0 5:0 6:1 7:0 8:0 
1 1 0 1 0 0 0:25 1:0 2:0 3:0 4:0 5:0 6:1 7:0 8:0 
1 1 0 1 0 0 0:25 1:0 2:0 3:0 4:0 5:0 6:1 7:0 8:0 
1 1 0 1 0 0 0:25 1:1 2:0 3:0 4:0 5:0 6:1 7:0 8:0 
1 1 0 1 0 0 0:25 1:0 2:0 3:0 4:0 5:0 6:1 7:0 8:0 
1 1 1 1 1 1 0:25 1:0 2:0 3:0 4:0 5:0 6:1 7:1 8:0 
1 1 0 1 0 0 0:25 1:0 2:0 3:0 4:0 5:0 6:1 7:0 8:0 
1 1 0 1 0 0 0:25 1:0 2:0 3:0 4:0 5:0 6:1 7:0 8:0 
1 1 0 1 0 0 0:25 1:0 2:0 3:0 4:0 5:0 6:1 7:0 8:0 
1 1 0 1 0 0 0:25 1:0 2:0 3:0 4:0 5:0 6:1 7:0 8:0 
1 1 0 1 0 0 0:25 1:0 2:0 3:0 4:0 5:0 6:1 7:0 8:0 
1 1 0 1 0 0 0:25 1:0 2:0 3:0 4:0 5:0 6:1 7:0 8:0 
1 1 0 1 0 0 0:25 1:0 2:0 3:0 4:0 5:0 6:1 7:0 8:0 
1 1 1 1 1 1 0:25 1:1 2:0 3:0 4:0 5:0 6:1 7:1 8:0 
1 1 0 1 0 0 0:25 1:0 2:0 3:0 4:0 5:0 6:1 7:0 8:0 
1 1 0 1 0 0 0:25 1:0 2:0 3:0 4:0 5:0 6:1 7:0 8:0 
1 1 0 1 0 0 0:25 1:0 2:0 3:0 4:0 5:0 6:1 7:0 8:0 
1 1 0 1 0 0 0:25 1:0 2:0 3:0 4:0 5:0 6:1 7:0 8:0 
1 1 0 1 0 0 0:25 1:0 2:0 3:0 4:0 5:0 6:1 7:0 8:0 
1 1 0 1 0 0 0:25 1:0 2:0 3:0 4:0 5:0 6:1 7:0 8:0 
1 1 0 1 0 0 0:25 1:0 2:0 3:0 4:0 5:0 6:1 7:0 8:0 
1 1 0 1 0 0 0:25 1:0 2:0 3:0 4:1 5:0 6:1 7:0 8:0 
1 1 0 1 0 0 0:25 1:0 2:0 3:0 4:0 5:0 6:1 7:0 8:0 
1 0 0 0 0 0 0:8 1:0 2:0 3:1 4:1 5:0 6:1 7:0 8:0 
1 1 0 1 0 0 0:25 1:0 2:0 3:0 4:0 5:0 6:1 7:0 8:0 
1 1 0 1 0 0 0:25 1:0 2:0 3:0 4:1 5:0 6:1 7:0 8:0 
1 1 0 1 0 0 0:25 1:0 2:0 3:0 4:0 5:0 6:1 7:0 8:0 
1 1 0 1 0 0 0:25 1:0 2:0 3:0 4:0 5:0 6:1 7:0 8:0 
1 1 0 1 0 0 0:25 1:0 2:0 3:0 4:0 5:0 6:1 7:0 8:0 
1 1 0 1 0 0 0:25 1:0 2:0 3:0 4:0 5:0 6:1 7:0 8:0 
1 1 0 1 0 0 0:25 1:0 2:0 3:0 4:0 5:0 6:1 7:0 8:0 
1 0 0 0 0 0 0:8 1:0 2:0 3:0 4:1 5:0 6:1 7:0 8:0 
1 1 0 1 0 0 0:25 1:0 2:0 3:0 4:0 5:0 6:1 7:0 8:0 
1 1 0 1 0 0 0:25 1:0 2:0 3:0 4:0 5:0 6:1 7:0 8:0 
1 1 0 1 0 0 0:25 1:0 2:0 3:0 4:0 5:0 6:1 7:0 8:0 
1 1 0 1 0 0 0:25 1:0 2:0 3:0 4:0 5:0 6:1 7:0 8:0 
1 1 0 1 0 0 0:25 1:0 2:0 3:0 4:0 5:0 6:1 7:0 8:0 
1 1 1 1 1 1 0:25 1:0 2:0 3:0 4:0 5:0 6:1 7:1 8:0 
0 0 0 0 1 1 0:25 1:0 2:0 3:1 4:0 5:0 6:1 7:1 8:0 
1 1 0 1 0 0 0:25 1:0 2:0 3:0 4:0 5:0 6:1 7:0 8:0 
1 1 0 1 0 0 0:25 1:0 2:0 3:0 4:0 5:0 6:1 7:0 8:0 
1 1 0 1 0 0 0:25 1:0 2:0 3:0 4:0 5:0 6:1 7:0 8:0 
1 1 0 1 0 0 0:25 1:0 2:0 3:0 4:0 5:0 6:1 7:0 8:0 
1 1 0 1 0 0 0:25 1:0 2:0 3:0 4:0 5:0 6:1 7:0 8:0 
1 1 0 1 0 0 0:25 1:0 2:0 3:0 4:0 5:0 6:1 7:0 8:0 
1 1 1 1 1 1 0:25 1:0 2:0 3:0 4:0 5:0 6:1 7:1 8:0 
1 1 0 1 0 0 0:25 1:0 2:0 3:0 4:0 5:0 6:1 7:0 8:0 
1 1 0 1 0 0 0:25 1:0 2:0 3:0 4:0 5:0 6:1 7:0 8:0 
1 1 0 1 0 0 0:25 1:0 2:0 3:0 4:0 5:0 6:1 7:0 8:0 
1 1 0 1 0 0 0:25 1:0 2:0 3:0 4:0 5:0 6:1 7:0 8:0 
1 1 0 1 0 0 0:25 1:0 2:0 3:0 4:0 5:0 6:1 7:0 8:0 
1 1 0 1 0 0 0:25 1:0 2:0 3:0 4:0 5:0 6:1 7:0 8:0 
1 1 0 1 0 0 0:25 1:0 2:0 3:0 4:0 5:0 6:1 7:0 8:0 
1 1 0 1 0 0 0:25 1:0 2:0 3:0 4:0 5:0 6:1 7:0 8:0 
1 1 0 1 0 0 0:25 1:0 2:0 3:0 4:0 5:0 6:1 7:0 8:0 
1 1 0 1 0 0 0:25 1:0 2:0 3:0 4:1 5:0 6:1 7:0 8:0 
1 1 0 1 0 0 0:25 1:0 2:0 3:0 4:0 5:0 6:1 7:0 8:0 
1 1 0 1 0 0 0:25 1:0 2:0 3:0 4:0 5:0 6:1 7:0 8:0 
1 1 0 1 0 0 0:25 1:0 2:0 3:0 4:0 5:0 6:1 7:0 8:0 
1 1 0 1 0 0 0:25 1:0 2:0 3:0 4:0 5:0 6:1 7:0 8:0 
1 1 0 1 0 0 0:25 1:0 2:0 3:0 4:1 5:0 6:1 7:0 8:0 
1 1 0 1 0 0 0:25 1:0 2:0 3:0 4:0 5:0 6:1 7:0 8:0 
1 1 0 1 0 0 0:25 1:0 2:0 3:0 4:0 5:0 6:1 7:0 8:0 
1 1 0 1 0 0 0:25 1:0 2:0 3:0 4:0 5:0 6:1 7:0 8:0 
1 1 0 1 0 0 0:25 1:0 2:0 3:0 4:0 5:0 6:1 7:0 8:0 
1 1 0 1 0 0 0:25 1:0 2:0 3:0 4:0 5:0 6:1 7:0 8:0 
1 1 0 1 0 0 0:25 1:0 2:0 3:0 4:0 5:0 6:1 7:0 8:0 
1 1 0 1 0 0 0:25 1:0 2:0 3:0 4:0 5:0 6:1 7:0 8:0 
1 0 0 0 0 0 0:38 1:0 2:0 3:0 4:0 5:0 6:1 7:0 8:0 
1 0 0 1 0 0 0:8 1:0 2:0 3:0 4:0 5:0 6:0 7:0 8:1 
1 1 0 1 0 0 0:25 1:0 2:0 3:0 4:0 5:0 6:1 7:0 8:0 
1 1 0 1 0 0 0:25 1:0 2:0 3:0 4:0 5:0 6:1 7:0 8:0 
1 1 0 1 0 0 0:25 1:0 2:0 3:0 4:0 5:0 6:1 7:0 8:0 
1 1 0 1 0 0 0:25 1:0 2:0 3:0 4:0 5:0 6:1 7:0 8:0 
1 1 0 1 0 0 0:25 1:0 2:0 3:0 4:0 5:0 6:1 7:0 8:0 
1 1 0 1 0 0 0:25 1:0 2:0 3:0 4:0 5:0 6:1 7:0 8:0 
1 1 0 1 0 0 0:25 1:0 2:0 3:0 4:0 5:0 6:1 7:0 8:0 
1 1 0 1 0 0 0:25 1:0 2:0 3:0 4:0 5:0 6:1 7:0 8:0 
1 1 0 1 0 0 0:25 1:0 2:0 3:0 4:0 5:0 6:1 7:0 8:0 
1 0 0 0 0 0 0:8 1:0 2:0 3:0 4:1 5:0 6:1 7:0 8:0 
1 1 0 1 0 0 0:25 1:0 2:0 3:0 4:0 5:0 6:1 7:0 8:0 
1 1 0 1 0 0 0:25 1:0 2:0 3:0 4:0 5:0 6:1 7:0 8:0 
1 1 0 1 0 0 0:25 1:0 2:0 3:0 4:1 5:0 6:1 7:0 8:0 
1 0 0 0 0 0 0:8 1:0 2:0 3:0 4:1 5:0 6:1 7:0 8:0 
1 1 0 1 0 0 0:25 1:0 2:0 3:0 4:0 5:0 6:1 7:0 8:0 
1 0 0 1 0 0 0:25 1:0 2:0 3:0 4:0 5:1 6:0 7:0 8:0 
1 0 0 1 0 0 0:25 1:0 2:0 3:0 4:0 5:1 6:0 7:0 8:0 
1 1 0 1 0 0 0:25 1:0 2:0 3:0 4:0 5:0 6:1 7:0 8:0 
1 1 0 1 0 0 0:25 1:0 2:0 3:0 4:0 5:0 6:1 7:0 8:0 
1 1 0 1 0 0 0:25 1:0 2:0 3:0 4:0 5:0 6:1 7:0 8:0 
1 1 0 1 0 0 0:25 1:0 2:0 3:0 4:0 5:0 6:1 7:0 8:0 
1 1 1 1 1 1 0:25 1:0 2:0 3:0 4:0 5:0 6:1 7:1 8:0 
1 1 0 1 0 0 0:25 1:0 2:0 3:0 4:0 5:0 6:1 7:0 8:0 
1 1 0 1 0 0 0:25 1:0 2:0 3:0 4:1 5:0 6:1 7:0 8:0 
1 1 0 1 0 0 0:25 1:1 2:0 3:0 4:0 5:0 6:1 7:0 8:0 
1 1 0 1 0 0 0:25 1:0 2:0 3:0 4:0 5:0 6:1 7:0 8:0 
1 1 0 1 0 0 0:25 1:0 2:0 3:0 4:0 5:0 6:1 7:0 8:0 
0 0 0 0 0 1 0:25 1:0 2:0 3:1 4:0 5:1 6:1 7:1 8:0 
1 1 1 1 1 1 0:25 1:0 2:0 3:0 4:0 5:0 6:1 7:1 8:0 
1 0 0 0 0 0 0:8 1:0 2:0 3:0 4:1 5:0 6:1 7:0 8:0 
1 1 0 1 0 0 0:25 1:0 2:0 3:0 4:0 5:0 6:1 7:0 8:0 
1 1 0 1 0 0 0:25 1:0 2:0 3:0 4:0 5:0 6:1 7:0 8:0 
1 1 0 1 0 0 0:25 1:0 2:0 3:0 4:0 5:0 6:1 7:0 8:0 
1 1 1 1 1 1 0:25 1:0 2:0 3:0 4:0 5:0 6:1 7:1 8:0 
1 1 0 1 0 0 0:25 1:0 2:0 3:0 4:0 5:0 6:1 7:0 8:0 
1 1 1 1 1 1 0:25 1:0 2:0 3:0 4:0 5:0 6:1 7:1 8:0 
1 1 0 1 0 0 0:25 1:0 2:0 3:0 4:1 5:0 6:1 7:0 8:0 
1 1 0 1 0 0 0:25 1:0 2:0 3:0 4:0 5:0 6:1 7:0 8:0 
1 1 1 1 1 1 0:25 1:0 2:0 3:0 4:0 5:0 6:1 7:1 8:0 
1 1 0 1 0 0 0:25 1:0 2:0 3:0 4:0 5:0 6:1 7:0 8:0 
1 1 0 1 0 0 0:25 1:0 2:0 3:0 4:0 5:0 6:1 7:0 8:0 
1 1 0 1 0 0 0:25 1:0 2:0 3:0 4:0 5:0 6:1 7:0 8:0 
1 0 0 1 0 0 0:8 1:0 2:0 3:0 4:0 5:0 6:0 7:0 8:1 
1 1 0 1 0 0 0:25 1:0 2:0 3:0 4:0 5:0 6:1 7:0 8:0 
1 1 0 1 0 0 0:25 1:0 2:0 3:0 4:1 5:0 6:1 7:0 8:0 
1 1 0 1 0 0 0:25 1:0 2:0 3:0 4:0 5:0 6:1 7:0 8:0 
1 1 0 1 0 0 0:25 1:0 2:0 3:0 4:0 5:0 6:1 7:0 8:0 
1 1 0 1 0 0 0:25 1:0 2:0 3:0 4:0 5:0 6:1 7:0 8:0 
0 0 0 0 0 1 0:25 1:0 2:0 3:1 4:0 5:1 6:1 7:1 8:0 
1 1 1 1 1 1 0:25 1:0 2:0 3:0 4:0 5:0 6:1 7:1 8:0 
1 1 0 1 0 0 0:25 1:0 2:0 3:0 4:1 5:0 6:1 7:0 8:0 
1 1 0 1 0 0 0:25 1:0 2:0 3:0 4:0 5:0 6:1 7:0 8:0 
1 1 0 1 0 0 0:25 1:0 2:0 3:0 4:1 5:0 6:1 7:0 8:0 
1 1 0 1 0 0 0:25 1:0 2:0 3:0 4:0 5:0 6:1 7:0 8:0 
1 1 0 1 0 0 0:25 1:0 2:0 3:0 4:0 5:0 6:1 7:0 8:0 
0 0 0 0 0 1 0:25 1:0 2:0 3:1 4:0 5:1 6:1 7:1 8:0 
1 1 0 1 0 0 0:25 1:0 2:0 3:0 4:0 5:0 6:1 7:0 8:0 
1 1 0 1 0 0 0:25 1:0 2:0 3:0 4:0 5:0 6:1 7:0 8:0 
1 1 0 1 0 0 0:25 1:0 2:0 3:0 4:0 5:0 6:1 7:0 8:0 
1 1 0 1 0 0 0:25 1:0 2:0 3:0 4:0 5:0 6:1 7:0 8:0 
1 1 0 1 0 0 0:25 1:0 2:0 3:0 4:0 5:0 6:1 7:0 8:0 
1 1 0 1 0 0 0:25 1:0 2:0 3:0 4:0 5:0 6:1 7:0 8:0 
1 1 0 1 0 0 0:25 1:0 2:0 3:0 4:0 5:0 6:1 7:0 8:0 
1 1 0 1 0 0 0:25 1:0 2:0 3:0 4:0 5:0 6:1 7:0 8:0 
1 0 0 0 0 0 0:8 1:0 2:0 3:0 4:1 5:0 6:1 7:0 8:0 
1 1 0 1 0 0 0:25 1:0 2:0 3:0 4:0 5:0 6:1 7:0 8:0 
1 1 0 1 0 0 0:25 1:0 2:0 3:0 4:1 5:0 6:1 7:0 8:0 
1 1 0 1 0 0 0:25 1:0 2:0 3:0 4:0 5:0 6:1 7:0 8:0 
1 1 0 1 0 0 0:25 1:0 2:0 3:0 4:0 5:0 6:1 7:0 8:0 
1 1 0 1 0 0 0:25 1:0 2:0 3:0 4:0 5:0 6:1 7:0 8:0 
1 1 0 1 0 0 0:25 1:0 2:0 3:0 4:0 5:0 6:1 7:0 8:0 
1 1 0 1 0 0 0:25 1:0 2:0 3:0 4:0 5:0 6:1 7:0 8:0 
1 1 0 1 0 0 0:25 1:0 2:0 3:0 4:0 5:0 6:1 7:0 8:0 
1 1 0 1 0 0 0:25 1:0 2:0 3:0 4:0 5:0 6:1 7:0 8:0 
1 1 0 1 0 0 0:25 1:0 2:0 3:0 4:0 5:0 6:1 7:0 8:0 
1 1 0 1 0 0 0:25 1:0 2:0 3:0 4:0 5:0 6:1 7:0 8:0 
1 1 0 1 0 0 0:25 1:0 2:0 3:0 4:0 5:0 6:1 7:0 8:0 
1 0 0.05329995313106507 0 1 1 0:25 1:1 2:0 3:1 4:0 5:1 6:0 7:1 8:0 
1 1 0 1 0 0 0:25 1:0 2:0 3:0 4:0 5:0 6:1 7:0 8:0 
0 0 0 0 1 1 0:25 1:0 2:0 3:1 4:0 5:0 6:1 7:1 8:0 
0 0 0 0 1 1 0:25 1:0 2:0 3:1 4:0 5:0 6:1 7:1 8:0 
1 1 0 1 0 0 0:25 1:0 2:0 3:0 4:0 5:0 6:1 7:0 8:0 
1 1 0 1 0 0 0:25 1:0 2:0 3:0 4:0 5:0 6:1 7:0 8:0 
1 1 0 1 0 0 0:25 1:0 2:0 3:0 4:0 5:0 6:1 7:0 8:0 
1 1 0 1 0 0 0:25 1:0 2:0 3:0 4:0 5:0 6:1 7:0 8:0 
1 1 0 1 0 0 0:25 1:0 2:0 3:0 4:0 5:0 6:1 7:0 8:0 
1 1 0 1 0 0 0:25 1:0 2:0 3:0 4:0 5:0 6:1 7:0 8:0 
1 1 0 1 0 0 0:25 1:0 2:0 3:0 4:0 5:0 6:1 7:0 8:0 
1 1 0 1 0 0 0:25 1:0 2:0 3:0 4:0 5:0 6:1 7:0 8:0 
1 1 0 1 0 0 0:25 1:0 2:0 3:0 4:0 5:0 6:1 7:0 8:0 
1 1 0 1 0 0 0:25 1:0 2:0 3:0 4:0 5:0 6:1 7:0 8:0 
1 1 0 1 0 0 0:25 1:0 2:0 3:0 4:0 5:0 6:1 7:0 8:0 
1 1 0 1 0 0 0:25 1:0 2:0 3:0 4:0 5:0 6:1 7:0 8:0 
1 1 0 1 0 0 0:25 1:0 2:0 3:0 4:0 5:0 6:1 7:0 8:0 
1 1 0 1 0 0 0:25 1:1 2:0 3:0 4:0 5:0 6:1 7:0 8:0 
1 1 0 1 0 0 0:25 1:0 2:0 3:0 4:0 5:0 6:1 7:0 8:0 
1 1 1 1 1 1 0:14 1:0 2:0 3:0 4:0 5:0 6:0 7:0 8:0 
1 1 0 1 0.330961151750892 0 0:8 1:0 2:0 3:0 4:0 5:0 6:0 7:0 8:0 
1 1 0 1 0 0 0:25 1:0 2:0 3:0 4:0 5:0 6:1 7:0 8:0 
1 1 0 1 0 0 0:25 1:0 2:0 3:0 4:0 5:0 6:1 7:0 8:0 
1 0 0 0 0 0 0:38 1:0 2:0 3:0 4:0 5:0 6:1 7:0 8:0 
1 1 0 1 0 0 0:25 1:0 2:0 3:0 4:0 5:0 6:1 7:0 8:0 
1 1 0 1 0 0 0:25 1:0 2:0 3:0 4:0 5:0 6:1 7:0 8:0 
1 1 0 1 0 0 0:25 1:0 2:0 3:0 4:0 5:0 6:1 7:0 8:0 
1 1 0 1 0 0 0:25 1:0 2:0 3:0 4:0 5:0 6:1 7:0 8:0 
1 0 0 0 0 0 0:38 1:0 2:0 3:0 4:0 5:0 6:1 7:0 8:0 
1 0 0 0 0 0 0:38 1:0 2:0 3:0 4:0 5:0 6:1 7:0 8:0 
1 1 0 1 0 0 0:25 1:0 2:0 3:0 4:0 5:0 6:1 7:0 8:0 
1 0 0 0 0 0 0:38 1:0 2:0 3:0 4:0 5:0 6:1 7:0 8:0 
1 1 0 1 0 0 0:25 1:0 2:0 3:0 4:0 5:0 6:1 7:0 8:0 
0 1 1 1 1 1 0:25 1:1 2:0 3:1 4:0 5:0 6:1 7:1 8:0 
1 1 0 1 0 0 0:25 1:0 2:0 3:0 4:0 5:0 6:1 7:0 8:0 
1 0 0 0.9766293641739374 0 0 0:38 1:0 2:0 3:0 4:0 5:0 6:1 7:0 8:0 
1 0 0 1 0 0 0:38 1:0 2:0 3:0 4:0 5:0 6:1 7:0 8:0 
1 1 0 1 0 0 0:25 1:0 2:0 3:0 4:0 5:0 6:1 7:0 8:0 
1 0 0 0 0 0 0:8 1:0 2:0 3:0 4:1 5:0 6:1 7:0 8:0 
1 0 0 1 0 0 0:38 1:0 2:0 3:0 4:0 5:0 6:1 7:0 8:0 
1 1 0 1 0 0 0:25 1:0 2:0 3:0 4:0 5:0 6:1 7:0 8:0 
1 1 0 1 0 0 0:25 1:0 2:0 3:0 4:0 5:0 6:1 7:0 8:0 
1 1 0 1 0 0 0:25 1:0 2:0 3:0 4:0 5:0 6:1 7:0 8:0 
1 1 0 1 0 0 0:25 1:0 2:0 3:0 4:0 5:0 6:1 7:0 8:0 
1 1 0 1 0 0 0:25 1:0 2:0 3:0 4:0 5:0 6:1 7:0 8:0 
1 1 0 1 0 0 0:25 1:0 2:0 3:0 4:0 5:0 6:1 7:0 8:0 
1 0 0 1 0 0 0:38 1:0 2:0 3:0 4:0 5:0 6:1 7:0 8:0 
1 1 0 1 0 0 0:25 1:0 2:0 3:0 4:0 5:0 6:1 7:0 8:0 
1 1 0 1 0 0 0:25 1:0 2:0 3:0 4:0 5:0 6:1 7:0 8:0 
1 1 0 1 0 0 0:25 1:0 2:0 3:0 4:0 5:0 6:1 7:0 8:0 
1 1 0 1 0 0 0:25 1:1 2:0 3:0 4:0 5:0 6:1 7:0 8:0 
1 1 0 1 0 0 0:25 1:0 2:0 3:0 4:0 5:0 6:1 7:0 8:0 
1 1 0 1 0 0 0:25 1:1 2:0 3:0 4:1 5:1 6:0 7:0 8:0 
0 0 0 0 1 1 0:25 1:0 2:0 3:1 4:0 5:0 6:1 7:1 8:0 
1 1 0 1 0 0 0:25 1:1 2:0 3:0 4:0 5:0 6:1 7:0 8:0 
1 1 0 1 0 0 0:25 1:0 2:0 3:0 4:0 5:0 6:1 7:0 8:0 
1 1 1 1 1 1 0:25 1:0 2:0 3:0 4:0 5:0 6:0 7:0 8:0 
1 1 0 1 0 0 0:25 1:0 2:0 3:0 4:0 5:0 6:1 7:0 8:0 
1 1 0 1 0 0 0:25 1:0 2:0 3:0 4:0 5:0 6:1 7:0 8:0 
1 1 0 1 0 0 0:25 1:0 2:0 3:0 4:0 5:0 6:1 7:0 8:0 
1 1 0 1 0 0 0:25 1:0 2:0 3:0 4:0 5:0 6:1 7:0 8:0 
1 1 0 1 0 0 0:25 1:0 2:0 3:0 4:0 5:0 6:1 7:0 8:0 
0 0 0 1 0 1 0:25 1:0 2:0 3:1 4:0 5:1 6:1 7:1 8:0 
1 1 0 1 0 0 0:25 1:0 2:0 3:0 4:0 5:0 6:1 7:0 8:0 
1 0 0 1 0 0 0:25 1:0 2:0 3:0 4:0 5:1 6:0 7:0 8:0 
1 0 0 0 0 0 0:8 1:0 2:0 3:0 4:1 5:0 6:1 7:0 8:0 
1 0 0 0 0 0 0:8 1:0 2:0 3:0 4:1 5:0 6:1 7:0 8:0 
1 1 0 1 0 0 0:25 1:0 2:0 3:0 4:0 5:0 6:1 7:0 8:0 
1 1 0 1 0 0 0:25 1:0 2:0 3:0 4:0 5:0 6:1 7:0 8:0 
1 1 0 1 0 0 0:25 1:0 2:0 3:0 4:0 5:0 6:1 7:0 8:0 
1 1 0 1 0 0 0:25 1:0 2:0 3:0 4:0 5:0 6:1 7:0 8:0 
1 1 0 1 0 0 0:25 1:0 2:0 3:0 4:0 5:0 6:1 7:0 8:0 
1 1 0 1 0 0 0:25 1:0 2:0 3:0 4:0 5:0 6:1 7:0 8:0 
1 1 0 1 0 0 0:25 1:0 2:0 3:0 4:0 5:0 6:1 7:0 8:0 
1 1 0 1 0 0 0:25 1:0 2:0 3:0 4:0 5:0 6:1 7:0 8:0 
1 1 0 1 0 0 0:25 1:0 2:0 3:0 4:0 5:0 6:1 7:0 8:0 
1 1 0 1 0 0 0:25 1:0 2:0 3:0 4:0 5:0 6:1 7:0 8:0 
1 1 0 1 0 0 0:25 1:0 2:0 3:0 4:0 5:0 6:1 7:0 8:0 
1 1 0 1 0 0 0:25 1:0 2:0 3:0 4:0 5:0 6:1 7:0 8:0 
1 1 0 1 0 0 0:25 1:0 2:0 3:0 4:0 5:0 6:1 7:0 8:0 
1 1 0 1 0 0 0:25 1:1 2:0 3:0 4:0 5:0 6:1 7:0 8:0 
1 1 0 1 0 0 0:25 1:0 2:0 3:0 4:0 5:0 6:1 7:0 8:0 
1 1 0 1 0 0 0:25 1:0 2:0 3:0 4:0 5:0 6:1 7:0 8:0 
1 1 0 1 0 0 0:25 1:0 2:0 3:0 4:0 5:0 6:1 7:0 8:0 
1 1 0 1 0 0 0:25 1:0 2:0 3:0 4:0 5:0 6:1 7:0 8:0 
1 1 0 1 0 0 0:25 1:0 2:0 3:0 4:0 5:0 6:1 7:0 8:0 
1 1 0 1 0 0 0:25 1:0 2:0 3:0 4:0 5:0 6:1 7:0 8:0 
1 1 1 1 1 1 0:25 1:0 2:0 3:0 4:0 5:0 6:1 7:1 8:0 
1 1 0 1 0 0 0:25 1:0 2:0 3:0 4:0 5:0 6:1 7:0 8:0 
1 1 0 1 0 0 0:25 1:0 2:0 3:0 4:0 5:0 6:1 7:0 8:0 
1 1 0 1 0 0 0:25 1:0 2:0 3:0 4:0 5:0 6:1 7:0 8:0 
1 1 0 1 0 0 0:25 1:0 2:0 3:0 4:0 5:0 6:1 7:0 8:0 
1 1 0 1 0 0 0:25 1:0 2:0 3:0 4:0 5:0 6:1 7:0 8:0 
1 1 0 1 0 0 0:25 1:0 2:0 3:0 4:0 5:0 6:1 7:0 8:0 
1 1 0 1 0 0 0:25 1:0 2:0 3:0 4:0 5:0 6:1 7:0 8:0 
1 1 0 1 0 0 0:25 1:0 2:0 3:0 4:0 5:0 6:1 7:0 8:0 
1 1 0 1 0 0 0:25 1:0 2:0 3:0 4:0 5:0 6:1 7:0 8:0 
1 1 0 1 0 0 0:25 1:0 2:0 3:0 4:0 5:0 6:1 7:0 8:0 
1 1 0 1 0 0 0:25 1:0 2:0 3:0 4:0 5:0 6:1 7:0 8:0 
1 0 0 0 0 0 0:8 1:0 2:0 3:0 4:1 5:0 6:1 7:0 8:0 
1 1 0 1 0 0 0:25 1:0 2:0 3:0 4:0 5:0 6:1 7:0 8:0 
1 1 0 1 0 0 0:25 1:0 2:0 3:0 4:0 5:0 6:1 7:0 8:0 
1 1 0 1 0 0 0:25 1:0 2:0 3:0 4:0 5:0 6:1 7:0 8:0 
1 1 0 1 0 0 0:25 1:0 2:0 3:0 4:0 5:0 6:1 7:0 8:0 
1 1 0 1 0 0 0:25 1:0 2:0 3:0 4:0 5:0 6:1 7:0 8:0 
1 1 0 1 0 0 0:25 1:0 2:0 3:0 4:0 5:0 6:1 7:0 8:0 
1 1 0 1 0 0 0:25 1:0 2:0 3:0 4:0 5:0 6:1 7:0 8:0 
1 1 0 1 0 0 0:25 1:0 2:0 3:0 4:0 5:0 6:1 7:0 8:0 
0 0 0 0 0 1 0:8 1:0 2:0 3:0 4:0 5:0 6:1 7:1 8:0 
0 0 0 0 0 1 0:8 1:0 2:0 3:0 4:0 5:0 6:1 7:1 8:0 
1 1 0 1 0 0 0:25 1:0 2:0 3:0 4:0 5:0 6:1 7:0 8:0 
1 1 0 1 0 0 0:25 1:0 2:0 3:0 4:0 5:0 6:1 7:0 8:0 
1 1 0 1 0 0 0:25 1:0 2:0 3:0 4:0 5:0 6:1 7:0 8:0 
1 1 1 1 1 1 0:25 1:0 2:0 3:0 4:0 5:0 6:1 7:1 8:0 
1 1 0 1 0 0 0:25 1:0 2:0 3:0 4:0 5:0 6:1 7:0 8:0 
0 0 0 0 1 1 0:25 1:0 2:0 3:1 4:0 5:0 6:1 7:1 8:0 
1 1 1 1 1 1 0:14 1:0 2:0 3:0 4:0 5:0 6:0 7:1 8:0 
1 1 0 1 0 0 0:25 1:0 2:0 3:0 4:0 5:0 6:1 7:0 8:0 
0 0 0 0 0 1 0:8 1:0 2:0 3:0 4:0 5:0 6:1 7:1 8:0 
1 1 1 1 1 1 0:25 1:0 2:0 3:0 4:0 5:0 6:1 7:1 8:0 
1 0 0 1 0 0 0:38 1:0 2:0 3:0 4:0 5:0 6:1 7:0 8:0 
1 1 0 1 0 0 0:25 1:0 2:0 3:0 4:0 5:0 6:1 7:0 8:0 
1 1 0 1 0 0 0:25 1:0 2:0 3:0 4:0 5:0 6:1 7:0 8:0 
1 1 0 1 0 0 0:25 1:0 2:0 3:0 4:0 5:0 6:1 7:0 8:0 
1 1 0 1 0 0 0:25 1:0 2:0 3:0 4:0 5:0 6:1 7:0 8:0 
1 1 0 1 0 0 0:25 1:0 2:0 3:0 4:0 5:0 6:1 7:0 8:0 
1 1 0 1 0 0 0:25 1:0 2:0 3:0 4:0 5:0 6:1 7:0 8:0 
1 1 0 1 0 0 0:25 1:0 2:0 3:0 4:0 5:0 6:1 7:0 8:0 
1 1 0 1 0 0 0:25 1:0 2:0 3:0 4:0 5:0 6:1 7:0 8:0 
1 1 0 1 0 0 0:25 1:0 2:0 3:0 4:0 5:0 6:1 7:0 8:0 
1 1 0 1 0 0 0:25 1:0 2:0 3:0 4:0 5:0 6:1 7:0 8:0 
1 1 0 1 0 0 0:25 1:0 2:0 3:0 4:0 5:0 6:1 7:0 8:0 
1 1 0 1 0 0 0:25 1:0 2:0 3:0 4:0 5:0 6:1 7:0 8:0 
1 1 0 1 0 0 0:25 1:0 2:0 3:0 4:0 5:0 6:1 7:0 8:0 
1 1 0 1 0 0 0:25 1:0 2:0 3:0 4:0 5:0 6:1 7:0 8:0 
1 1 0 1 0 0 0:25 1:0 2:0 3:0 4:0 5:0 6:1 7:0 8:0 
1 1 0 1 0 0 0:25 1:0 2:0 3:0 4:0 5:0 6:1 7:0 8:0 
1 1 0 1 0 0 0:25 1:0 2:0 3:0 4:0 5:0 6:1 7:0 8:0 
1 0 0 1 0 0 0:25 1:0 2:0 3:0 4:0 5:1 6:0 7:0 8:0 
1 1 1 1 1 1 0:25 1:0 2:0 3:0 4:0 5:0 6:1 7:1 8:0 
1 1 0 1 0 0 0:25 1:0 2:0 3:0 4:0 5:0 6:1 7:0 8:0 
1 1 0 1 0 0 0:25 1:0 2:0 3:0 4:0 5:0 6:1 7:0 8:0 
0 1 1 1 1 1 0:25 1:1 2:0 3:1 4:0 5:0 6:1 7:1 8:0 
1 1 0 1 0 0 0:25 1:0 2:0 3:0 4:0 5:0 6:1 7:0 8:0 
1 1 0 1 0 0 0:25 1:0 2:0 3:0 4:0 5:0 6:1 7:0 8:0 
1 1 0 1 0 0 0:25 1:0 2:0 3:0 4:0 5:0 6:1 7:0 8:0 
0 0 0 1 0 1 0:25 1:0 2:0 3:1 4:0 5:1 6:1 7:1 8:0 
0 0 0 0 0 1 0:8 1:0 2:0 3:0 4:0 5:0 6:1 7:1 8:0 
1 1 0 1 0 0 0:25 1:0 2:0 3:0 4:0 5:0 6:1 7:0 8:0 
1 1 0 1 0 0 0:25 1:0 2:0 3:0 4:0 5:0 6:1 7:0 8:0 
1 0 0 0 0 0 0:8 1:0 2:0 3:0 4:1 5:0 6:1 7:0 8:0 
1 1 0 1 0 0 0:25 1:0 2:0 3:0 4:0 5:0 6:1 7:0 8:0 
1 0 0 1 0 0 0:25 1:0 2:0 3:0 4:0 5:1 6:0 7:0 8:0 
1 1 0 1 0 0 0:25 1:0 2:0 3:0 4:0 5:0 6:1 7:0 8:0 
1 1 0 1 0 0 0:25 1:0 2:0 3:0 4:0 5:0 6:1 7:0 8:0 
0 0 0 0 0 1 0:8 1:0 2:0 3:0 4:0 5:0 6:1 7:1 8:0 
1 1 0 1 0 0 0:25 1:0 2:0 3:0 4:1 5:0 6:1 7:0 8:0 
1 1 0 1 0 0 0:25 1:0 2:0 3:0 4:0 5:0 6:1 7:0 8:0 
1 1 0 1 0 0 0:25 1:0 2:0 3:0 4:0 5:0 6:1 7:0 8:0 
1 1 0 1 0 0 0:25 1:0 2:0 3:0 4:0 5:0 6:1 7:0 8:0 
1 0 0 1 0 0 0:38 1:0 2:0 3:0 4:0 5:0 6:1 7:0 8:0 
1 1 0 1 0 0 0:25 1:0 2:0 3:0 4:0 5:0 6:1 7:0 8:0 
0 0.07075652665852469 0 0 0 0 0:25 1:1 2:0 3:1 4:1 5:0 6:1 7:0 8:0 
1 1 0 1 0 0 0:25 1:0 2:0 3:0 4:0 5:0 6:1 7:0 8:0 
1 1 0 1 0 0 0:25 1:0 2:0 3:0 4:0 5:0 6:1 7:0 8:0 
0 0 0 0 0 1 0:8 1:0 2:0 3:0 4:0 5:0 6:1 7:1 8:0 
1 1 0 1 0 0 0:25 1:0 2:0 3:0 4:0 5:0 6:1 7:0 8:0 
1 1 1 1 1 1 0:25 1:0 2:0 3:0 4:0 5:0 6:1 7:1 8:0 
1 1 0 1 0 0 0:25 1:0 2:0 3:0 4:0 5:0 6:1 7:0 8:0 
1 1 0 1 0 0 0:25 1:0 2:0 3:0 4:0 5:0 6:1 7:0 8:0 
1 1 0 1 0 0 0:25 1:0 2:0 3:0 4:0 5:0 6:1 7:0 8:0 
1 1 0 1 0 0 0:25 1:0 2:0 3:0 4:0 5:0 6:1 7:0 8:0 
1 1 0 1 0 0 0:25 1:0 2:0 3:0 4:0 5:0 6:1 7:0 8:0 
1 0 0 1 0 0 0:38 1:0 2:0 3:0 4:0 5:0 6:1 7:0 8:0 
1 0 0 0 0 0 0:8 1:0 2:0 3:0 4:1 5:0 6:1 7:0 8:0 
1 0 0 1 0 0 0:38 1:0 2:0 3:0 4:0 5:0 6:1 7:0 8:0 
1 1 0 1 0 0 0:25 1:0 2:0 3:0 4:0 5:0 6:1 7:0 8:0 
1 1 0 1 0 0 0:25 1:0 2:0 3:0 4:0 5:0 6:1 7:0 8:0 
1 1 0 1 0 0 0:25 1:0 2:0 3:0 4:0 5:0 6:1 7:0 8:0 
1 1 0 1 0 0 0:25 1:0 2:0 3:0 4:0 5:0 6:1 7:0 8:0 
1 1 0 1 0 0 0:25 1:0 2:0 3:0 4:0 5:0 6:1 7:0 8:0 
1 1 0 1 0 0 0:25 1:1 2:0 3:0 4:0 5:0 6:1 7:0 8:0 
0 0 0 1 0 1 0:25 1:0 2:0 3:1 4:0 5:1 6:1 7:1 8:0 
0 0 0 1 0 1 0:25 1:0 2:0 3:1 4:0 5:1 6:1 7:1 8:0 
1 1 0 1 0 0 0:25 1:0 2:0 3:0 4:0 5:0 6:1 7:0 8:0 
1 1 0 1 0 0 0:25 1:0 2:0 3:0 4:0 5:0 6:1 7:0 8:0 
1 1 0 1 0 0 0:25 1:0 2:0 3:0 4:0 5:0 6:1 7:0 8:0 
1 1 0 1 0 0 0:25 1:0 2:0 3:0 4:1 5:0 6:1 7:0 8:0 
1 1 0 1 0 0 0:25 1:0 2:0 3:0 4:0 5:0 6:1 7:0 8:0 
1 1 0 1 0 0 0:25 1:0 2:0 3:0 4:1 5:0 6:1 7:0 8:0 
1 1 0 1 0 0 0:25 1:0 2:0 3:0 4:0 5:0 6:1 7:0 8:0 
1 1 0 1 0 0 0:25 1:0 2:0 3:0 4:0 5:0 6:1 7:0 8:0 
1 1 0 1 0 0 0:25 1:0 2:0 3:0 4:0 5:0 6:1 7:0 8:0 
1 1 0 1 0 0 0:25 1:0 2:0 3:0 4:0 5:0 6:1 7:0 8:0 
1 1 0 1 0 0 0:25 1:0 2:0 3:0 4:0 5:0 6:1 7:0 8:0 
0 0 0 0 0 1 0:8 1:0 2:0 3:0 4:0 5:0 6:1 7:1 8:0 
1 1 0 1 0 0 0:25 1:0 2:0 3:0 4:0 5:0 6:1 7:0 8:0 
1 1 0 1 0 0 0:25 1:1 2:0 3:0 4:0 5:0 6:1 7:0 8:0 
1 1 0 1 0 0 0:25 1:0 2:0 3:0 4:0 5:0 6:1 7:0 8:0 
1 1 0 1 0 0 0:25 1:0 2:0 3:0 4:0 5:0 6:1 7:0 8:0 
1 0 0 0 0 0 0:8 1:0 2:0 3:0 4:1 5:0 6:1 7:0 8:0 
1 1 0 1 0 0 0:25 1:0 2:0 3:0 4:0 5:0 6:1 7:0 8:0 
1 0 0 0 0 0 0:8 1:0 2:0 3:0 4:1 5:0 6:1 7:0 8:0 
1 1 0 1 0 0 0:25 1:0 2:0 3:0 4:0 5:0 6:1 7:0 8:0 
1 1 0 1 0 0 0:25 1:0 2:0 3:0 4:0 5:0 6:1 7:0 8:0 
1 1 1 1 1 1 0:25 1:0 2:0 3:0 4:0 5:0 6:1 7:1 8:0 
1 1 0 1 0 0 0:25 1:1 2:0 3:0 4:0 5:0 6:1 7:0 8:0 
1 1 0 1 0 0 0:25 1:0 2:0 3:0 4:0 5:0 6:1 7:0 8:0 
1 1 0 1 0 0 0:25 1:0 2:0 3:0 4:0 5:0 6:1 7:0 8:0 
1 1 0 1 0 0 0:25 1:0 2:0 3:0 4:0 5:0 6:1 7:0 8:0 
1 1 0 1 0 0 0:25 1:0 2:0 3:0 4:0 5:0 6:1 7:0 8:0 
1 1 0 1 0 0 0:25 1:0 2:0 3:0 4:0 5:0 6:1 7:0 8:0 
1 1 0 1 0 0 0:25 1:0 2:0 3:0 4:0 5:0 6:1 7:0 8:0 
1 1 0 1 0 0 0:25 1:0 2:0 3:0 4:0 5:0 6:1 7:0 8:0 
1 1 1 1 1 1 0:25 1:0 2:0 3:0 4:0 5:1 6:0 7:1 8:0 
1 1 0 1 0 0 0:25 1:0 2:0 3:0 4:0 5:0 6:1 7:0 8:0 
1 1 0 1 0 0 0:25 1:0 2:0 3:0 4:0 5:0 6:1 7:0 8:0 
1 1 0 1 0 0 0:25 1:0 2:0 3:0 4:0 5:0 6:1 7:0 8:0 
1 1 0 1 0 0 0:25 1:0 2:0 3:0 4:0 5:0 6:1 7:0 8:0 
1 1 0 1 0 0 0:25 1:0 2:0 3:0 4:0 5:0 6:1 7:0 8:0 
1 1 0 1 0 0 0:25 1:0 2:0 3:0 4:0 5:0 6:1 7:0 8:0 
1 1 0 1 0 0 0:25 1:0 2:0 3:0 4:0 5:0 6:1 7:0 8:0 
1 1 0 1 0 0 0:25 1:0 2:0 3:0 4:0 5:0 6:1 7:0 8:0 
1 1 0 1 0 0 0:25 1:0 2:0 3:0 4:0 5:0 6:1 7:0 8:0 
1 1 0 1 0 0 0:25 1:0 2:0 3:0 4:0 5:0 6:1 7:0 8:0 
1 1 0 1 0 0 0:25 1:0 2:0 3:0 4:1 5:0 6:1 7:0 8:0 
1 1 0 1 0 0 0:25 1:0 2:0 3:0 4:0 5:0 6:1 7:0 8:0 
0 0 0 0 0 1 0:8 1:0 2:0 3:0 4:0 5:0 6:1 7:1 8:0 
1 1 0 1 0 0 0:25 1:0 2:0 3:0 4:0 5:0 6:1 7:0 8:0 
1 1 0 1 0 0 0:25 1:0 2:0 3:0 4:0 5:0 6:1 7:0 8:0 
1 1 0 1 0 0 0:25 1:0 2:0 3:0 4:0 5:0 6:1 7:0 8:0 
1 1 0 1 0 0 0:25 1:0 2:0 3:0 4:0 5:0 6:1 7:0 8:0 
1 1 0 1 0 0 0:25 1:0 2:0 3:0 4:0 5:0 6:1 7:0 8:0 
1 1 1 1 1 1 0:14 1:0 2:0 3:0 4:0 5:0 6:0 7:0 8:0 
1 1 0 1 0 0 0:25 1:0 2:0 3:0 4:0 5:0 6:1 7:0 8:0 
1 1 0 1 0 0 0:25 1:0 2:0 3:0 4:0 5:0 6:1 7:0 8:0 
1 1 0 1 0 0 0:25 1:0 2:0 3:0 4:0 5:0 6:1 7:0 8:0 
1 1 0 1 0 0 0:25 1:0 2:0 3:0 4:0 5:0 6:1 7:0 8:0 
1 1 0 1 0 0 0:25 1:0 2:0 3:0 4:0 5:0 6:1 7:0 8:0 
1 1 0 1 0 0 0:25 1:0 2:0 3:0 4:0 5:0 6:1 7:0 8:0 
1 1 0 1 0 0 0:25 1:0 2:0 3:0 4:0 5:0 6:1 7:0 8:0 
1 1 0 1 0 0 0:25 1:0 2:0 3:0 4:0 5:0 6:1 7:0 8:0 
1 1 0 1 0 0 0:25 1:0 2:0 3:0 4:0 5:0 6:1 7:0 8:0 
1 1 0 1 0 0 0:25 1:1 2:0 3:0 4:1 5:1 6:0 7:0 8:0 
1 1 0 1 0 0 0:25 1:0 2:0 3:0 4:0 5:0 6:1 7:0 8:0 
1 1 0 1 0 0 0:25 1:0 2:0 3:0 4:0 5:0 6:1 7:0 8:0 
1 1 0 1 0 0 0:25 1:0 2:0 3:0 4:0 5:0 6:1 7:0 8:0 
1 1 0 1 0 0 0:25 1:0 2:0 3:0 4:0 5:0 6:1 7:0 8:0 
1 1 0 1 0 0 0:25 1:0 2:0 3:0 4:0 5:0 6:1 7:0 8:0 
1 1 0 1 1 0 0:14 1:0 2:0 3:1 4:0 5:0 6:1 7:0 8:0 
1 1 0 1 0 0 0:25 1:0 2:0 3:0 4:0 5:0 6:1 7:0 8:0 
1 1 0 1 0 0 0:25 1:0 2:0 3:0 4:0 5:0 6:1 7:0 8:0 
0 1 1 1 1 1 0:25 1:1 2:0 3:1 4:0 5:0 6:1 7:1 8:0 
0 1 0 0 0 0 0:25 1:1 2:0 3:1 4:1 5:0 6:1 7:0 8:0 
1 1 1 1 1 1 0:25 1:0 2:0 3:0 4:0 5:0 6:1 7:1 8:0 
1 1 0 1 0 0 0:25 1:0 2:0 3:0 4:0 5:0 6:1 7:0 8:0 
1 1 0 1 0 0 0:25 1:1 2:0 3:0 4:1 5:1 6:0 7:0 8:0 
1 0.8191855138621181 1 1 1 0 0:11 1:0 2:0 3:0 4:0 5:0 6:0 7:0 8:0 
1 1 0 1 0 0 0:25 1:0 2:0 3:0 4:0 5:0 6:1 7:0 8:0 
1 1 1 1 1 0 0:11 1:0 2:0 3:0 4:0 5:0 6:0 7:0 8:0 
1 1 0 1 0 0 0:25 1:0 2:0 3:0 4:0 5:0 6:1 7:0 8:0 
1 0 0 0 0 0 0:8 1:0 2:0 3:0 4:1 5:0 6:1 7:0 8:0 
1 0 0 0 0 0 0:8 1:0 2:0 3:0 4:1 5:0 6:1 7:0 8:0 
1 1 0 1 0 0 0:25 1:0 2:0 3:0 4:0 5:0 6:1 7:0 8:0 
1 1 1 1 1 0.2866414519241913 0:11 1:0 2:0 3:0 4:0 5:0 6:0 7:0 8:0 
1 1 0 1 0 0 0:25 1:0 2:0 3:0 4:0 5:0 6:1 7:0 8:0 
1 1 0 1 0 0 0:25 1:0 2:0 3:0 4:0 5:0 6:1 7:0 8:0 
1 1 0 1 0 0 0:25 1:0 2:0 3:0 4:0 5:0 6:1 7:0 8:0 
0 0 0 1 0 1 0:25 1:0 2:0 3:1 4:0 5:1 6:1 7:1 8:0 
1 1 0 1 0 0 0:25 1:0 2:0 3:0 4:0 5:0 6:1 7:0 8:0 
1 1 1 1 0.7343228742686924 1 0:25 1:0 2:0 3:0 4:1 5:0 6:0 7:0 8:0 
1 1 1 1 1 1 0:32 1:0 2:0 3:1 4:0 5:1 6:0 7:0 8:0 
1 1 0 1 0 0 0:25 1:0 2:0 3:0 4:0 5:0 6:1 7:0 8:0 
1 1 0 1 0 0 0:25 1:0 2:0 3:0 4:0 5:0 6:1 7:0 8:0 
1 1 0 1 0 0 0:25 1:0 2:0 3:0 4:0 5:0 6:1 7:0 8:0 
1 1 0 1 0 0 0:25 1:0 2:0 3:0 4:0 5:0 6:1 7:0 8:0 
1 1 0 1 0 0 0:25 1:0 2:0 3:0 4:0 5:0 6:1 7:0 8:0 
1 1 0 1 0 0 0:25 1:0 2:0 3:0 4:0 5:0 6:1 7:0 8:0 
1 1 0 1 0 0 0:25 1:0 2:0 3:0 4:0 5:0 6:1 7:0 8:0 
1 1 0 1 0 0 0:25 1:0 2:0 3:0 4:0 5:0 6:1 7:0 8:0 
1 0 0 0 0 0 0:8 1:0 2:0 3:0 4:1 5:0 6:1 7:0 8:0 
1 1 0 1 0 0 0:25 1:0 2:0 3:0 4:0 5:0 6:1 7:0 8:0 
1 1 0 1 0 0 0:25 1:0 2:0 3:0 4:0 5:0 6:1 7:0 8:0 
1 1 0 1 0 0 0:25 1:0 2:0 3:0 4:1 5:0 6:1 7:0 8:0 
1 1 0 1 0 0 0:25 1:0 2:0 3:0 4:0 5:0 6:1 7:0 8:0 
1 1 0 1 0 0 0:25 1:0 2:0 3:0 4:0 5:0 6:1 7:0 8:0 
1 1 0 1 0 0 0:25 1:0 2:0 3:0 4:0 5:0 6:1 7:0 8:0 
1 1 0 1 0 0 0:25 1:0 2:0 3:0 4:0 5:0 6:1 7:0 8:0 
1 1 0 1 0 0 0:25 1:0 2:0 3:0 4:0 5:0 6:1 7:0 8:0 
1 1 0 1 0 0 0:25 1:0 2:0 3:0 4:0 5:0 6:1 7:0 8:0 
1 1 0 1 0 0 0:25 1:1 2:0 3:0 4:0 5:0 6:1 7:0 8:0 
1 1 0 1 0 0 0:25 1:0 2:0 3:0 4:0 5:0 6:1 7:0 8:0 
1 1 0 1 0 0 0:25 1:0 2:0 3:0 4:0 5:0 6:1 7:0 8:0 
1 1 0 1 0 0 0:25 1:0 2:0 3:0 4:0 5:0 6:1 7:0 8:0 
1 1 0 1 0 0 0:25 1:0 2:0 3:0 4:0 5:0 6:1 7:0 8:0 
1 1 0 1 0 0 0:25 1:0 2:0 3:0 4:0 5:0 6:1 7:0 8:0 
1 1 0 1 0 0 0:25 1:0 2:0 3:0 4:0 5:0 6:1 7:0 8:0 
0 0 0 1 0 1 0:25 1:0 2:0 3:1 4:0 5:1 6:1 7:1 8:0 
1 1 0 1 0 0 0:25 1:0 2:0 3:0 4:0 5:0 6:1 7:0 8:0 
1 1 0 1 0 0 0:25 1:0 2:0 3:0 4:0 5:0 6:1 7:0 8:0 
1 1 1 1 1 1 0:25 1:0 2:0 3:0 4:0 5:0 6:1 7:1 8:0 
1 1 0 1 0 0 0:25 1:0 2:0 3:0 4:0 5:0 6:1 7:0 8:0 
1 1 0 1 0 0 0:25 1:0 2:0 3:0 4:1 5:0 6:1 7:0 8:0 
1 1 0 1 0 0 0:25 1:0 2:0 3:0 4:1 5:0 6:1 7:0 8:0 
1 1 0 1 0 0 0:25 1:0 2:0 3:0 4:0 5:0 6:1 7:0 8:0 
1 1 0 1 0 0 0:25 1:0 2:0 3:0 4:0 5:0 6:1 7:0 8:0 
1 1 0 1 0 0 0:25 1:0 2:0 3:0 4:0 5:0 6:1 7:0 8:0 
1 1 0 1 0 0 0:25 1:0 2:0 3:0 4:0 5:0 6:1 7:0 8:0 
1 1 0 1 0 0 0:25 1:0 2:0 3:0 4:0 5:0 6:1 7:0 8:0 
1 0 0 0 0 0 0:8 1:0 2:0 3:0 4:1 5:0 6:1 7:0 8:0 
1 1 0 1 0 0 0:25 1:0 2:0 3:0 4:0 5:0 6:1 7:0 8:0 
1 1 0 1 0 0 0:25 1:0 2:0 3:0 4:1 5:0 6:1 7:0 8:0 
1 1 0 1 0 0 0:25 1:0 2:0 3:0 4:0 5:0 6:1 7:0 8:0 
1 1 0 1 0 0 0:25 1:0 2:0 3:0 4:0 5:0 6:1 7:0 8:0 
0 0 0 0 0 1 0:8 1:0 2:0 3:0 4:0 5:0 6:1 7:1 8:0 
1 1 0 1 0 0 0:25 1:0 2:0 3:0 4:0 5:0 6:1 7:0 8:0 
1 1 0 1 0 0 0:25 1:0 2:0 3:0 4:0 5:0 6:1 7:0 8:0 
0 0 0 0 0 1 0:8 1:0 2:0 3:0 4:0 5:0 6:1 7:1 8:0 
1 1 0 1 0 0 0:25 1:0 2:0 3:0 4:0 5:0 6:1 7:0 8:0 
0 0 0 0 0 1 0:8 1:0 2:0 3:0 4:0 5:0 6:1 7:1 8:0 
1 1 0 1 0 0 0:25 1:0 2:0 3:0 4:1 5:0 6:1 7:0 8:0 
1 1 0 1 0 0 0:25 1:0 2:0 3:0 4:0 5:0 6:1 7:0 8:0 
1 1 0 1 0 0 0:25 1:0 2:0 3:0 4:0 5:0 6:1 7:0 8:0 
1 1 0 1 0 0 0:25 1:0 2:0 3:0 4:0 5:0 6:1 7:0 8:0 
1 1 0 1 0 0 0:25 1:0 2:0 3:0 4:0 5:0 6:1 7:0 8:0 
1 1 0 1 0 0 0:25 1:0 2:0 3:0 4:0 5:0 6:1 7:0 8:0 
1 1 0 1 0 0 0:25 1:0 2:0 3:0 4:0 5:0 6:1 7:0 8:0 
1 1 0 1 0 0 0:25 1:0 2:0 3:0 4:0 5:0 6:1 7:0 8:0 
1 1 0 1 0 0 0:25 1:0 2:0 3:0 4:0 5:0 6:1 7:0 8:0 
0 0 0 0 1 1 0:25 1:0 2:0 3:1 4:0 5:0 6:1 7:1 8:0 
1 0 0 0 0 0 0:8 1:0 2:0 3:0 4:1 5:0 6:1 7:0 8:0 
1 1 0 1 0 0 0:25 1:0 2:0 3:0 4:0 5:0 6:1 7:0 8:0 
0 0 0 0 1 1 0:25 1:0 2:0 3:1 4:0 5:0 6:1 7:1 8:0 
1 1 0 1 0 0 0:25 1:0 2:0 3:0 4:0 5:0 6:1 7:0 8:0 
1 1 0 1 0 0 0:25 1:0 2:0 3:0 4:0 5:0 6:1 7:0 8:0 
1 1 0 1 0 0 0:25 1:0 2:0 3:0 4:0 5:0 6:1 7:0 8:0 
1 1 0 1 0 0 0:25 1:0 2:0 3:0 4:0 5:0 6:1 7:0 8:0 
1 1 0 1 0 0 0:25 1:0 2:0 3:0 4:0 5:0 6:1 7:0 8:0 
1 1 0 1 0 0 0:25 1:0 2:0 3:0 4:0 5:0 6:1 7:0 8:0 
1 1 0 1 0 0 0:25 1:0 2:0 3:0 4:0 5:0 6:1 7:0 8:0 
1 1 0 1 0 0 0:25 1:0 2:0 3:0 4:0 5:0 6:1 7:0 8:0 
1 1 0 1 0 0 0:25 1:0 2:0 3:0 4:1 5:0 6:1 7:0 8:0 
1 1 0 1 0 0 0:25 1:0 2:0 3:0 4:0 5:0 6:1 7:0 8:0 
1 1 0 1 0 0 0:25 1:0 2:0 3:0 4:0 5:0 6:1 7:0 8:0 
1 1 0 1 0 0 0:25 1:0 2:0 3:0 4:0 5:0 6:1 7:0 8:0 
1 1 0 1 0 0 0:25 1:0 2:0 3:0 4:0 5:0 6:1 7:0 8:0 
1 1 0 1 0 0 0:25 1:0 2:0 3:0 4:0 5:0 6:1 7:0 8:0 
1 0 0 1 0 0 0:38 1:0 2:0 3:0 4:0 5:0 6:1 7:0 8:0 
1 1 0 1 0 0 0:25 1:0 2:0 3:0 4:0 5:0 6:1 7:0 8:0 
1 1 0 1 0 0 0:25 1:0 2:0 3:0 4:0 5:0 6:1 7:0 8:0 
1 0 0 1 0 0 0:38 1:0 2:0 3:0 4:0 5:0 6:1 7:0 8:0 
1 1 1 1 1 1 0:25 1:0 2:0 3:0 4:0 5:0 6:1 7:1 8:0 
1 1 0 1 0 0 0:25 1:0 2:0 3:0 4:0 5:0 6:1 7:0 8:0 
1 1 0 1 0 0 0:25 1:0 2:0 3:0 4:0 5:0 6:1 7:0 8:0 
1 1 1 1 1 1 0:25 1:0 2:0 3:0 4:0 5:0 6:1 7:1 8:0 
1 1 0 1 0 0 0:25 1:0 2:0 3:0 4:0 5:0 6:1 7:0 8:0 
1 1 0 1 0 0 0:25 1:0 2:0 3:0 4:0 5:0 6:1 7:0 8:0 
1 1 0 1 0 0 0:25 1:1 2:0 3:0 4:0 5:0 6:1 7:0 8:0 
1 1 0 1 0 0 0:25 1:0 2:0 3:0 4:0 5:0 6:1 7:0 8:0 
1 1 0 1 0 0 0:25 1:1 2:0 3:0 4:0 5:0 6:1 7:0 8:0 
1 1 0 1 0 0 0:25 1:0 2:0 3:0 4:0 5:0 6:1 7:0 8:0 
1 1 0 1 0 0 0:25 1:0 2:0 3:0 4:0 5:0 6:1 7:0 8:0 
1 1 0 1 0 0 0:25 1:0 2:0 3:0 4:0 5:0 6:1 7:0 8:0 
1 1 0 1 0 0 0:25 1:0 2:0 3:0 4:0 5:0 6:1 7:0 8:0 
1 1 0 1 0 0 0:25 1:0 2:0 3:0 4:0 5:0 6:1 7:0 8:0 
1 1 0 1 0 0 0:25 1:0 2:0 3:0 4:0 5:0 6:1 7:0 8:0 
1 1 0 1 0 0 0:25 1:1 2:0 3:0 4:0 5:0 6:1 7:0 8:0 
1 1 0 1 0.2806831004805506 0.2426804780671335 0:26 1:1 2:0 3:0 4:0 5:0 6:1 7:0 8:0 
1 1 0 1 0 0 0:25 1:1 2:0 3:0 4:0 5:0 6:1 7:0 8:0 
1 1 0 1 0 0 0:25 1:1 2:0 3:0 4:0 5:0 6:1 7:0 8:0 
1 1 0 1 0 0 0:25 1:1 2:0 3:0 4:0 5:0 6:1 7:0 8:0 
1 1 0 1 0 0 0:25 1:1 2:0 3:0 4:0 5:0 6:1 7:0 8:0 
1 1 1 1 1 1 0:25 1:0 2:0 3:0 4:0 5:0 6:1 7:1 8:0 
1 1 0 1 0 0 0:25 1:0 2:0 3:0 4:0 5:0 6:1 7:0 8:0 
1 1 0 1 0 0 0:25 1:0 2:0 3:0 4:0 5:0 6:1 7:0 8:0 
1 1 0 1 0 0 0:25 1:0 2:0 3:0 4:0 5:0 6:1 7:0 8:0 
1 1 0 1 0 0 0:25 1:0 2:0 3:0 4:0 5:0 6:1 7:0 8:0 
1 1 0 1 0 0 0:25 1:0 2:0 3:0 4:0 5:0 6:1 7:0 8:0 
1 1 0 1 0 0 0:25 1:0 2:0 3:0 4:0 5:0 6:1 7:0 8:0 
1 1 0 1 0 0 0:25 1:0 2:0 3:0 4:0 5:0 6:1 7:0 8:0 
1 1 0 1 0 0 0:25 1:0 2:0 3:0 4:0 5:0 6:1 7:0 8:0 
1 1 0 1 0 0 0:25 1:0 2:0 3:0 4:0 5:0 6:1 7:0 8:0 
1 1 0 1 0 0 0:25 1:0 2:0 3:0 4:0 5:0 6:1 7:0 8:0 
1 1 0 1 0 0 0:25 1:0 2:0 3:0 4:0 5:0 6:1 7:0 8:0 
1 1 0 1 0 0 0:25 1:0 2:0 3:0 4:0 5:0 6:1 7:0 8:0 
1 1 0 1 0 0 0:25 1:0 2:0 3:0 4:0 5:0 6:1 7:0 8:0 
1 1 0 1 0 0 0:25 1:0 2:0 3:0 4:0 5:0 6:1 7:0 8:0 
1 1 0 1 0 0 0:25 1:0 2:0 3:0 4:0 5:0 6:1 7:0 8:0 
1 1 0 1 0 0 0:25 1:0 2:0 3:0 4:0 5:0 6:1 7:0 8:0 
1 1 0 1 0 0 0:25 1:0 2:0 3:0 4:0 5:0 6:1 7:0 8:0 
1 1 0 1 0 0 0:25 1:0 2:0 3:0 4:0 5:0 6:1 7:0 8:0 
1 1 0 1 0 0 0:25 1:0 2:0 3:0 4:0 5:0 6:1 7:0 8:0 
1 1 0 1 0 0 0:25 1:0 2:0 3:0 4:0 5:0 6:1 7:0 8:0 
1 1 0 1 0 0 0:25 1:0 2:0 3:0 4:0 5:0 6:1 7:0 8:0 
1 1 0 1 0 0 0:25 1:0 2:0 3:0 4:0 5:0 6:1 7:0 8:0 
1 0 0 1 0 0 0:25 1:0 2:0 3:0 4:0 5:1 6:0 7:0 8:0 
0 0 0 0 0 1 0:8 1:0 2:0 3:0 4:0 5:0 6:1 7:1 8:0 
1 1 1 1 1 1 0:25 1:0 2:0 3:0 4:0 5:0 6:1 7:1 8:0 
1 1 0 1 0 0 0:25 1:0 2:0 3:0 4:0 5:0 6:1 7:0 8:0 
1 1 0 1 0 0 0:25 1:0 2:0 3:0 4:0 5:0 6:1 7:0 8:0 
1 0 0 1 0 0 0:25 1:0 2:0 3:0 4:0 5:1 6:0 7:0 8:0 
1 1 0 1 0 0 0:25 1:0 2:0 3:0 4:0 5:0 6:1 7:0 8:0 
1 1 0 1 0 0 0:25 1:1 2:0 3:0 4:0 5:0 6:1 7:0 8:0 
1 1 0 1 0 0 0:25 1:0 2:0 3:0 4:0 5:0 6:1 7:0 8:0 
1 1 0 1 0 0 0:25 1:0 2:0 3:0 4:0 5:0 6:1 7:0 8:0 
1 1 0 1 0 0 0:25 1:0 2:0 3:0 4:0 5:0 6:1 7:0 8:0 
1 1 0 1 0 0 0:25 1:0 2:0 3:0 4:1 5:0 6:1 7:0 8:0 
1 1 0 1 0 0 0:25 1:0 2:0 3:0 4:0 5:0 6:1 7:0 8:0 
1 1 0 1 0 0 0:25 1:0 2:0 3:0 4:0 5:0 6:1 7:0 8:0 
1 1 0 1 0 0 0:25 1:0 2:0 3:0 4:0 5:0 6:1 7:0 8:0 
1 1 0 1 0 0 0:25 1:0 2:0 3:0 4:0 5:0 6:1 7:0 8:0 
1 1 0 1 0 0 0:25 1:0 2:0 3:0 4:0 5:0 6:1 7:0 8:0 
1 1 0 1 0 0 0:25 1:0 2:0 3:0 4:0 5:0 6:1 7:0 8:0 
1 1 0 1 0 0 0:25 1:0 2:0 3:0 4:0 5:0 6:1 7:0 8:0 
1 1 0 1 0 0 0:25 1:0 2:0 3:0 4:0 5:0 6:1 7:0 8:0 
1 1 0 1 0 0 0:25 1:0 2:0 3:0 4:0 5:0 6:1 7:0 8:0 
1 1 0 1 0 0 0:25 1:0 2:0 3:0 4:0 5:0 6:1 7:0 8:0 
1 1 0 1 0 0 0:25 1:0 2:0 3:0 4:0 5:0 6:1 7:0 8:0 
1 1 0 1 0 0 0:25 1:0 2:0 3:0 4:0 5:0 6:1 7:0 8:0 
1 1 0 1 0 0 0:25 1:0 2:0 3:0 4:0 5:0 6:1 7:0 8:0 
1 1 0 1 0 0 0:25 1:0 2:0 3:0 4:0 5:0 6:1 7:0 8:0 
1 1 0 1 0 0 0:25 1:0 2:0 3:0 4:0 5:0 6:1 7:0 8:0 
1 1 0 1 0 0 0:25 1:0 2:0 3:0 4:0 5:0 6:1 7:0 8:0 
1 1 0 1 0 0 0:25 1:0 2:0 3:0 4:0 5:0 6:1 7:0 8:0 
1 0 0 0 0.201593366425974 1 0:25 1:0 2:0 3:1 4:0 5:1 6:0 7:1 8:0 
1 1 0 1 0 0 0:25 1:0 2:0 3:0 4:0 5:0 6:1 7:0 8:0 
1 1 0 1 0 0 0:25 1:0 2:0 3:0 4:1 5:0 6:1 7:0 8:0 
1 1 0 1 0 0 0:25 1:0 2:0 3:0 4:0 5:0 6:1 7:0 8:0 
0 0 0 0 0 1 0:8 1:0 2:0 3:0 4:0 5:0 6:1 7:1 8:0 
1 1 0 1 0 0 0:25 1:0 2:0 3:0 4:0 5:0 6:1 7:0 8:0 
1 0 0 1 0 0 0:25 1:0 2:0 3:0 4:0 5:1 6:0 7:0 8:0 
1 1 0 1 0 0 0:25 1:0 2:0 3:0 4:0 5:0 6:1 7:0 8:0 
1 0 0 1 0 0 0:25 1:0 2:0 3:0 4:0 5:1 6:0 7:0 8:0 
1 0 0 -0 1 1 0:25 1:0 2:0 3:1 4:0 5:1 6:0 7:1 8:0 
1 0 0 1 0 0 0:25 1:0 2:0 3:0 4:0 5:1 6:0 7:0 8:0 
1 1 0 1 0 0 0:25 1:0 2:0 3:0 4:0 5:0 6:1 7:0 8:0 
1 1 0 1 0 0 0:25 1:1 2:0 3:0 4:1 5:1 6:0 7:0 8:0 
1 1 0 1 0 0 0:25 1:0 2:0 3:0 4:0 5:0 6:1 7:0 8:0 
1 1 0 1 0 0 0:25 1:1 2:0 3:0 4:0 5:0 6:1 7:0 8:0 
1 1 1 1 1 1 0:25 1:0 2:0 3:0 4:0 5:0 6:1 7:1 8:0 
1 1 0 1 0 0 0:25 1:0 2:0 3:0 4:0 5:0 6:1 7:0 8:0 
1 1 0 1 0 0 0:25 1:1 2:0 3:0 4:0 5:0 6:1 7:0 8:0 
1 1 0 1 0 0 0:25 1:0 2:0 3:0 4:0 5:0 6:1 7:0 8:0 
1 1 0 1 0 0 0:25 1:1 2:0 3:0 4:0 5:0 6:1 7:0 8:0 
1 1 0 1 0 0 0:25 1:0 2:0 3:0 4:0 5:0 6:1 7:0 8:0 
1 1 0 1 0 0 0:25 1:0 2:0 3:0 4:0 5:0 6:1 7:0 8:0 
1 1 0 1 0 0 0:25 1:1 2:0 3:0 4:0 5:0 6:1 7:0 8:0 
1 1 0 1 0 0 0:25 1:0 2:0 3:0 4:0 5:0 6:1 7:0 8:0 
1 1 0 1 0 0 0:25 1:0 2:0 3:0 4:0 5:0 6:1 7:0 8:0 
1 1 1 1 1 1 0:25 1:0 2:0 3:0 4:0 5:0 6:1 7:1 8:0 
1 1 0 1 0 0 0:25 1:0 2:0 3:0 4:0 5:0 6:1 7:0 8:0 
1 1 0 1 0 0 0:25 1:0 2:0 3:0 4:0 5:0 6:1 7:0 8:0 
1 1 0 1 0 0 0:25 1:0 2:0 3:0 4:0 5:0 6:1 7:0 8:0 
0 0 0 0 0 1 0:8 1:0 2:0 3:0 4:0 5:0 6:1 7:1 8:0 
1 1 0 1 0 0 0:25 1:0 2:0 3:0 4:0 5:0 6:1 7:0 8:0 
1 1 0 1 0 0 0:25 1:0 2:0 3:0 4:0 5:0 6:1 7:0 8:0 
1 1 0 1 0 0 0:25 1:0 2:0 3:0 4:0 5:0 6:1 7:0 8:0 
1 1 0 1 0 0 0:25 1:0 2:0 3:0 4:0 5:0 6:1 7:0 8:0 
1 1 0 1 0 0 0:25 1:0 2:0 3:0 4:0 5:0 6:1 7:0 8:0 
1 1 0 1 0 0 0:25 1:0 2:0 3:0 4:0 5:0 6:1 7:0 8:0 
1 1 0 1 0 0 0:25 1:0 2:0 3:0 4:0 5:0 6:1 7:0 8:0 
1 1 0 1 0 0 0:25 1:0 2:0 3:0 4:0 5:0 6:1 7:0 8:0 
1 1 0 1 0 0 0:25 1:0 2:0 3:0 4:0 5:0 6:1 7:0 8:0 
1 1 0 1 0 0 0:25 1:0 2:0 3:0 4:0 5:0 6:1 7:0 8:0 
1 1 0 1 0 0 0:25 1:0 2:0 3:0 4:0 5:0 6:1 7:0 8:0 
1 1 0 1 0 0 0:25 1:0 2:0 3:0 4:0 5:0 6:1 7:0 8:0 
1 1 0 1 0 0 0:25 1:0 2:0 3:0 4:1 5:0 6:1 7:0 8:0 
1 1 0 1 0 0 0:25 1:0 2:0 3:0 4:0 5:0 6:1 7:0 8:0 
1 1 0 1 0 0 0:25 1:0 2:0 3:0 4:0 5:0 6:1 7:0 8:0 
1 1 0 1 0 0 0:25 1:0 2:0 3:0 4:0 5:0 6:1 7:0 8:0 
1 1 0 1 0 0 0:25 1:0 2:0 3:0 4:0 5:0 6:1 7:0 8:0 
1 1 0 1 0 0 0:25 1:0 2:0 3:0 4:0 5:0 6:1 7:0 8:0 
1 1 0 1 0 0 0:25 1:0 2:0 3:0 4:0 5:0 6:1 7:0 8:0 
1 1 0 1 0 0 0:25 1:0 2:0 3:0 4:0 5:0 6:1 7:0 8:0 
1 1 0 1 0 0 0:25 1:0 2:0 3:0 4:0 5:0 6:1 7:0 8:0 
1 1 0 1 0 0 0:25 1:0 2:0 3:0 4:1 5:0 6:1 7:0 8:0 
1 1 0 1 0 0 0:25 1:0 2:0 3:0 4:0 5:0 6:1 7:0 8:0 
1 1 0 1 0 0 0:25 1:0 2:0 3:0 4:0 5:0 6:1 7:0 8:0 
1 1 0 1 0 0 0:25 1:0 2:0 3:0 4:0 5:0 6:1 7:0 8:0 
1 1 0 1 0 0 0:25 1:0 2:0 3:0 4:0 5:0 6:1 7:0 8:0 
1 1 0 1 0 0 0:25 1:0 2:0 3:0 4:0 5:0 6:1 7:0 8:0 
1 1 0 1 0 0 0:25 1:0 2:0 3:0 4:0 5:0 6:1 7:0 8:0 
1 1 0 1 0 0 0:25 1:0 2:0 3:0 4:0 5:0 6:1 7:0 8:0 
1 1 0 1 0 0 0:25 1:0 2:0 3:0 4:0 5:0 6:1 7:0 8:0 
1 1 0 1 0 0 0:25 1:0 2:0 3:0 4:0 5:0 6:1 7:0 8:0 
1 1 0 1 0 0 0:25 1:0 2:0 3:0 4:0 5:0 6:1 7:0 8:0 
1 1 0 1 0 0 0:25 1:0 2:0 3:0 4:0 5:0 6:1 7:0 8:0 
1 1 0 1 0 0 0:25 1:0 2:0 3:0 4:0 5:0 6:1 7:0 8:0 
1 1 0 1 0 0 0:25 1:0 2:0 3:0 4:0 5:0 6:1 7:0 8:0 
1 1 1 1 1 1 0:25 1:0 2:0 3:0 4:0 5:0 6:1 7:1 8:0 
0 0 0 0 0 1 0:8 1:0 2:0 3:0 4:0 5:0 6:1 7:1 8:0 
1 1 0 1 0 0 0:25 1:0 2:0 3:0 4:0 5:0 6:1 7:0 8:0 
1 1 0 1 0 0 0:25 1:0 2:0 3:0 4:0 5:0 6:1 7:0 8:0 
1 1 0 1 0 0 0:25 1:0 2:0 3:0 4:0 5:0 6:1 7:0 8:0 
1 1 0 1 0 0 0:25 1:0 2:0 3:0 4:0 5:0 6:1 7:0 8:0 
1 1 0 1 0 0 0:25 1:0 2:0 3:0 4:0 5:0 6:1 7:0 8:0 
1 0 0 1 0 0 0:38 1:0 2:0 3:0 4:0 5:0 6:1 7:0 8:0 
1 0 0 1 0 0 0:38 1:0 2:0 3:0 4:0 5:0 6:1 7:0 8:0 
1 1 0 1 0 0 0:25 1:0 2:0 3:0 4:0 5:0 6:1 7:0 8:0 
0 0 0 0 0 1 0:8 1:0 2:0 3:0 4:0 5:0 6:1 7:1 8:0 
1 1 0 1 0 0 0:25 1:0 2:0 3:0 4:0 5:0 6:1 7:0 8:0 
1 1 0 1 0 0 0:25 1:0 2:0 3:0 4:0 5:0 6:1 7:0 8:0 
1 1 0 1 0 0 0:25 1:0 2:0 3:0 4:0 5:0 6:1 7:0 8:0 
1 1 1 1 1 1 0:25 1:0 2:0 3:0 4:0 5:0 6:1 7:1 8:0 
1 1 0 1 0 0 0:25 1:0 2:0 3:0 4:0 5:0 6:1 7:0 8:0 
0 0 0 0.2128435210696719 0 0 0:25 1:0 2:0 3:0 4:1 5:1 6:0 7:0 8:0 
1 1 0 1 0 0 0:25 1:0 2:0 3:0 4:0 5:0 6:1 7:0 8:0 
1 1 0 1 0 0 0:25 1:0 2:0 3:0 4:0 5:0 6:1 7:0 8:0 
1 1 0 1 0 0 0:25 1:0 2:0 3:0 4:0 5:0 6:1 7:0 8:0 
1 1 0 1 0 0 0:25 1:0 2:0 3:0 4:0 5:0 6:1 7:0 8:0 
1 1 0 1 0 0 0:25 1:0 2:0 3:0 4:0 5:0 6:1 7:0 8:0 
1 1 0 1 0 0 0:25 1:0 2:0 3:0 4:0 5:0 6:1 7:0 8:0 
1 1 0 1 0 0 0:25 1:0 2:0 3:0 4:0 5:0 6:1 7:0 8:0 
1 1 0 1 0 0 0:25 1:0 2:0 3:0 4:0 5:0 6:1 7:0 8:0 
1 1 0 1 0 0 0:25 1:0 2:0 3:0 4:0 5:0 6:1 7:0 8:0 
1 1 0 1 0 0 0:25 1:0 2:0 3:0 4:0 5:0 6:1 7:0 8:0 
1 1 0 1 0 0 0:25 1:0 2:0 3:0 4:0 5:0 6:1 7:0 8:0 
1 1 0 1 0 0 0:25 1:0 2:0 3:0 4:0 5:0 6:1 7:0 8:0 
1 1 0 1 0 0 0:25 1:0 2:0 3:0 4:0 5:0 6:1 7:0 8:0 
1 1 0 1 0 0 0:25 1:0 2:0 3:0 4:0 5:0 6:1 7:0 8:0 
1 1 0 1 0 0 0:25 1:0 2:0 3:0 4:0 5:0 6:1 7:0 8:0 
1 1 0 1 0 0 0:25 1:0 2:0 3:0 4:0 5:0 6:1 7:0 8:0 
1 1 0 1 0 0 0:25 1:0 2:0 3:0 4:0 5:0 6:1 7:0 8:0 
0 0 0 1 0 0 0:25 1:0 2:0 3:0 4:1 5:1 6:0 7:0 8:0 
1 1 0 1 0 0 0:25 1:0 2:0 3:0 4:0 5:0 6:1 7:0 8:0 
1 1 0 1 0 0 0:25 1:0 2:0 3:0 4:0 5:0 6:1 7:0 8:0 
1 1 0 1 0 0 0:25 1:1 2:0 3:0 4:0 5:0 6:1 7:0 8:0 
0 1 0 0 0 0 0:25 1:1 2:0 3:1 4:1 5:0 6:1 7:0 8:0 
1 1 0 1 0 0 0:25 1:0 2:0 3:0 4:0 5:0 6:1 7:0 8:0 
1 1 0 1 0 0 0:25 1:0 2:0 3:0 4:0 5:0 6:1 7:0 8:0 
1 1 1 1 1 1 0:25 1:0 2:0 3:0 4:0 5:0 6:1 7:1 8:0 
1 1 0 1 0 0 0:25 1:0 2:0 3:0 4:0 5:0 6:1 7:0 8:0 
0 1 0 0 0 0 0:25 1:1 2:0 3:1 4:1 5:0 6:1 7:0 8:0 
1 1 0 1 0 0 0:25 1:0 2:0 3:0 4:0 5:0 6:1 7:0 8:0 
1 1 0 1 0 0 0:25 1:0 2:0 3:0 4:0 5:0 6:1 7:0 8:0 
1 1 0 1 0 0 0:25 1:0 2:0 3:0 4:0 5:0 6:1 7:0 8:0 
1 0 0 1 0 0 0:25 1:0 2:0 3:0 4:0 5:1 6:0 7:0 8:0 
1 1 0 1 0 0 0:25 1:0 2:0 3:0 4:0 5:0 6:1 7:0 8:0 
1 1 0 1 0 0 0:25 1:0 2:0 3:0 4:0 5:0 6:1 7:0 8:0 
1 1 0 1 0 0 0:25 1:0 2:0 3:0 4:0 5:0 6:1 7:0 8:0 
1 1 0 1 0 0 0:25 1:0 2:0 3:0 4:0 5:0 6:1 7:0 8:0 
1 1 0 1 0 0 0:25 1:0 2:0 3:0 4:0 5:0 6:1 7:0 8:0 
1 1 0 1 0 0 0:25 1:0 2:0 3:0 4:0 5:0 6:1 7:0 8:0 
1 1 0 1 0 0 0:25 1:0 2:0 3:0 4:0 5:0 6:1 7:0 8:0 
1 1 0 1 0 0 0:25 1:0 2:0 3:0 4:0 5:0 6:1 7:0 8:0 
1 0 0 0 0 0 0:8 1:0 2:0 3:0 4:1 5:0 6:1 7:0 8:0 
1 1 0 1 0 0 0:25 1:0 2:0 3:0 4:0 5:0 6:1 7:0 8:0 
1 1 0 1 0 0 0:25 1:0 2:0 3:0 4:0 5:0 6:1 7:0 8:0 
1 0 0 1 0 0 0:25 1:0 2:0 3:0 4:0 5:1 6:0 7:0 8:0 
1 1 0 1 0 0 0:25 1:0 2:0 3:0 4:0 5:0 6:1 7:0 8:0 
1 1 0 1 0 0 0:25 1:0 2:0 3:0 4:0 5:0 6:1 7:0 8:0 
1 1 0 1 0 0 0:25 1:0 2:0 3:0 4:0 5:0 6:1 7:0 8:0 
1 1 0 1 0 0 0:25 1:0 2:0 3:0 4:0 5:0 6:1 7:0 8:0 
1 1 0 1 0 0 0:25 1:0 2:0 3:0 4:0 5:0 6:1 7:0 8:0 
1 1 0 1 0 0 0:25 1:0 2:0 3:0 4:0 5:0 6:1 7:0 8:0 
1 1 0 1 0 0 0:25 1:0 2:0 3:0 4:0 5:0 6:1 7:0 8:0 
0 0 0 1 0 0 0:25 1:0 2:0 3:0 4:1 5:1 6:0 7:0 8:0 
1 1 0 1 0 0 0:25 1:0 2:0 3:0 4:0 5:0 6:1 7:0 8:0 
1 1 0 1 0 0 0:25 1:0 2:0 3:0 4:0 5:0 6:1 7:0 8:0 
1 1 0 1 0 0 0:25 1:0 2:0 3:0 4:0 5:0 6:1 7:0 8:0 
1 1 0 1 0 0 0:25 1:0 2:0 3:0 4:0 5:0 6:1 7:0 8:0 
1 1 0 1 0 0 0:25 1:0 2:0 3:0 4:0 5:0 6:1 7:0 8:0 
1 1 0 1 0 0 0:25 1:0 2:0 3:0 4:0 5:0 6:1 7:0 8:0 
1 1 0 1 0 0 0:25 1:0 2:0 3:0 4:0 5:0 6:1 7:0 8:0 
0 0 0 1 0 0 0:25 1:0 2:0 3:0 4:1 5:1 6:0 7:0 8:0 
1 1 0 1 0 0 0:25 1:0 2:0 3:0 4:0 5:0 6:1 7:0 8:0 
1 1 0 1 0 0 0:25 1:0 2:0 3:0 4:0 5:0 6:1 7:0 8:0 
0 0 0 1 0 0 0:25 1:0 2:0 3:0 4:1 5:1 6:0 7:0 8:0 
1 0 0 1 0 0 0:25 1:0 2:0 3:0 4:0 5:1 6:0 7:0 8:0 
1 1 0 1 0 0 0:25 1:0 2:0 3:0 4:0 5:0 6:1 7:0 8:0 
1 1 0 1 0 0 0:25 1:0 2:0 3:0 4:0 5:0 6:1 7:0 8:0 
1 1 0 1 0 0 0:25 1:0 2:0 3:0 4:0 5:0 6:1 7:0 8:0 
1 1 1 1 1 1 0:25 1:0 2:0 3:0 4:0 5:0 6:1 7:1 8:0 
1 1 0 1 0 0 0:25 1:0 2:0 3:0 4:0 5:0 6:1 7:0 8:0 
0 1 1 1 1 1 0:25 1:1 2:0 3:1 4:0 5:0 6:1 7:1 8:0 
1 1 1 1 1 1 0:25 1:0 2:0 3:0 4:0 5:0 6:1 7:1 8:0 
1 1 0 1 0 0 0:25 1:0 2:0 3:0 4:0 5:0 6:1 7:0 8:0 
1 1 1 1 1 1 0:25 1:0 2:0 3:0 4:0 5:0 6:1 7:1 8:0 
1 1 0 1 0 0 0:25 1:0 2:0 3:0 4:0 5:0 6:1 7:0 8:0 
0 0 0 0 1 1 0:25 1:0 2:0 3:1 4:0 5:0 6:1 7:1 8:0 
1 1 0 1 0 0 0:25 1:0 2:0 3:0 4:0 5:0 6:1 7:0 8:0 
1 0.4464131094491608 0 1 0.2006450631301258 0.1207416512049826 0:8 1:0 2:0 3:0 4:1 5:0 6:0 7:0 8:0 
1 1 1 1 1 1 0:14 1:0 2:0 3:0 4:0 5:0 6:0 7:0 8:0 
1 0 1 1 1 0.3269630084102221 0:14 1:0 2:0 3:1 4:0 5:0 6:0 7:0 8:0 
1 1 0 1 1 0 0:8 1:0 2:0 3:0 4:0 5:0 6:0 7:0 8:0 
1 1 0 1 1 0 0:8 1:0 2:0 3:0 4:0 5:0 6:0 7:0 8:0 
1 1 1 1 1 1 0:14 1:0 2:0 3:0 4:0 5:0 6:0 7:0 8:0 
1 1 1 1 1 1 0:14 1:0 2:0 3:0 4:0 5:0 6:0 7:0 8:0 
1 1 0 1 1 0 0:8 1:0 2:0 3:0 4:0 5:0 6:0 7:0 8:0 
0 0 0 1 0 0 0:25 1:0 2:0 3:0 4:1 5:1 6:0 7:0 8:0 
1 0.2648863161469778 1 1 1 1 0:8 1:0 2:0 3:0 4:0 5:0 6:0 7:1 8:1 
1 1 0 1 0 0 0:25 1:0 2:0 3:0 4:0 5:0 6:1 7:0 8:0 
1 0 0 1 0 0 0:8 1:0 2:0 3:0 4:0 5:0 6:0 7:0 8:1 
1 1 0 1 0 0 0:25 1:0 2:0 3:0 4:0 5:0 6:1 7:0 8:0 
1 0 0 1 0 0 0:38 1:0 2:0 3:0 4:0 5:0 6:1 7:0 8:0 
1 1 0 1 0 0 0:25 1:0 2:0 3:0 4:1 5:0 6:1 7:0 8:0 
1 1 0 1 0 0 0:25 1:0 2:0 3:0 4:0 5:0 6:1 7:0 8:0 
1 1 0 1 0 0 0:25 1:0 2:0 3:0 4:0 5:0 6:1 7:0 8:0 
1 1 0 1 0 0 0:25 1:0 2:0 3:0 4:0 5:0 6:1 7:0 8:0 
1 1 0 1 0 0 0:25 1:0 2:0 3:0 4:0 5:0 6:1 7:0 8:0 
1 1 0 1 0 0 0:25 1:0 2:0 3:0 4:0 5:0 6:1 7:0 8:0 
